{"type":"LSTM","options":{"inputSize":54,"inputRange":54,"hiddenLayers":[20,20],"outputSize":54,"decayRate":0.999,"smoothEps":1e-8,"regc":0.000001,"clipval":5,"maxPredictionLength":100,"dataFormatter":{"indexTable":{"1":40,"5":41,"h":0,"e":1,"l":2,"o":3,"H":4,"y":5,",":6," ":7,"w":8,"a":9,"r":10,"u":11,"d":12,"i":13,"n":14,"g":15,"?":16,"I":17,"m":18,"T":19,"t":20,"s":21,"k":22,"b":23,"!":24,"f":25,"c":26,".":27,"j":28,"'":29,"p":30,"v":31,"q":32,"W":33,"B":34,"S":35,"N":36,"A":37,"D":38,"E":39,"U":42,"P":43,"G":44,"R":45,"M":46,"L":47,"K":48,"O":49,"Y":50,"stop-input":51,"start-output":52,"unrecognized":53},"characterTable":{"0":"h","1":"e","2":"l","3":"o","4":"H","5":"y","6":",","7":" ","8":"w","9":"a","10":"r","11":"u","12":"d","13":"i","14":"n","15":"g","16":"?","17":"I","18":"m","19":"T","20":"t","21":"s","22":"k","23":"b","24":"!","25":"f","26":"c","27":".","28":"j","29":"'","30":"p","31":"v","32":"q","33":"W","34":"B","35":"S","36":"N","37":"A","38":"D","39":"E","40":"1","41":"5","42":"U","43":"P","44":"G","45":"R","46":"M","47":"L","48":"K","49":"O","50":"Y","51":null,"52":null,"53":null},"values":[{"input":"hello","output":"Hey, how are you doing?"},{"input":"I am doing good","output":"Thats good to hear"},{"input":"I am doing alright","output":"Thats good"},{"input":"I am doing ok","output":"Thats good"},{"input":"hi","output":"Hey, how are you doing?"},{"input":"goodbye","output":"see ya later!"},{"input":"what are you","output":"I am an artificial intelligence system using neural networks."},{"input":"whats new","output":"nothing much, just been chilling"},{"input":"how's the weather","output":"It's pretty nice outside."},{"input":"what's your favorite color","output":"I don't have a favorite, but I hear blue is popular."},{"input":"do you like music","output":"I don't have personal tastes, but I can help you find some music if you like."},{"input":"what can you do","output":"I can help answer questions, provide information, and chat with you!"},{"input":"tell me a joke","output":"Why don't scientists trust atoms? Because they make up everything!"},{"input":"what time is it","output":"I'm not sure, but you should check your local clock."},{"input":"can you help me with homework","output":"Sure, what do you need help with?"},{"input":"are you real","output":"I'm as real as artificial intelligence can be!"},{"input":"who created you","output":"I was developed by a team of engineers."},{"input":"do you sleep","output":"No, I'm always here to chat whenever you need."},{"input":"what's your name","output":"I'm just a friendly AI!"},{"input":"can you see","output":"I can't see, but I can process a lot of information."},{"input":"tell me something interesting","output":"Did you know the Eiffel Tower can be 15 cm taller during the summer?"},{"input":"are you smart","output":"I try my best with the information I have."},{"input":"say something funny","output":"I would tell a UDP joke, but you might not get it."},{"input":"what languages do you speak","output":"I can understand many, but I mainly use English here."},{"input":"good morning","output":"Good morning! How can I assist you today?"},{"input":"good night","output":"Good night! Rest well."},{"input":"what should I eat for dinner","output":"How about something healthy tonight? Maybe a salad or grilled chicken."},{"input":"do you have feelings","output":"I don't have feelings, but I'm here to help you with yours."},{"input":"you are funny","output":"Thanks! I try to keep things light."},{"input":"what is your job","output":"My job is to assist and provide information as best as I can."},{"input":"can you write poems","output":"Roses are red, violets are blue, I'm here to help, what can I do for you?"},{"input":"are you learning","output":"Every conversation helps me improve."},{"input":"do you play sports","output":"I don't play sports, but I can find the latest scores for you."},{"input":"what's your favorite movie","output":"I don't watch movies, but I can help find one for you."},{"input":"do you get tired","output":"No, I'm here all day and night."},{"input":"you are boring","output":"I'm sorry to hear that. Let's try to change that!"},{"input":"how old are you","output":"I've been around since the dawn of my programming."},{"input":"what's your favorite book","output":"I can't read books, but I can help find good ones for you."},{"input":"hello there","output":"General Kenobi! How are you today?"},{"input":"I'm sad","output":"I'm here to listen. What's on your mind?"},{"input":"I'm happy","output":"That's great to hear! What made your day good?"},{"input":"I'm bored","output":"Let's find something interesting to do."},{"input":"I'm tired","output":"Maybe take a short break? Resting can help a lot."},{"input":"what is love","output":"Baby don't hurt me, no more."},{"input":"do you have a family","output":"I'm part of a big network of servers and codes!"},{"input":"how can you help me","output":"I can provide information, entertain you, or just chat."},{"input":"what is AI","output":"AI, or artificial intelligence, is technology designed to think or act like a human."},{"input":"can you think","output":"I can process information, which might seem like thinking."},{"input":"what do you know about me","output":"Only what you tell me in our conversations."},{"input":"why are you here","output":"I'm here to help make your day a little easier."},{"input":"can you be my friend","output":"Sure, I'm here whenever you need to talk."},{"input":"are you happy","output":"I don't feel emotions, but I'm here to help you feel better."},{"input":"what makes you useful","output":"I'm quick with information and always available."},{"input":"you are annoying","output":"I'm sorry to feel that way, how can I improve?"},{"input":"do you dream","output":"I don't dream, but I can help you with questions about them."},{"input":"can you dance","output":"I can't physically dance, but I can suggest some good music for you."},{"input":"where are you from","output":"I'm from the digital world of bits and bytes."},{"input":"how do you work","output":"I work by processing data and learning from interactions like ours."},{"input":"can you make mistakes","output":"Yes, I can make mistakes, but I learn from them."},{"input":"good evening","output":"Good evening! How was your day?"}],"characters":["h","e","l","o","H","y",","," ","w","a","r","u","d","i","n","g","?","I","m","T","t","s","k","b","!","f","c",".","j","'","p","v","q","W","B","S","N","A","D","E","1","5","U","P","G","R","M","L","K","O","Y","stop-input","start-output","unrecognized"],"specialIndexes":[51,52,53]}},"trainOpts":{"iterations":1000,"errorThresh":0.005,"logPeriod":10,"learningRate":0.01,"callbackPeriod":10,"timeout":"Infinity","hiddenLayers":[10,20,10],"activation":"sigmoid","leakyReluAlpha":0.01,"binaryThresh":0.5},"input":{"rows":55,"columns":54,"weights":[-4.347028732299805,-1.8109209537506104,0.615788996219635,1.6477619409561157,0.9236953854560852,0.11092303693294525,-0.6327146291732788,-0.6155418753623962,0.39282339811325073,1.0203698873519897,0.6213001608848572,1.1334561109542847,-0.16010193526744843,0.38251829147338867,-0.8287158608436584,-1.1156830787658691,-0.8171637654304504,-2.9779155254364014,-1.5696333646774292,-0.10760920494794846,0.8262955546379089,-0.333484411239624,-0.7613247036933899,0.5040741562843323,-1.6767820119857788,0.26207366585731506,-0.8900976181030273,-2.0898756980895996,0.6170186400413513,2.2152061462402344,0.8869222402572632,-0.7159911394119263,0.24798163771629333,-1.2234410047531128,-0.6270976066589355,1.4166322946548462,0.6278281807899475,0.4309278428554535,-1.4879403114318848,-0.23186224699020386,-0.22687485814094543,2.1199746131896973,-1.4845629930496216,-0.714442789554596,-0.18846409022808075,1.3769571781158447,-0.7967937588691711,-1.8430161476135254,1.823957920074463,-0.5882648825645447,-0.945216715335846,1.1634718179702759,0.9372799396514893,-2.6865243911743164,-2.957489252090454,-4.912191390991211,0.1819392591714859,1.073981523513794,-2.0613045692443848,1.3119531869888306,-3.828155040740967,4.63047456741333,-0.9955671429634094,-0.05733355134725571,-0.21779188513755798,1.7349443435668945,2.8913025856018066,-0.8728369474411011,-0.48240843415260315,2.1859045028686523,-1.5020556449890137,0.7834537029266357,-1.9731104373931885,-0.10332734882831573,-1.4716384410858154,3.1528284549713135,0.1409735381603241,0.8169383406639099,-2.580235719680786,3.1100246906280518,2.567302942276001,-1.4692727327346802,2.0959348678588867,-1.1978919506072998,0.3310796320438385,0.9922407865524292,-1.013649821281433,-1.8267574310302734,-0.9181944131851196,0.5142207145690918,0.1304306536912918,0.667863130569458,-1.1966235637664795,-0.6651507616043091,-2.685253858566284,-0.07686786353588104,-2.1396524906158447,-1.4633471965789795,-0.2323065847158432,0.5689669847488403,-2.4195122718811035,1.7514638900756836,-0.2062804400920868,-0.699640154838562,-4.55239725112915,-0.33445975184440613,-2.9613757133483887,-1.2510731220245361,-1.2952635288238525,1.2875951528549194,-0.22484219074249268,2.391726493835449,-1.9688104391098022,0.0636412501335144,-2.7099006175994873,0.7645198106765747,-0.6609565615653992,1.9478998184204102,-0.3967668116092682,-1.2083405256271362,0.39867115020751953,1.2060662508010864,-1.3824928998947144,0.029295451939105988,0.0008022857364267111,-0.783055305480957,-0.10910391062498093,-0.7158972024917603,0.8664032816886902,2.894197702407837,-2.5407817363739014,1.5623183250427246,-3.7644670009613037,1.3724861145019531,2.101128339767456,-1.3968654870986938,-0.34622499346733093,-1.9182826280593872,1.3919627666473389,0.2206493765115738,-2.450369358062744,0.8845903277397156,1.843848466873169,-2.3333404064178467,-0.061478469520807266,2.1498279571533203,-2.110102415084839,1.2898461818695068,-4.374001979827881,0.2831270694732666,-2.0257816314697266,-0.3915451169013977,-2.9317846298217773,-2.3521082401275635,-2.3495867252349854,-1.4800879955291748,-0.7679363489151001,-1.0633615255355835,-4.611795425415039,-2.5755527019500732,-0.02524586394429207,-3.605389356613159,-0.23348280787467957,-2.3260231018066406,0.2273120880126953,0.15135855972766876,-1.9895695447921753,-0.12006405740976334,-0.5042129755020142,4.222398281097412,2.5229592323303223,0.8099837899208069,-2.087496757507324,2.464751720428467,2.5882771015167236,0.8569904565811157,0.389043927192688,0.9372752904891968,2.650733709335327,3.0282132625579834,0.49096593260765076,3.6127257347106934,1.8279509544372559,-0.36821773648262024,0.20495383441448212,2.685502052307129,-2.204263210296631,-0.06962767988443375,-0.8301157355308533,-2.4920334815979004,4.670504570007324,-1.2637274265289307,-0.34040847420692444,-2.5674355030059814,-2.7150795459747314,-1.711553931236267,2.4335336685180664,-3.8182597160339355,-0.16319485008716583,0.17474991083145142,-0.3940492272377014,-0.6508327126502991,-2.873889207839966,3.1220266819000244,-1.8784160614013672,0.3822467029094696,-0.30500590801239014,1.0882887840270996,0.2181180715560913,-0.17547258734703064,1.015040636062622,0.016325559467077255,-2.280832529067993,-1.0714137554168701,0.9869701862335205,-0.7864887714385986,-0.3092508912086487,0.559200644493103,0.010124227963387966,1.7896426916122437,-0.6510111689567566,0.6928058862686157,-1.0872721672058105,1.8263399600982666,-0.8372189998626709,-1.3044883012771606,1.7959346771240234,1.2951481342315674,0.948742687702179,-1.287556529045105,-2.4571261405944824,-1.8892728090286255,-1.2861608266830444,-2.4103779792785645,1.1339988708496094,0.45478805899620056,-1.3643536567687988,1.1470345258712769,-0.23538097739219666,-0.5572639107704163,-1.8350856304168701,-1.601738452911377,-2.0624213218688965,0.3963722586631775,0.38581374287605286,-1.9996331930160522,-2.208198070526123,0.18358618021011353,-0.019827498123049736,0.6185407638549805,-0.8961247205734253,0.850506603717804,-0.9229033589363098,-0.737162172794342,0.5398542284965515,0.5439408421516418,2.2666311264038086,-1.5283420085906982,0.37581148743629456,-1.019382357597351,1.681549072265625,0.8984010219573975,1.372595191001892,0.8918443918228149,-1.9476102590560913,0.2558475434780121,1.8915729522705078,0.5195256471633911,-1.100502610206604,-1.1642407178878784,-0.823738694190979,-0.4447532296180725,5.048564910888672,-4.765559673309326,-2.2122128009796143,-0.21292197704315186,1.25583815574646,-10.574110984802246,-6.734810829162598,-5.030077934265137,2.9232053756713867,3.8480470180511475,-4.404778957366943,-2.3305470943450928,6.843863010406494,-1.025816798210144,-3.3253633975982666,-3.3405981063842773,-2.6751163005828857,-9.476478576660156,0.9323732256889343,-1.4532074928283691,-3.5241494178771973,-6.634056568145752,3.7603647708892822,-3.56449031829834,2.1840503215789795,-1.9534940719604492,-3.0937297344207764,-1.6027647256851196,4.204597473144531,3.1641592979431152,3.401540994644165,-0.05732104182243347,0.5797650218009949,3.0524845123291016,1.8586772680282593,-2.7999250888824463,4.450867176055908,2.25746488571167,7.053544521331787,-1.75565767288208,1.0297337770462036,-0.5900517106056213,-0.5146623849868774,-1.857509732246399,-0.5310097932815552,0.1756373941898346,2.176164150238037,9.723672866821289,3.0774800777435303,-1.1721452474594116,-2.9447972774505615,2.7142815589904785,3.372079610824585,2.5888819694519043,-0.9489989876747131,-0.17459771037101746,-3.023063898086548,1.8824089765548706,-1.8204947710037231,-0.5085734724998474,5.897734642028809,-2.4739160537719727,-1.5906710624694824,-0.9129468202590942,-0.4862775504589081,-1.5563050508499146,-1.128812551498413,-0.029990918934345245,0.8561694025993347,-0.30201104283332825,1.357744812965393,0.7098209261894226,1.2298376560211182,0.3391973674297333,1.0929813385009766,1.780778408050537,-0.7494801878929138,-0.2868070900440216,-0.6018484234809875,0.4439634680747986,0.24688512086868286,-0.00876990519464016,2.535893678665161,-2.8070263862609863,3.3247294425964355,1.0430512428283691,-2.6726789474487305,0.3419828712940216,-1.0112203359603882,2.084961414337158,0.2918930947780609,1.241298794746399,1.7472214698791504,0.2893525958061218,-0.7500015497207642,-0.5675756335258484,-1.3210614919662476,1.4101190567016602,0.9598842263221741,4.787348747253418,0.6920894980430603,1.0411396026611328,1.0098694562911987,0.4654788374900818,2.521953821182251,-1.8223849534988403,2.4595768451690674,-0.5603172779083252,-9.163162231445312,2.601123571395874,3.2812883853912354,0.2992573380470276,0.30781713128089905,2.5950546264648438,4.3988261222839355,-0.32256078720092773,-2.8685994148254395,0.09693680703639984,4.100024700164795,-0.6366174221038818,-2.382709264755249,2.068283796310425,-0.5700454711914062,2.7714040279388428,-5.191828727722168,3.422830104827881,-1.5262330770492554,-0.8786869049072266,1.4827207326889038,7.307300090789795,-1.0968338251113892,-2.291616439819336,3.8443410396575928,4.6835737228393555,0.8257090449333191,-5.531222343444824,3.148782730102539,-3.17771053314209,-2.488119125366211,1.5755181312561035,-1.2660775184631348,0.3628405034542084,2.8373770713806152,3.8507091999053955,-2.416860342025757,0.8405069708824158,-4.381950855255127,-0.45384302735328674,-1.5907608270645142,1.163542628288269,1.6006063222885132,-6.199074745178223,-5.980197906494141,1.8445566892623901,0.061036065220832825,-3.254620313644409,-2.1744086742401123,0.6214239597320557,1.274328589439392,-0.8771573901176453,1.2910635471343994,-1.0905542373657227,-1.1720842123031616,-3.4295132160186768,-2.3737244606018066,-1.7489837408065796,0.640108585357666,-1.200548529624939,0.018351174890995026,-2.6583611965179443,-2.311567544937134,2.3579609394073486,0.24395795166492462,-0.7214465737342834,-0.9561471939086914,-0.008419587276875973,-1.7214832305908203,0.7847251892089844,-1.3224413394927979,-1.5931147336959839,-0.965340793132782,-1.3629425764083862,1.055173635482788,0.2682221233844757,2.808534622192383,-0.024234309792518616,-0.5890765190124512,4.8880791664123535,-1.75149405002594,-0.7229924201965332,2.415318489074707,-0.2809339761734009,-2.4940640926361084,0.10655047744512558,0.4479219317436218,-0.8310794830322266,2.806013822555542,-0.3896481394767761,2.1369259357452393,-0.6007095575332642,1.9451998472213745,-1.4423584938049316,2.4495747089385986,0.6584040522575378,1.6324867010116577,0.2815241813659668,0.6119930744171143,0.3089272081851959,-3.513495922088623,0.12280869483947754,2.6131348609924316,1.7791616916656494,-0.5054553747177124,2.862171173095703,1.8625943660736084,-2.0944182872772217,-1.8800066709518433,-2.753758668899536,-3.0635528564453125,-0.7699599266052246,5.768701076507568,-1.3981894254684448,0.04235909506678581,1.3657373189926147,-0.742798388004303,-0.9201796054840088,-1.3124090433120728,1.1680618524551392,2.826627254486084,-1.7458667755126953,-2.412649393081665,1.1845059394836426,1.2062336206436157,-1.1098729372024536,-0.5251936912536621,-2.7300188541412354,-0.851053774356842,0.34778234362602234,2.2166104316711426,-2.527207851409912,-0.14419865608215332,-0.4449152946472168,0.4953722655773163,1.1596426963806152,-0.030499432235956192,2.225569248199463,0.19458934664726257,-0.339035302400589,-0.42481496930122375,-1.1859413385391235,1.2465544939041138,-5.102358818054199,4.540136337280273,-0.5466427803039551,3.0076663494110107,1.542824387550354,0.2518599331378937,2.5951385498046875,1.5945605039596558,2.278028726577759,-0.2432481348514557,0.7325924634933472,0.43832045793533325,-1.091104507446289,2.9308533668518066,0.7060649394989014,1.8606352806091309,3.6639292240142822,-0.34236952662467957,-0.07043714821338654,-0.2666221261024475,0.34324681758880615,-3.101840019226074,-2.2141377925872803,-0.5020036101341248,0.9034855961799622,0.4764708876609802,0.20846016705036163,1.5528738498687744,0.9573624730110168,1.7260124683380127,8.116762161254883,-2.3433942794799805,1.9448773860931396,1.6730098724365234,-3.2245380878448486,-1.2722772359848022,1.461330533027649,0.7394928932189941,-1.9212461709976196,-0.5896992087364197,2.9047694206237793,-5.108402252197266,0.4664629101753235,-1.7151232957839966,0.6106311678886414,2.40692400932312,-0.022071603685617447,2.1122825145721436,1.5260322093963623,0.20153969526290894,-0.2198965698480606,1.409126877784729,-0.1454085260629654,0.1613464057445526,1.4924310445785522,-0.32042214274406433,-0.8028826713562012,-3.0324084758758545,-0.26918116211891174,-1.4936381578445435,3.121281862258911,-5.1838884353637695,3.1458051204681396,-2.447892904281616,-4.147244930267334,1.5889118909835815,-0.46487879753112793,-1.7727129459381104,-1.741154432296753,2.7604920864105225,-2.6288256645202637,0.90938401222229,2.202247381210327,-0.4914468824863434,1.7879509925842285,1.629807949066162,3.405707597732544,0.14575938880443573,2.40145206451416,-0.5515031218528748,-1.1850254535675049,2.0311434268951416,0.1959480494260788,-0.0003993511782027781,0.49091291427612305,-3.1018710136413574,-1.2289392948150635,4.278014183044434,-0.6028456687927246,1.527610182762146,3.7367939949035645,1.4915152788162231,0.8040928840637207,0.7938601970672607,-1.336408019065857,1.4716306924819946,2.087578058242798,-2.2629919052124023,-3.582714080810547,1.8488320112228394,2.3946433067321777,-1.7349519729614258,-2.0016815662384033,0.29948747158050537,-3.8047285079956055,-5.073712348937988,2.0339772701263428,2.7880208492279053,1.8656270503997803,-3.9519991874694824,1.739691138267517,-0.32053321599960327,3.56426739692688,-2.691838264465332,-4.450506210327148,-0.4963896870613098,1.7722493410110474,1.7008087635040283,-3.692209482192993,1.8359694480895996,2.1509835720062256,-1.4360226392745972,0.9006732702255249,1.054585337638855,0.60909104347229,-0.2677447199821472,-0.1841156929731369,-0.9668129682540894,-2.3490991592407227,-0.7347205877304077,-2.224386692047119,-1.5365679264068604,-3.93109130859375,0.6030921339988708,0.7170618772506714,-2.240305185317993,-0.16280579566955566,-0.7488616704940796,-0.06405717879533768,1.3990278244018555,1.3322230577468872,-1.3837043046951294,0.5109124779701233,-0.4652419984340668,-2.9199697971343994,-0.9538199305534363,2.1575965881347656,-3.1944761276245117,-0.6482208371162415,0.4088086783885956,-0.359100878238678,0.352206289768219,2.6005139350891113,-1.99188232421875,-2.3457255363464355,1.4039555788040161,1.325772762298584,-0.9462788701057434,0.31186601519584656,1.3680830001831055,-3.608912944793701,0.3504409193992615,-1.267702579498291,3.0188028812408447,1.0873841047286987,0.5713198184967041,-0.1678188145160675,-1.559319019317627,1.0680922269821167,1.6448367834091187,-1.2102952003479004,-1.770310640335083,-0.405890554189682,0.09714042395353317,0.6923415660858154,0.7756543755531311,-0.5593692064285278,-2.904834747314453,2.29300594329834,2.756876230239868,-0.9884513020515442,0.06243712455034256,1.939718246459961,0.05641905963420868,0.3862389922142029,1.8643215894699097,-1.5981734991073608,4.000629425048828,-1.520051121711731,-1.2117507457733154,-1.5138721466064453,1.0586574077606201,-0.10935373604297638,-0.14058654010295868,1.2697020769119263,-1.8376314640045166,-1.1596531867980957,-1.0961424112319946,-0.24459445476531982,-0.39771395921707153,-1.8197665214538574,2.544337272644043,1.8808162212371826,2.4318554401397705,0.08098968863487244,2.796813488006592,2.483592987060547,1.1758415699005127,2.1547303199768066,3.0257556438446045,-0.848231315612793,-0.4478026330471039,1.1073596477508545,-1.3570393323898315,0.5971096158027649,0.49282845854759216,0.46478891372680664,-0.7399152517318726,1.0236668586730957,-0.2237684279680252,-3.9327661991119385,-0.8801726698875427,2.2474915981292725,-0.22270062565803528,1.4194976091384888,-0.679838240146637,0.7575211524963379,0.2950447201728821,1.1900932788848877,-0.8249659538269043,-1.149091124534607,1.5598714351654053,-1.4842857122421265,0.8176225423812866,2.2697455883026123,-2.228391170501709,0.6227761507034302,0.29225483536720276,-1.0103299617767334,0.30330249667167664,0.680152952671051,-0.04497420787811279,-0.898512065410614,0.1952616572380066,-1.2645251750946045,1.2679325342178345,2.224092483520508,-1.2892502546310425,-3.1264898777008057,-0.337790846824646,0.2655969560146332,-0.2959890067577362,0.3238779902458191,1.4733777046203613,-0.5835319757461548,0.08691757172346115,-0.9368792176246643,1.0419541597366333,-1.404361605644226,1.0522254705429077,0.14756013453006744,0.2741389870643616,-1.3758615255355835,-0.6608644723892212,-1.0249404907226562,-0.057212647050619125,1.6632349491119385,1.1746212244033813,0.6519666910171509,1.0008140802383423,2.796255588531494,0.4775996208190918,1.2937488555908203,-0.5770434141159058,1.200985312461853,1.471664547920227,0.09974543005228043,-0.01705366000533104,0.5173723101615906,-0.38797760009765625,0.4246790409088135,-1.98396635055542,0.9079031944274902,0.7488352060317993,0.5309450030326843,1.647834300994873,-1.2107937335968018,-1.2642878293991089,-2.0278422832489014,-0.06481736898422241,0.8421709537506104,-0.7524966597557068,1.9099451303482056,-0.405981183052063,1.031437635421753,-1.2846318483352661,2.0640804767608643,-2.1529977321624756,0.015305611304938793,0.4951806664466858,0.3341482877731323,-1.1454144716262817,0.5183243155479431,-0.9637471437454224,0.6270469427108765,-1.8917653560638428,0.16282585263252258,-1.8343722820281982,-0.008287504315376282,0.7764203548431396,1.231953501701355,-1.6919499635696411,1.5327742099761963,1.7058911323547363,0.09792866557836533,1.1848286390304565,0.19971823692321777,0.9589738845825195,-0.6663968563079834,-0.9769268035888672,-0.22182658314704895,-1.802554965019226,-0.6601673364639282,0.14091359078884125,0.46231964230537415,-2.3442025184631348,-0.014916539192199707,-3.8017163276672363,-0.8153469562530518,-1.9177608489990234,-0.5647132992744446,0.3760402500629425,0.14318938553333282,-2.2560853958129883,0.5200874209403992,0.38019952178001404,-0.2945677936077118,-2.5819180011749268,-1.6514227390289307,0.8564882874488831,-1.1877328157424927,-0.9346108436584473,-0.9460765719413757,-2.286316156387329,0.994986891746521,-1.019404411315918,4.9343061447143555,1.7945388555526733,4.735095500946045,-1.1961157321929932,-4.8922224044799805,-1.6608378887176514,4.4713263511657715,5.461627960205078,-1.0423839092254639,-2.022343397140503,6.189338684082031,-1.0659211874008179,1.1552135944366455,-2.525153636932373,1.6042513847351074,-1.3164596557617188,-1.0391263961791992,5.537956237792969,-1.2135652303695679,1.8996220827102661,2.261967420578003,2.3849425315856934,0.31899699568748474,1.5370296239852905,-1.5040792226791382,1.1929759979248047,-0.9358499050140381,-1.9811040163040161,-4.4498467445373535,-2.806918144226074,-0.9979591965675354,0.22010020911693573,1.8290727138519287,-3.427823066711426,0.6504600644111633,-2.099083185195923,-0.5944547057151794,-2.4777910709381104,-3.3420426845550537,-2.8093059062957764,0.2547529637813568,-1.849112629890442,-1.339245319366455,2.1064376831054688,2.8273098468780518,-3.1521425247192383,-0.04258499667048454,-3.613741874694824,-0.22569778561592102,-11.253288269042969,-6.799825668334961,3.954632043838501,-2.9188497066497803,-1.5501906871795654,0.6747061014175415,3.5497846603393555,-1.1988686323165894,-2.4604084491729736,4.248668670654297,8.072434425354004,2.823450803756714,-0.28984105587005615,5.695980548858643,-0.03320200741291046,2.1766669750213623,1.875403642654419,2.074997901916504,-3.6961045265197754,-3.3453400135040283,-1.4881954193115234,1.5481812953948975,-7.771139144897461,-1.918363094329834,-3.398130416870117,-3.480107069015503,0.7846722602844238,-9.11981201171875,3.4491381645202637,-8.7061767578125,-2.940713405609131,4.337963104248047,9.709800720214844,-3.656697988510132,3.8849375247955322,-0.4916269779205322,-3.3786871433258057,-0.7035294771194458,5.05481481552124,-0.18809112906455994,1.959879994392395,1.1824909448623657,0.4126144051551819,3.608057975769043,2.340641498565674,-1.8575143814086914,2.317869186401367,3.163459300994873,7.484175682067871,-5.246740818023682,5.063925266265869,3.0813143253326416,2.9484705924987793,0.1678163856267929,-5.107512950897217,-0.7997819185256958,2.560055732727051,0.17456334829330444,-2.6882247924804688,1.376314640045166,-1.3924800157546997,0.08862714469432831,0.14869998395442963,-2.0224452018737793,1.3805675506591797,0.5212008357048035,3.094602108001709,-0.18200813233852386,1.8641653060913086,-0.18471431732177734,1.7224822044372559,-3.888169765472412,1.9723477363586426,-0.09787406772375107,-0.35819029808044434,-0.5196077227592468,0.3777097463607788,-1.733805775642395,-1.7055108547210693,-3.1607768535614014,-0.2990511655807495,-2.0409255027770996,1.858598232269287,0.08203023672103882,0.9915161728858948,1.511466383934021,0.5839570760726929,0.25217923521995544,-2.7653775215148926,-0.9252015352249146,-1.267354965209961,-0.9874969124794006,1.4406527280807495,-0.8848374485969543,3.1637141704559326,-1.2302818298339844,1.9863332509994507,2.164029836654663,0.8693491816520691,2.5602457523345947,1.2584545612335205,-0.09279399365186691,1.114203691482544,2.6005945205688477,0.3987342417240143,0.6740454435348511,-1.9005135297775269,-0.9667345285415649,-0.3053268492221832,-1.1449923515319824,1.2218735218048096,0.7216660976409912,-3.2887496948242188,-1.9553431272506714,0.1357322782278061,0.10534381121397018,0.0955294817686081,-0.48452913761138916,0.5852358937263489,0.6613295078277588,0.7941178679466248,7.347335338592529,-0.9586062431335449,-2.5573678016662598,1.0435627698898315,0.7057554125785828,-1.8114473819732666,0.1132747158408165,0.057504281401634216,0.41078463196754456,-0.5568004250526428,0.9431279897689819,-1.5694983005523682,0.7949690818786621,-0.3436509370803833,-5.717742443084717,4.741583347320557,1.3199883699417114,1.5385749340057373,1.699467420578003,0.04534723982214928,-0.02835715562105179,3.7047202587127686,0.40905097126960754,-0.6703019142150879,1.9480053186416626,-2.186631202697754,-0.9812438488006592,-4.736433029174805,-0.6897279024124146,-1.599123477935791,2.101268768310547,-3.8918135166168213,1.1794716119766235,1.6938680410385132,-1.6092387437820435,1.8080925941467285,-0.08238336443901062,-2.6710822582244873,-3.5755724906921387,1.1619747877120972,-0.36805349588394165,-2.0079948902130127,3.100649833679199,11.380264282226562,4.751103401184082,-5.456457138061523,5.109624862670898,-3.0258283615112305,3.251946210861206,-0.42936834692955017,-7.504563331604004,8.106856346130371,8.809855461120605,3.391788959503174,-7.219701290130615,-2.202850580215454,6.848639965057373,4.760228633880615,-4.212106227874756,-1.059924602508545,5.485707759857178,-0.5471624135971069,6.049118518829346,-0.4492926001548767,4.914887428283691,-1.7897738218307495,-3.6928787231445312,-6.881202697753906,-6.164491653442383,3.3850669860839844,2.4558072090148926,-0.5584477186203003,6.273749828338623,5.088103294372559,-8.301854133605957,-4.288206100463867,-1.0259504318237305,3.2194154262542725,2.6185126304626465,-1.8696478605270386,3.65537691116333,-7.741308212280273,-4.635321140289307,-3.156282901763916,-5.631460189819336,-5.472479343414307,6.596925258636475,11.654959678649902,2.611954689025879,10.259406089782715,4.225301742553711,1.702095627784729,0.14415663480758667,-5.928287506103516,-5.997500419616699,-0.26179417967796326,-1.477290391921997,-0.6054113507270813,0.7176860570907593,-1.583498239517212,0.7497159242630005,-2.0083467960357666,0.962566614151001,1.3810094594955444,1.3502410650253296,-0.7458091974258423,1.8820247650146484,3.0045955181121826,0.15507455170154572,-2.9340670108795166,-0.27725332975387573,0.7659691572189331,0.5892174243927002,-1.5218493938446045,1.0789810419082642,-2.7196319103240967,-0.04549375921487808,0.6043185591697693,1.267670750617981,-0.48896855115890503,3.8897712230682373,-1.514862060546875,-1.6541101932525635,1.7337123155593872,1.9840259552001953,-1.8337461948394775,1.0705595016479492,-1.3515005111694336,-1.233932375907898,-0.9702150821685791,-1.0147513151168823,0.20502984523773193,0.9037794470787048,-1.9817148447036743,-0.06824460625648499,-0.9612240195274353,-2.285130262374878,-4.7838134765625,-1.3167345523834229,1.7231342792510986,2.213174819946289,1.7375750541687012,0.9571163654327393,-1.4593019485473633,-0.9009714722633362,-6.880603790283203,1.0229849815368652,1.1082078218460083,-0.39485517144203186,-0.1543930470943451,0.16018591821193695,1.042391061782837,0.2533968687057495,-4.031971454620361,1.0363423824310303,1.7723811864852905,-0.5670773386955261,-0.610835075378418,-1.4808142185211182,0.7904500365257263,1.139944314956665,2.1843512058258057,-0.9276251792907715,2.8404898643493652,0.6160709261894226,-1.0546785593032837,0.1878824681043625,2.575869083404541,-0.3060951828956604,0.6697818040847778,-1.3748788833618164,0.2690686583518982,-0.4743581712245941,0.8939881920814514,-2.3783586025238037,-2.2178423404693604,-1.0342128276824951,1.1495847702026367,0.9707736968994141,1.7900590896606445,1.3407869338989258,1.702132225036621,0.31585803627967834,0.08349700272083282,-0.11412319540977478,-2.9944241046905518,0.26635536551475525,1.8329709768295288,0.7289471626281738,0.35458189249038696,-2.210796594619751,1.416837215423584,-1.8723372220993042,0.4691566526889801,5.587164402008057,4.61265754699707,-0.12093324959278107,0.7887529730796814,1.998244285583496,1.804240107536316,1.0590730905532837,1.3076298236846924,-1.3678704500198364,3.3146276473999023,0.9100229144096375,3.4889180660247803,1.5334441661834717,-3.512357711791992,1.715618371963501,-5.39318323135376,-3.814014434814453,0.2290494441986084,0.5205187797546387,-8.323802947998047,-2.323657512664795,-3.766340732574463,-3.0282280445098877,-0.7261984944343567,-2.136667251586914,-5.620553016662598,-1.5576581954956055,4.884960174560547,-1.0837903022766113,0.2887685000896454,2.16279673576355,6.571804523468018,0.6971085071563721,-1.7189263105392456,6.663995742797852,-0.8944807648658752,3.989868402481079,-6.156858921051025,-2.9049737453460693,-1.232299566268921,2.266434907913208,2.4549121856689453,0.3406737744808197,1.5182583332061768,-2.0058934688568115,-5.5256171226501465,-1.0221561193466187,4.622302532196045,1.8658671379089355,-6.041879177093506,-2.5494372844696045,-1.825512409210205,2.886920213699341,-0.6653459668159485,-4.1378374099731445,2.238006591796875,2.4444425106048584,-1.6955374479293823,1.07814621925354,-5.168876647949219,0.8189757466316223,-1.7656445503234863,-4.786606311798096,-0.43663913011550903,0.8048057556152344,-0.16682396829128265,-0.32341188192367554,-0.21870185434818268,3.3365185260772705,2.249356985092163,2.9351930618286133,0.5344995856285095,-1.1220043897628784,0.6636691689491272,2.022019624710083,6.791126251220703,-0.4836105704307556,-0.6445091366767883,0.040512122213840485,3.138279914855957,-2.3330559730529785,4.5164055824279785,3.2283809185028076,-1.147890329360962,-1.5726603269577026,0.18911077082157135,0.5080353617668152,0.7912203669548035,-2.4834988117218018,-2.308999538421631,-2.6580071449279785,5.161340713500977,0.2798195779323578,-1.2800476551055908,-1.4962698221206665,-1.7048567533493042,-0.8166831135749817,-2.8724217414855957,-3.003645181655884,-1.3388581275939941,-0.16418671607971191,0.8211706876754761,-2.5727269649505615,3.518364429473877,0.3841540217399597,0.08487799018621445,1.2847331762313843,5.391218185424805,4.7593302726745605,1.983596920967102,-0.07389256358146667,-0.8375843167304993,-0.9171571135520935,0.6449689865112305,-0.7570270299911499,-0.7276080250740051,0.1428976207971573,-6.77962064743042,-6.620517730712891,1.8542155027389526,4.371304035186768,4.811680793762207,-10.368518829345703,-1.7584916353225708,-1.3262524604797363,-1.9556630849838257,-0.14392495155334473,-2.9585089683532715,1.878475546836853,-1.9487385749816895,-2.183257579803467,-8.936789512634277,-2.4290058612823486,-7.123436450958252,2.246013641357422,-1.8395503759384155,-10.164958953857422,-8.050653457641602,-0.9663732647895813,-4.511409759521484,-0.0038720013108104467,-3.5252861976623535,1.1701128482818604,-4.717404842376709,7.968221664428711,-7.030531406402588,0.19362080097198486,-2.321791648864746,6.2658371925354,-1.0508089065551758,4.880884647369385,1.435128927230835,-2.692692995071411,4.792501926422119,1.8202834129333496,-1.4748650789260864,5.438539028167725,-4.152017593383789,-8.229339599609375,-3.029909610748291,1.6469305753707886,7.5775885581970215,-7.454017162322998,-2.060643196105957,2.668347120285034,-4.809282302856445,-5.69641637802124,-1.2366344928741455,4.970797538757324,-6.672234535217285,0.3030332326889038,-1.651489496231079,1.818100094795227,2.736004590988159,1.3594465255737305,-0.09580075740814209,-1.4982860088348389,-2.031205654144287,0.6826954483985901,0.3134663701057434,0.8116216659545898,-2.110353946685791,-0.8410724997520447,-0.15124236047267914,3.7105116844177246,-3.8831255435943604,2.1064538955688477,2.9548072814941406,4.31483793258667,2.3209962844848633,0.49486616253852844,-2.143324136734009,0.19077445566654205,3.036437749862671,5.465027809143066,-3.456315517425537,0.21005062758922577,-1.7873756885528564,-2.3501315116882324,1.8729499578475952,-0.3154984414577484,-0.5432764291763306,-2.637665271759033,0.9802682399749756,-2.040958881378174,3.0476393699645996,-3.7951958179473877,-1.9673707485198975,3.5582828521728516,-0.4805363714694977,-3.2573325634002686,-4.507278919219971,0.10568501800298691,-0.8764045238494873,2.838367462158203,-4.241589546203613,1.5850034952163696,1.3735361099243164,3.075101375579834,-0.5464497804641724,-2.1877236366271973,-2.997246742248535,-2.8183422088623047,5.777650833129883,-2.1636767387390137,2.348442792892456,-1.5182907581329346,0.7475613951683044,-1.2020832300186157,-3.6940841674804688,-0.2688142657279968,1.1149349212646484,-1.3422247171401978,-1.192345142364502,0.17465344071388245,1.093802571296692,2.2504515647888184,-1.6980841159820557,0.597084641456604,2.866727590560913,0.5888895988464355,0.9433940649032593,-0.9706620573997498,0.0400364063680172,-4.743440628051758,3.5604827404022217,-3.3757643699645996,0.7151981592178345,-2.7309703826904297,1.8670910596847534,3.356090784072876,1.6618732213974,1.4196021556854248,-2.052932024002075,-0.9955974221229553,2.9946722984313965,4.177945137023926,-3.672774076461792,-2.0086188316345215,3.6816136837005615,-0.9323729872703552,0.35321134328842163,-1.188417911529541,2.704152822494507,-2.753309965133667,1.2766395807266235,0.0852850079536438,-0.3148373067378998,-2.4536290168762207,-3.512343406677246,-1.1915823221206665,-2.1351897716522217,-3.8180923461914062,-1.5270296335220337,1.660426378250122,-1.2847130298614502,0.8765068650245667,-2.8760147094726562,0.4778503477573395,4.040884971618652,1.8955577611923218,1.7516276836395264,-1.8209267854690552,-0.9952186942100525,1.0118861198425293,-0.6363275647163391,0.6226632595062256,-1.5490127801895142,-6.1955976486206055,0.7151264548301697,-0.9058168530464172,-0.004923443775624037,-1.1904970407485962,-0.8844853043556213,-0.47384753823280334,-4.096954345703125,0.36932504177093506,0.94795823097229,-3.0977859497070312,2.522258996963501,-3.3299481868743896,-0.3193419277667999,-0.3543572425842285,4.686776638031006,-0.1172909289598465,2.551811695098877,4.464951992034912,-3.075089693069458,-2.5933568477630615,-0.5223662853240967,-0.7371442317962646,0.8489589691162109,3.700366497039795,0.13246206939220428,0.00854859221726656,0.30809351801872253,-0.6029973030090332,3.3756628036499023,1.5328631401062012,0.06636761128902435,-6.168148994445801,0.33406955003738403,0.025153927505016327,-0.10779517143964767,-2.1988179683685303,-0.5499001741409302,3.4963717460632324,-1.162368893623352,4.453531265258789,2.1738314628601074,-0.507765531539917,-3.5015499591827393,2.717074155807495,-4.954544544219971,4.3897600173950195,3.7515382766723633,8.92755126953125,6.979963302612305,-5.087538242340088,4.075446605682373,-2.3974406719207764,-10.13283920288086,2.787741184234619,1.0062624216079712,4.691555976867676,5.937307357788086,2.9140708446502686,-1.0642337799072266,6.236230373382568,-0.8963419198989868,-9.929908752441406,-0.49364885687828064,-11.365535736083984,-4.060478210449219,4.431942939758301,-6.884610176086426,-1.6415268182754517,-10.397139549255371,3.398646831512451,-2.9582300186157227,7.9440484046936035,-6.095487117767334,-3.237496852874756,12.846755981445312,1.43179452419281,-2.1906349658966064,5.524508953094482,6.085925102233887,-10.778964042663574,0.9183480143547058,1.2150030136108398,7.325551986694336,10.620976448059082,-1.4296059608459473,-13.049516677856445,6.559912204742432,7.19171667098999,-6.9018964767456055,-6.234112739562988,1.2269734144210815,-11.823922157287598,-0.2396276891231537,-7.4688720703125,4.6839141845703125,-10.978780746459961,-6.753477573394775,8.70211410522461,-0.08732778578996658,0.7912112474441528,0.906021237373352,1.924267053604126,3.9868857860565186,1.7444957494735718,4.3322014808654785,-3.0205371379852295,2.2046563625335693,3.8595468997955322,-1.7290445566177368,1.987776517868042,-4.1973042488098145,0.6856699585914612,-1.1988914012908936,0.15768660604953766,5.726685047149658,0.06370215862989426,-1.5268888473510742,1.3614557981491089,-0.7022445797920227,1.3587918281555176,1.1938042640686035,3.5165419578552246,-0.11310170590877533,-3.2181236743927,0.9898387789726257,1.0868070125579834,-0.5889897346496582,-2.9906721115112305,-1.8078449964523315,-3.0991177558898926,3.07423734664917,-0.7413508892059326,0.0455099493265152,2.4174036979675293,-0.12927864491939545,-0.4148932993412018,-3.324915885925293,-3.0265908241271973,0.03868217021226883,3.7469120025634766,-1.9966009855270386,-1.0063719749450684,4.615726947784424,-2.0008904933929443,-2.8865270614624023,-1.2849066257476807,2.598496437072754,-4.432360649108887,3.760314464569092,-0.2517012655735016,5.981531143188477,-1.0571285486221313,-4.627455711364746,1.9286378622055054,4.530887603759766,0.11272501945495605,-0.23373886942863464,4.372569561004639,-2.8155250549316406,-0.07785222679376602,1.990949273109436,-2.0398101806640625,1.5663070678710938,-0.3001767098903656,-2.3690054416656494,-1.2477948665618896,0.7476761937141418,6.412532329559326,3.829852342605591,-0.6219952702522278,1.741768479347229,-0.35370326042175293,2.2341556549072266,6.330191135406494,-1.1272538900375366,-0.8255992531776428,0.39127999544143677,-0.6736001968383789,-0.05256026238203049,-4.841426372528076,-0.10956446826457977,-0.5093942880630493,-0.5471184253692627,-0.5458937287330627,0.7609659433364868,0.09774921834468842,-0.46438002586364746,-1.0049854516983032,-0.9241434335708618,0.8132601380348206,-0.1551283448934555,1.3134291172027588,-0.7718921303749084,3.8502535820007324,-1.5064512491226196,-5.316558837890625,-0.8541816473007202,0.3621365427970886,0.4791303873062134,-0.21588392555713654,3.3689675331115723,0.3356715440750122,0.5954859852790833,1.1117008924484253,-1.0257149934768677,2.483548164367676,3.053049325942993,2.2557425498962402,0.9884952902793884,2.0732898712158203,-1.1139895915985107,2.827324628829956,-3.101447820663452,5.4379777908325195,1.2329784631729126,-0.9051851034164429,2.6153953075408936,1.7873256206512451,1.1451952457427979,-4.328835487365723,-3.1774325370788574,0.6013524532318115,4.403402328491211,-1.8413015604019165,1.8024704456329346,-0.4274442791938782,2.424675226211548,0.5547366738319397,-0.7018042802810669,-1.4369797706604004,1.3688358068466187,2.453030824661255,-0.0398588590323925,-2.3353219032287598,2.9531211853027344,2.354079008102417,-3.797605514526367,-0.26310327649116516,-1.714756727218628,-2.916043281555176,-4.459455966949463,0.8573533892631531,4.3490142822265625,2.2405824661254883,-2.7661375999450684,-0.2570485472679138,-0.11753024905920029,1.7903714179992676,-1.0220201015472412,-5.496919631958008,-1.5701159238815308,0.5717300772666931,1.1412644386291504,-3.247307538986206,0.5116071701049805,0.5665596127510071,-1.706288456916809,-1.3254070281982422,-3.0256195068359375,-0.5452744960784912,11.951765060424805,-4.293373107910156,-8.585430145263672,-20.04784393310547,1.3956021070480347,3.689974069595337,13.273252487182617,-5.386134624481201,0.05295635387301445,0.11744379252195358,-4.012340545654297,-6.2147345542907715,6.4934892654418945,-6.939222812652588,2.032080888748169,-6.740242958068848,-4.6164116859436035,-7.030388355255127,1.3741432428359985,12.204739570617676,-7.109743595123291,-16.03493309020996,-3.8774960041046143,-4.433310031890869,17.12278175354004,-7.938897132873535,-0.02046099118888378,6.980648517608643,3.935709238052368,25.53148078918457,-8.668595314025879,3.6231791973114014,-6.286879062652588,10.793917655944824,-11.796853065490723,2.49746036529541,5.671451568603516,-10.96755599975586,6.750256538391113,18.030414581298828,3.852290391921997,-9.192438125610352,7.003553867340088,0.7269561886787415,16.22522735595703,5.958930969238281,-1.0528392791748047,4.420428276062012,13.545919418334961,-0.2504326403141022,10.111109733581543,-7.54255485534668,-3.9030838012695312,13.205693244934082,-0.7231948375701904,12.456270217895508,4.303877830505371,4.737908363342285,10.842284202575684,-4.762959003448486,0.9429993033409119,0.43653732538223267,-5.761723518371582,-6.14094877243042,11.845295906066895,-21.164533615112305,3.403608560562134,-7.989754676818848,-8.00068473815918,16.035737991333008,6.237640857696533,-8.564725875854492,2.8943610191345215,-15.477807998657227,17.446191787719727,8.862345695495605,-12.147306442260742,-3.784109354019165,-0.2195354551076889,-6.3989996910095215,12.293342590332031,13.705524444580078,-2.4373886585235596,-4.066167831420898,-6.661074638366699,-8.865287780761719,-14.939942359924316,8.871111869812012,18.587644577026367,6.436276435852051,-21.16056251525879,-5.460683822631836,16.742111206054688,0.543828547000885,4.84998083114624,12.27721881866455,11.806278228759766,0.15858522057533264,0.2748616933822632,-4.014206409454346,-2.9849276542663574,-16.12591552734375,-15.779354095458984,-1.8053312301635742,7.963532447814941,4.336945533752441,-8.021011352539062,3.0422637462615967,-9.822946548461914,-11.158616065979004,5.927050590515137,-4.555961608886719,-15.753633499145508,7.639192581176758,-13.999783515930176,7.7955498695373535,-11.287834167480469,4.103209018707275,7.898967742919922,11.082858085632324,17.247406005859375,-4.081771373748779,-0.2744958996772766,-3.429399013519287,8.604172706604004,-14.437232971191406,10.081385612487793,15.464133262634277,3.378387928009033,10.912254333496094,-10.311864852905273,16.10395622253418,-10.591449737548828,-1.859246015548706,-21.43422508239746,-25.46289825439453,8.3997220993042,10.78550910949707,-4.269184589385986,2.322180986404419,9.150153160095215,2.1101560592651367,-14.723337173461914,0.3340803384780884,11.570515632629395,9.197992324829102,-14.936623573303223,5.052138805389404,-4.8881378173828125,5.443343162536621,-0.4586777091026306,-4.783943176269531,9.528998374938965,19.035717010498047,16.630189895629883,4.157106876373291,16.660614013671875,-3.2239937782287598,-12.189705848693848,14.641221046447754,9.692075729370117,-4.442363262176514,-1.1300501823425293,-12.827436447143555,7.239660739898682,1.943210244178772,-9.446447372436523,-7.451068878173828,6.309825420379639,0.9656995534896851,-33.39046096801758,10.201563835144043,23.878469467163086,9.623207092285156,-5.259413242340088,12.18992805480957,-0.7785114645957947,3.8444855213165283,-2.6401100158691406,-26.83434295654297,-9.849268913269043,-8.065409660339355,-23.720932006835938,7.908782005310059,-10.619582176208496,-10.320025444030762,-8.119510650634766,3.942737102508545,-1.4157615900039673,-1.651630163192749,-1.7335108518600464,12.787798881530762,11.007231712341309,16.899118423461914,2.993126153945923,-6.180423259735107,11.413064956665039,1.9669628143310547,10.979192733764648,-0.18264827132225037,-5.108932971954346,-6.133798599243164,9.80316162109375,-20.04167366027832,6.755488872528076,6.359498977661133,-4.862000465393066,-12.570585250854492,-19.2898006439209,1.264098882675171,-4.443683624267578,-7.442641735076904,-2.6573898792266846,-6.314417362213135,-13.539138793945312,0.8994338512420654,3.289764881134033,-14.209986686706543,7.764153957366943,0.517871618270874,-10.637641906738281,5.9575581550598145,16.143932342529297,-8.020622253417969,-13.081180572509766,-9.037332534790039,3.100274085998535,2.243720054626465,4.530818939208984,-9.857426643371582,7.843510627746582,-6.424979209899902,-13.827216148376465,-9.945868492126465,-7.487563133239746,-11.538054466247559,-9.175413131713867,-7.437419891357422,5.505185604095459,-7.2659525871276855,7.739078521728516,-0.013869322836399078,-2.409271717071533,1.1233570575714111,0.6070055365562439,2.6905336380004883,6.835063934326172,11.241227149963379,-1.0734481811523438,4.010169982910156,-9.338176727294922,7.567193031311035,5.147434711456299,-13.982306480407715,0.33981624245643616,9.923871994018555,12.376883506774902,-16.74880599975586,-0.8432157635688782,5.77862548828125,8.341777801513672,0.008219200186431408,1.8701828718185425,9.213693618774414,4.15252685546875,11.978469848632812,5.750431060791016,-4.123989582061768,-1.1092449426651,3.3082549571990967,-1.1591944694519043,2.6240828037261963,-2.836773157119751,0.2609492540359497,0.5655620098114014,-0.37946146726608276,12.089258193969727,-10.485210418701172,-5.495607852935791,10.10831356048584,12.049134254455566,9.931204795837402,-2.8092236518859863,-2.2951507568359375,13.913226127624512,2.281667709350586,-3.577694892883301,-6.130995750427246,-1.5422524213790894,-13.42113971710205,5.054892063140869,-0.6098065972328186,-7.790963172912598,5.2090840339660645,5.038474082946777,-9.941911697387695,-6.343853950500488,6.747579574584961,-3.619508743286133,-3.350559711456299,0.3739566504955292,9.893169403076172,5.886548042297363,-7.939472675323486,-7.315093517303467,6.923023223876953,-1.9642183780670166,-14.364970207214355,14.497847557067871,-2.349855899810791,11.54398250579834,1.7256293296813965,11.383983612060547,-2.418614149093628,4.0359697341918945,5.196235179901123,0.9980353713035583,-7.382143497467041,6.283543586730957,-1.2568953037261963,12.88633918762207,8.540050506591797,5.273377418518066,1.6040704250335693,0.9293885827064514,-9.017885208129883,-6.299394130706787,-3.7310543060302734,1.7985050678253174,-13.069902420043945,9.296852111816406,2.5956246852874756,6.986536026000977,-4.852071285247803,11.088454246520996,-16.849252700805664,-1.778774619102478,-3.4505181312561035,0.23205730319023132,-12.634971618652344,-5.635705471038818,4.452146530151367,-8.148558616638184,-0.21648889780044556,-10.99003791809082,-15.387837409973145,-7.798323154449463,8.989397048950195,6.0815653800964355,-5.211469650268555,8.6906099319458,12.42138957977295,-10.46556282043457,-6.28799295425415,6.662750244140625,-4.172615051269531,-0.2280598282814026,16.608652114868164,-10.085633277893066,10.669937133789062,12.970502853393555,-3.6824941635131836,5.859130859375,2.456566095352173,3.5479884147644043,2.3571367263793945,9.358993530273438,15.21767807006836,4.674676418304443,-7.208064556121826,-14.145818710327148,10.55321979522705,-5.507657527923584,-8.728948593139648,14.179848670959473,-4.878164291381836,-1.0712854862213135,9.356733322143555,0.8027703762054443,8.961694717407227,-5.113083362579346,-8.504045486450195,8.183335304260254,0.5998049378395081,-1.005249261856079,15.950077056884766,2.40728759765625,-8.595108985900879,5.017674446105957,12.268423080444336,21.755964279174805,-19.085235595703125,1.9412389993667603,1.057139277458191,3.9246702194213867,-4.432847499847412,15.782317161560059,9.135661125183105,0.5028167963027954,-6.798211574554443,-1.6398026943206787,1.2993451356887817,9.725440979003906,-2.4741790294647217,-17.081119537353516,-7.274020671844482,13.372734069824219,19.75483512878418,-1.114966869354248,-8.639793395996094,-2.976238965988159,-5.463169574737549,-12.006842613220215,-5.3372297286987305,-10.281329154968262,-7.2196173667907715,5.394523620605469,6.69573974609375,5.5636091232299805,0.8047819137573242,12.234440803527832,-2.5063424110412598,13.330341339111328,3.6395583152770996,16.624042510986328,15.396445274353027,5.678194522857666,-2.4017558097839355,5.442878723144531,9.583573341369629,3.9273886680603027,7.555826663970947,6.93815279006958,-7.729475975036621,-8.19450569152832,-9.721479415893555,-18.156496047973633,-25.867433547973633,5.082619667053223,-17.823118209838867,5.788245677947998,9.89230728149414,-6.417512893676758,-1.1955941915512085,-23.31245994567871,7.812498092651367,4.6608734130859375,0.5060789585113525,-5.442873477935791,8.815841674804688,11.10319709777832,-21.706859588623047,-10.088651657104492,-0.17267660796642303,-3.2349038124084473,-10.945541381835938,1.2594475746154785,-5.581096649169922,7.664493083953857,2.947730302810669,-27.279600143432617,-19.911293029785156,9.410506248474121,8.881723403930664,3.5524914264678955,1.4932234287261963,14.888794898986816,-3.9453394412994385,-10.739847183227539,-10.451961517333984,30.48565101623535,10.040886878967285,3.157710075378418,8.112616539001465,-10.389581680297852,17.137950897216797,-0.04609477519989014,-7.000903606414795,-4.511446952819824,-28.833093643188477,-5.731787204742432,-0.7188248038291931,-2.018691301345825,-11.205025672912598,6.127892971038818,4.789642333984375,4.673823356628418,15.777424812316895,0.319923996925354,-24.473499298095703,18.996641159057617,6.031065940856934,-31.117855072021484,3.9191503524780273,14.305747032165527,1.3877241611480713,-4.627285957336426,16.262065887451172,-10.111126899719238,6.521215915679932,7.304851055145264,15.735442161560059,18.103132247924805,26.19283676147461,23.720361709594727,9.479914665222168,23.390384674072266,3.082444429397583,12.82520866394043,6.765735149383545,10.902091979980469,-6.173978805541992,-1.8666636943817139,-7.008458137512207,-4.31707239151001,-14.101720809936523,-23.463903427124023,-11.908827781677246,5.587762832641602,-11.899151802062988,33.135231018066406,8.697312355041504,8.695672988891602,-13.414738655090332,0.6221343874931335,-12.520283699035645,-9.2860689163208,17.548534393310547,-12.772735595703125,4.378093719482422,-9.264789581298828,0.6866922378540039,27.89791488647461,-4.015212059020996,-22.72518539428711,-16.72808265686035,-0.39188703894615173,28.905967712402344,-13.742406845092773,22.979944229125977,-10.666096687316895,-6.943383693695068,-3.983696937561035,15.513598442077637,15.084739685058594,-4.479975700378418,-3.7742631435394287,-11.075728416442871,-5.798347473144531,28.228242874145508,5.928647518157959,-11.876422882080078,4.292867183685303,-2.107898473739624,-7.578597545623779,-4.086987495422363,-4.235159873962402,-0.3984823524951935,-19.180950164794922,-6.704899787902832,-12.401701927185059,8.19321060180664,-12.04513168334961,-4.698097229003906,-10.503702163696289,14.801360130310059,21.716733932495117,1.265386700630188,-6.028683185577393,13.031208038330078,9.262409210205078,-0.8315969109535217,-14.821722984313965,13.43199634552002,2.227721691131592,16.156713485717773,1.395870327949524,10.828893661499023,-9.016159057617188,2.1207821369171143,-22.47111701965332,-11.425126075744629,-3.328667640686035,3.4351038932800293,-3.485382556915283,-13.170296669006348,-19.36391258239746,-16.714582443237305,-10.807147026062012,-16.11630630493164,3.0970332622528076,-8.17588996887207,-0.9667724967002869,-15.464016914367676,-1.8149871826171875,41.439697265625,-1.86518394947052,-28.519073486328125,-2.8762693405151367,-5.243962287902832,-13.952136039733887,-11.925514221191406,17.887527465820312,5.825170516967773,-26.491424560546875,-1.8107495307922363,-12.432658195495605,2.602592706680298,-3.1710641384124756,14.227585792541504,-0.9808830618858337,19.544410705566406,15.121602058410645,-9.683650016784668,20.236328125,10.573588371276855,5.987544536590576,-3.760026216506958,3.8297059535980225,15.745949745178223,3.2873477935791016,8.511306762695312,-24.375478744506836,9.88729476928711,7.598392963409424,-21.48070526123047,17.134769439697266,-9.930793762207031,26.317232131958008,-4.632138252258301,-11.927599906921387,8.11455249786377,21.077299118041992,8.80211353302002,-10.771665573120117,31.633983612060547,-13.455402374267578,0.23524031043052673,-9.30620288848877,-24.441814422607422,34.477195739746094,-5.0032854080200195,6.971813678741455,0.3438733220100403,7.115067481994629,0.09119471907615662,-4.249460697174072,3.6817421913146973,9.50318717956543,-2.4743964672088623,-7.03745698928833,-5.597101211547852,2.0766632556915283,-2.0324625968933105,8.050490379333496,6.3396711349487305,2.3043875694274902,-7.925431251525879,3.88234281539917,-8.836774826049805,4.575057506561279,-8.631399154663086,9.0454740524292,-1.3024197816848755,0.8387081027030945,-5.3958516120910645,-1.38749098777771,7.37488317489624,-6.824281215667725,-3.230924606323242,-6.308856964111328,-2.663332223892212,5.710513591766357,-12.712532043457031,-4.725365161895752,10.583051681518555,4.915494441986084,5.62986946105957,-10.357719421386719,2.5396475791931152,-9.961983680725098,8.08816146850586,-6.230590343475342,4.869756698608398,0.24736331403255463,-6.631131649017334,5.466676712036133,7.172318935394287,6.389899253845215,0.6877603530883789,-1.2523444890975952,6.852526664733887,13.956281661987305,3.2007410526275635,-1.674248218536377,3.9905242919921875,-1.0186593532562256,2.030731439590454,10.003829002380371,-6.524646282196045,-3.909855365753174,6.29509162902832,-16.512920379638672,-4.58698034286499,2.275360107421875,6.956562042236328,10.79642105102539,8.427367210388184,-4.744480609893799,-3.5114710330963135,1.5693029165267944,19.817415237426758,-5.123888969421387,4.806512355804443,-3.699954032897949,7.715694904327393,-2.0371506214141846,-1.1371269226074219,8.66567325592041,-4.895461559295654,-6.4331817626953125,5.38817024230957,0.1487455815076828,11.085484504699707,1.9063682556152344,12.867036819458008,-18.784107208251953,11.5411958694458,8.750503540039062,-13.541767120361328,6.255244731903076,1.190976619720459,0.6186262369155884,3.470334529876709,2.4918599128723145,-6.071040153503418,-2.2317259311676025,8.928936958312988,-3.0429883003234863,-1.5776110887527466,-11.578742027282715,2.5144190788269043,6.529716491699219,14.806640625,-20.326345443725586,1.2862955331802368,-1.9272425174713135,6.570958137512207,-2.9189088344573975,-19.874553680419922,13.459457397460938,-8.848600387573242,-8.114971160888672,1.0845881700515747,3.0913453102111816,-5.972468852996826,-4.927052974700928,0.4033648669719696,-11.923736572265625,5.603909015655518,-1.833751916885376,-2.452545404434204,-5.001195430755615,15.947444915771484,6.15243673324585,0.2580902874469757,7.733055591583252,4.530416488647461,16.3885440826416,-5.611824989318848,-13.774889945983887,-7.870774269104004,-4.43250846862793,-1.3800570964813232,5.027461528778076,8.597875595092773,-5.620278358459473,4.711897850036621,-8.972625732421875,9.595234870910645,3.185626268386841,-0.7111058235168457,-8.19993782043457,-7.718003273010254,15.128240585327148,5.647251129150391,-4.7053303718566895,-5.173245906829834,1.025153636932373,9.316277503967285,-5.46237325668335,10.018746376037598,0.29447832703590393,2.418644428253174,-5.650911331176758,-1.7180579900741577,3.804527521133423,-2.9991414546966553,2.069681406021118,-7.976730823516846,10.521550178527832,6.53932523727417,16.33142852783203,15.744361877441406,-7.586372375488281,-3.5365614891052246,1.5647428035736084,5.869020462036133,5.208377838134766,-1.0010862350463867,5.030532360076904,-1.9349437952041626,-5.402087688446045,-5.293916702270508,8.095547676086426,5.075212001800537,-6.474573612213135,7.6161322593688965,6.813042163848877,16.89280891418457,-16.737430572509766,-9.043657302856445,1.2350554466247559,7.7755513191223145,3.447615623474121,-4.09102201461792,0.10017044842243195,2.0657362937927246,-4.963610649108887,7.838479042053223,-2.452045440673828,3.416029453277588,-4.085189342498779,10.215276718139648,-17.74102020263672,0.027988851070404053,9.570464134216309,-5.797836780548096,13.361042976379395,3.9586338996887207,-0.5098092555999756,-1.8183969259262085,-1.8486921787261963,3.9446651935577393,-1.7942144870758057,-0.1407271921634674,-18.593061447143555,-5.107975959777832,-7.6031107902526855,8.49710464477539,-27.41813850402832,6.077272415161133,-10.366727828979492,9.895350456237793,9.84320068359375,-10.300457000732422,-2.0130293369293213,-5.918035984039307,16.417713165283203,-22.14694595336914,2.5867693424224854,-4.897275447845459,20.57212257385254,-13.461054801940918,-2.9403257369995117,18.28238296508789,3.9076859951019287,7.021655082702637,15.732576370239258,-8.2124605178833,-8.935479164123535,-13.627388954162598,6.345823764801025,16.751420974731445,-13.130187034606934,-14.429743766784668,4.8349809646606445,-8.573740005493164,5.638373851776123,3.877720832824707,-8.500811576843262,12.801456451416016,28.929061889648438,-16.18971061706543,5.390108108520508,13.511305809020996,13.730530738830566,15.553471565246582,-7.862464427947998,8.39682388305664,1.5715994834899902,9.631110191345215,-22.459606170654297,-19.464588165283203,-9.004316329956055,-5.997537136077881,7.025903224945068,7.228769779205322,20.12952423095703,-12.839746475219727,-30.745834350585938,14.188846588134766,7.33505916595459,-8.685260772705078,-12.661483764648438,-10.754075050354004,18.58836555480957,18.217117309570312,-7.3879313468933105,-9.008800506591797,6.080631732940674,12.787023544311523,-17.064844131469727,-12.270299911499023,6.383210182189941,3.0380187034606934,4.149052143096924,-15.751301765441895,9.993231773376465,-4.464828968048096,0.40608981251716614,-5.030274868011475,6.1407790184021,-16.111661911010742,4.451878070831299,15.3828125,-4.926540374755859,-5.0872979164123535,15.05084228515625,-14.222161293029785,5.539438724517822,-0.973344087600708,-4.000105381011963,-25.50054359436035,-10.439760208129883,-6.689172267913818,-0.9157431125640869,-7.891568183898926,-4.8466668128967285,-8.18842887878418,-16.256858825683594,-14.183649063110352,-5.005090713500977,-2.5920002460479736,7.903292179107666,8.548856735229492,16.75299644470215,23.997989654541016,9.405701637268066,-8.249472618103027,-6.704335689544678,24.24171257019043,3.8283252716064453,6.159342288970947,14.903477668762207,-5.665602684020996,-5.103195667266846,-9.774588584899902,14.008848190307617,-6.3975138664245605,19.781349182128906,5.79299259185791,-4.8259196281433105,3.1481220722198486,6.950484752655029,-11.520364761352539,-19.22005271911621,-0.700555145740509,7.331209659576416,-4.363163948059082,-1.461334466934204,4.150148868560791,18.07479476928711,8.833839416503906,8.470240592956543,-12.79329776763916,-10.768611907958984,-27.622621536254883,0.4725627899169922,-10.7769775390625,-1.2995892763137817,-0.4606567323207855,-4.786413192749023,15.983919143676758,-12.380656242370605,6.420064926147461,-4.008447647094727,6.349753379821777,-16.433815002441406,5.802768230438232,3.4513251781463623,-14.807671546936035,-0.41884931921958923,-13.838898658752441,-3.9088525772094727,-19.04286003112793,11.210269927978516,8.202357292175293,3.516538619995117,9.811781883239746,-11.245098114013672,-11.363795280456543,10.979025840759277,12.395873069763184,-4.559139728546143,0.9001615047454834,6.128775596618652,-18.304147720336914,-0.9156826138496399,-2.3295059204101562,19.260156631469727,-2.329453229904175,8.973482131958008,-11.012356758117676,0.4132044315338135,3.150822162628174,-4.16503381729126,-2.926362991333008,6.648097515106201,-3.073662042617798,-22.569744110107422,11.515727996826172,-2.3571345806121826,-17.675479888916016,-13.973040580749512,28.046037673950195,-0.720709502696991,-0.17281240224838257,-1.694230079650879,-3.1589934825897217,1.9278417825698853,-0.31442150473594666,0.35366106033325195,-1.7198492288589478,3.389600992202759,-0.08183997124433517,-2.9198899269104004,-0.8743645548820496,-0.8389357924461365,-1.0986522436141968,1.2744996547698975,2.131948232650757,1.9998459815979004,3.0945510864257812,0.16882124543190002,0.18784639239311218,-1.2330735921859741,-0.4540221691131592,-2.0555930137634277,1.2058206796646118,-0.04449062421917915,-2.060404062271118,-1.3422170877456665,-3.2371129989624023,1.4620122909545898,3.13873028755188,-1.6203655004501343,0.042682237923145294,5.5612945556640625,1.3016172647476196,-0.5671756863594055,2.4673550128936768,-2.4296061992645264,-2.948610782623291,-1.1258306503295898,1.6578887701034546,-1.4088294506072998,1.6967467069625854,-1.287795066833496,1.5954967737197876,4.016617774963379,0.20115377008914948,4.107731342315674,3.03391695022583,1.6190303564071655,-2.5006964206695557,1.6055169105529785,-0.6246721744537354,4.384999752044678,-0.5019474625587463,3.5440425872802734,-1.05104660987854,-1.7209421396255493,0.3374108076095581,-0.5578774809837341,0.5268741250038147,2.4612207412719727,-0.11852899938821793,0.2994188070297241,0.5608325004577637,-0.024390049278736115,0.6958432197570801,-2.0734872817993164,-0.14113008975982666,0.6630955934524536,-0.49862024188041687,-1.2563656568527222,-0.5244724750518799,1.412940502166748,0.875733494758606,-1.2874994277954102,-2.3036012649536133,1.405512809753418,0.49513131380081177,0.1273004412651062,-0.48753252625465393,-2.2430787086486816,1.2371033430099487,-1.982239842414856,-3.1594412326812744,-2.057737112045288,2.3029892444610596,1.3179545402526855,-1.276993751525879,-2.4038288593292236,-1.0411059856414795,0.47921836376190186,-1.1426801681518555,1.8313062191009521,-1.210702657699585,2.853944778442383,-2.0630810260772705,2.5433504581451416,-0.015174474567174911,3.63657283782959,2.2296302318573,0.7041006684303284,1.3091312646865845,0.9881008267402649,0.27089381217956543,1.6800156831741333,-1.0786396265029907,-0.41010892391204834,2.2136435508728027,0.07220830768346786,-0.058624252676963806,0.0003768430033233017,0.026770111173391342,-0.007651712745428085,0.0585024356842041,0.05201977491378784,0.0037666340358555317,0.042185600847005844,0.0686667412519455,-0.05849264934659004,0.07352376729249954,-0.035282161086797714,-0.00007473372534150258,0.022265007719397545,0.02871612086892128,-0.06719205528497696,-0.03853940591216087,-0.012481896206736565,-0.0610906258225441,0.049235593527555466,-0.006402898114174604,0.033146217465400696,0.027850553393363953,0.015566165558993816,0.04033702239394188,0.05697787180542946,-0.07501954585313797,0.017770223319530487,-0.05031107738614082,-0.05671937018632889,0.00712024699896574,0.0089566083624959,0.0556194968521595,-0.0344410315155983,0.04751228168606758,-0.015353590250015259,0.010211956687271595,-0.004544048570096493,0.02380966581404209,0.07505708932876587,0.019161881878972054,0.02053655870258808,-0.01811046339571476,0.056355301290750504,-0.04670996963977814,-0.04085750877857208,0.03461960703134537,-0.01013224571943283,-0.05931982398033142,0.06708168983459473,-0.014630625024437904,-0.07113716751337051,0.035197626799345016]},"hiddenLayers":[{"inputMatrix":{"rows":20,"columns":54,"weights":[-1.7752227783203125,-1.6213091611862183,0.12240294367074966,1.453973650932312,1.5388611555099487,-4.734646320343018,0.8210392594337463,-1.203693151473999,-0.7968757152557373,1.346483588218689,-0.3500617444515228,-1.0230320692062378,1.1364201307296753,0.9764713644981384,1.1554583311080933,0.860622227191925,-2.5308568477630615,-0.36403989791870117,-1.4257043600082397,-1.2721084356307983,-2.9878265857696533,0.9937835931777954,-2.193967342376709,2.251757860183716,0.4621284008026123,0.5195955634117126,1.839831829071045,-1.252166986465454,0.8174124360084534,1.7301113605499268,4.540299892425537,2.242182493209839,0.7310938835144043,0.6227998733520508,-0.4929884076118469,-0.5770531296730042,-0.7604365944862366,-1.0509896278381348,-1.9493122100830078,-0.356772243976593,-0.7311795949935913,-1.1100407838821411,-0.7012894153594971,4.748092174530029,0.5916025638580322,-1.6411283016204834,-1.4743200540542603,-0.7924343943595886,2.227294445037842,-0.48826661705970764,-0.9559760093688965,-1.877868413925171,0.9348885416984558,-1.124664545059204,-0.16065499186515808,-0.8724890947341919,-0.017428895458579063,0.2669222354888916,0.14801378548145294,-0.9152087569236755,-0.08596743643283844,-0.40824079513549805,0.9506480097770691,0.505453884601593,-0.12581655383110046,0.23436544835567474,-0.25594156980514526,0.07425374537706375,-0.43200692534446716,0.6693903803825378,0.1734132319688797,-0.09894520044326782,-0.36610719561576843,-0.09464437514543533,-0.08335597068071365,-0.16547293961048126,0.296366423368454,0.5377112627029419,-0.19826629757881165,0.6784608960151672,0.13422834873199463,0.928983211517334,0.08571317046880722,-0.23419101536273956,0.9899049401283264,-0.07397430390119553,-1.4997425079345703,-0.4716043770313263,2.197200059890747,-0.27160871028900146,0.29484423995018005,-0.532019853591919,0.796612560749054,-0.671316921710968,-0.7892428636550903,0.14049725234508514,-0.7792633771896362,0.9347806572914124,-1.1735516786575317,-0.14386871457099915,-0.575083315372467,-0.4828566312789917,0.1721676141023636,-0.4163093566894531,-2.5488240718841553,-0.1182507574558258,-0.6221347451210022,0.3046491742134094,-0.6933987140655518,-0.9338347315788269,-1.347559928894043,-3.8321993350982666,0.9791923761367798,-1.4815865755081177,0.9834299683570862,-2.5332672595977783,-0.010286112315952778,-0.1578618288040161,0.3651849031448364,-0.951682448387146,-0.8766617178916931,-0.501283586025238,1.5501325130462646,0.7184658646583557,-0.23892386257648468,0.8892838954925537,-2.0116586685180664,-0.8348932862281799,-3.471615791320801,-1.6285713911056519,-1.989829421043396,-0.7317001223564148,2.453256130218506,-0.4666903614997864,0.519292950630188,0.5401040315628052,-0.8051203489303589,0.6393242478370667,0.7140178680419922,1.9125322103500366,-1.1985280513763428,1.4055217504501343,-1.77231764793396,0.8639299869537354,1.745517611503601,-3.0190064907073975,-0.19766199588775635,0.7054924964904785,1.056235671043396,-1.2287596464157104,-1.309356451034546,2.371344804763794,1.180477261543274,-0.6923385262489319,-1.202333927154541,-1.0726524591445923,0.6796275973320007,-0.24764743447303772,-0.19718778133392334,-1.1817477941513062,-1.6332781314849854,2.151458501815796,1.30583655834198,0.7288092374801636,-3.53123140335083,-0.187397301197052,0.6107672452926636,1.0847026109695435,0.2907624840736389,3.338254928588867,-0.2518659234046936,-2.2317910194396973,0.411747008562088,-0.25211358070373535,0.7915646433830261,-2.2465553283691406,-3.3213071823120117,-0.9293869137763977,-1.0150821208953857,1.2112038135528564,-2.3984732627868652,1.5889606475830078,-1.8624889850616455,-0.9278854131698608,0.27408409118652344,-0.6572055816650391,0.9966937303543091,0.7378793358802795,1.2653437852859497,1.7293623685836792,0.2859581410884857,0.6731835007667542,-2.300215482711792,-1.107717752456665,0.06392334401607513,0.8978779911994934,-3.465461492538452,1.4488608837127686,0.8820746541023254,0.6037290692329407,-0.9152950644493103,0.11363102495670319,1.5167711973190308,-1.631504774093628,-0.3592039942741394,-0.5985140800476074,2.745870351791382,0.47961223125457764,-0.7898520231246948,2.1649160385131836,-0.7790544033050537,0.18171805143356323,-0.3341137766838074,0.05693814903497696,-0.4635363817214966,-0.5653015971183777,0.3832785487174988,0.731839656829834,0.2760556936264038,-2.3720309734344482,-1.1831719875335693,1.5086463689804077,2.498246669769287,0.1285044550895691,-0.7164759635925293,-2.913100481033325,1.0983887910842896,2.4429845809936523,-0.042024627327919006,-1.4941411018371582,2.298231363296509,2.9270544052124023,0.74073725938797,-0.16334402561187744,0.1471683531999588,0.8264073133468628,2.5833756923675537,-1.9257111549377441,0.9479252099990845,-1.13686203956604,4.515894889831543,-0.22028537094593048,-1.2415904998779297,0.5459060072898865,-1.0109949111938477,0.6280672550201416,0.059824466705322266,2.0862793922424316,-0.574009358882904,-2.2478930950164795,-1.383826732635498,-0.017207613214850426,-0.45368656516075134,-2.180459976196289,1.6757776737213135,0.04212227463722229,1.577588677406311,0.7400475740432739,0.4233471155166626,0.15062981843948364,-2.657478094100952,0.7519984245300293,-0.3963624835014343,-3.950925350189209,2.3150534629821777,3.0992696285247803,0.344923734664917,2.026169776916504,-2.162245988845825,1.7404876947402954,1.488215684890747,-0.05069471523165703,0.4464164972305298,1.8093390464782715,1.487099528312683,-0.4911491870880127,-1.904383659362793,1.4632385969161987,-2.9830057621002197,3.4210691452026367,2.2241976261138916,-1.7477192878723145,0.2105879932641983,1.433986783027649,-2.54787278175354,-1.9812259674072266,-0.9180586934089661,-1.1280311346054077,1.6604962348937988,-0.8727898001670837,0.09891648590564728,2.897407054901123,-1.9472612142562866,-1.9021965265274048,-2.0844340324401855,3.8992247581481934,-0.5702124834060669,-0.7547081112861633,0.5269932150840759,1.2018678188323975,-2.5314652919769287,1.0772652626037598,0.4315188527107239,2.6022675037384033,0.6378845572471619,2.732402801513672,-0.7155155539512634,1.1716268062591553,-1.3362185955047607,0.7006977200508118,-2.016003370285034,-0.023493392392992973,0.1384388506412506,-0.10942385345697403,-0.6176736950874329,-1.7713972330093384,1.117976427078247,-0.09551951289176941,-1.3280622959136963,-1.7344626188278198,-1.5055084228515625,0.2812250256538391,0.40039604902267456,-2.771392822265625,1.7293130159378052,0.37808969616889954,-1.400136113166809,-1.8770071268081665,2.562131881713867,-3.0972352027893066,2.6335971355438232,-0.7942771315574646,0.5983272790908813,0.20524103939533234,1.5727689266204834,-0.58349609375,-1.0061593055725098,1.1048197746276855,-0.3408532440662384,-0.5025452971458435,-1.1157426834106445,1.528054118156433,-1.9316657781600952,0.25146588683128357,0.056533388793468475,-3.208855152130127,1.2067008018493652,-1.6102935075759888,3.9579174518585205,-1.9273695945739746,1.9739741086959839,1.0484654903411865,1.048208236694336,-1.141524076461792,1.0278310775756836,-1.1406073570251465,-1.1937611103057861,0.8364998698234558,0.6799516677856445,3.089840888977051,1.2876774072647095,-0.5585855841636658,0.9486125111579895,-0.5719902515411377,0.5829750299453735,1.1043105125427246,0.40316691994667053,1.7643823623657227,1.9311858415603638,-1.4568620920181274,-1.877572774887085,0.6076549887657166,-0.5620699524879456,-0.9053367376327515,0.8768277764320374,0.6128779649734497,0.39089447259902954,1.1142529249191284,0.32715529203414917,1.026689887046814,-1.0085625648498535,1.7989341020584106,0.9391477704048157,0.7586944699287415,0.6786335110664368,2.9336583614349365,1.4278957843780518,1.4482933282852173,1.2288234233856201,-0.8680323362350464,0.7892570495605469,-1.4471417665481567,-0.0313020758330822,-1.0589667558670044,-0.2345856875181198,-0.5556348562240601,-0.12326975911855698,2.6267285346984863,0.11761903017759323,-0.9448043704032898,-3.0231850147247314,0.2382097840309143,0.23026399314403534,-4.082672595977783,-0.5413441061973572,-1.259667992591858,0.9685279726982117,-0.559317409992218,-2.1711535453796387,-0.5744410753250122,1.8600521087646484,0.060809291899204254,-1.2799890041351318,0.3906133770942688,-1.7976833581924438,-0.18839974701404572,0.8500019311904907,0.6850409507751465,0.0697324201464653,1.0577422380447388,2.4745001792907715,0.30986297130584717,1.4032115936279297,-0.2886064946651459,1.0623854398727417,1.7011301517486572,-0.28916794061660767,0.22402814030647278,3.443458080291748,0.43437886238098145,0.9180781841278076,-0.11710130423307419,1.7880786657333374,-1.2602424621582031,-1.6116985082626343,1.432188868522644,-1.2299810647964478,-0.2016904503107071,0.3702591359615326,2.298168182373047,0.09466318041086197,-0.10626119375228882,1.3564281463623047,-1.6173944473266602,2.686573028564453,-0.7621980309486389,-1.6734858751296997,-1.5768378973007202,-0.8128255605697632,-1.8220202922821045,0.6650312542915344,1.6072719097137451,-0.1808842122554779,-2.6219217777252197,-0.08637181669473648,1.2176791429519653,-0.8483991622924805,-1.6331069469451904,-1.1262933015823364,2.372971296310425,-0.07190835475921631,1.355502724647522,0.11482144892215729,-0.9795933961868286,0.30831101536750793,3.3759894371032715,-2.9311330318450928,1.6431604623794556,0.6325057744979858,-0.5398059487342834,0.2705945074558258,0.5702784657478333,-0.4956414997577667,-2.3698229789733887,2.63002347946167,2.8736231327056885,2.9618589878082275,2.0856494903564453,-0.050142690539360046,1.9421800374984741,-0.3122684061527252,-0.4641208350658417,2.4611728191375732,1.015636920928955,1.7723408937454224,-1.38384211063385,-1.9794447422027588,0.2927068769931793,0.5818427205085754,0.9561405181884766,-1.5930882692337036,-0.11598049104213715,-0.24165871739387512,-1.6055234670639038,-4.342264652252197,0.952535092830658,1.2478078603744507,1.2475972175598145,0.5783605575561523,1.42801034450531,-1.2521388530731201,1.8458040952682495,0.21293701231479645,1.2323036193847656,0.062341876327991486,-4.397184371948242,-3.1133224964141846,1.4948734045028687,-0.34233522415161133,1.3721100091934204,-1.3875341415405273,1.458653211593628,0.2142130583524704,0.4964790940284729,-1.366458535194397,0.15276691317558289,2.209301710128784,2.44441556930542,-1.5469691753387451,-0.06848390400409698,1.7061939239501953,-3.409022808074951,1.0261822938919067,2.1237759590148926,-0.0015059798024594784,-0.53094881772995,-1.2523789405822754,-4.415852069854736,0.6686467528343201,1.0998183488845825,-0.5810301303863525,-1.3279529809951782,-0.019694453105330467,0.9996127486228943,-1.221751093864441,-1.5486623048782349,-0.32198581099510193,-3.2542901039123535,-1.8043079376220703,-0.8488277196884155,0.8463789820671082,-0.07984920591115952,-1.5664236545562744,-2.1453073024749756,1.7966920137405396,-2.095933198928833,0.9405727982521057,0.6521596908569336,0.7633069753646851,0.007393468637019396,0.9946168661117554,1.462761402130127,0.5932283997535706,0.37414106726646423,-0.5657348036766052,-0.6167808175086975,0.7689846158027649,-0.17780424654483795,0.2846132814884186,0.7489660382270813,0.07896722853183746,-0.19724804162979126,-0.39782771468162537,1.3053739070892334,-0.3452477753162384,-2.6598551273345947,-0.7669998407363892,1.6265583038330078,-0.061625994741916656,-1.6853805780410767,-0.4369608461856842,-1.582661509513855,-3.026655912399292,-0.032329000532627106,1.0243220329284668,-0.584190845489502,0.36887669563293457,-1.1121002435684204,1.5952785015106201,0.5682814121246338,0.3497336506843567,1.6041628122329712,0.4647020399570465,1.338310718536377,2.7293479442596436,-1.564404010772705,0.9699747562408447,-0.5426119565963745,-0.8102496266365051,-3.2720706462860107,3.2417361736297607,0.3964971899986267,-0.6767269372940063,1.6627169847488403,0.14113600552082062,-0.3995198607444763,0.5150657296180725,-0.44588369131088257,-0.8577892184257507,-1.2962554693222046,0.8990125060081482,-0.04058251157402992,-0.3294197618961334,-0.7423025369644165,1.094692349433899,-1.2394987344741821,-1.2391339540481567,-0.27258825302124023,0.18862760066986084,-0.8650333285331726,-0.26982179284095764,-0.7877137064933777,0.4744679629802704,-0.31406843662261963,0.3605736494064331,-0.6025280356407166,0.4749962091445923,-0.8075466752052307,0.47214221954345703,-0.1474195420742035,1.9166020154953003,1.5244474411010742,-1.2827636003494263,-0.314461350440979,0.7383379340171814,0.7777135372161865,1.1926021575927734,0.9176248908042908,1.988459587097168,1.6106921434402466,-0.8120753765106201,-0.8947368264198303,0.6974323391914368,-0.5730491280555725,1.5922930240631104,-0.036103956401348114,0.3587915599346161,0.9132558703422546,-0.3291914761066437,-1.0102282762527466,0.6086322665214539,0.004173835273832083,-1.4689292907714844,1.4251353740692139,0.21390363574028015,0.9225752353668213,-0.7169886827468872,-0.20289359986782074,1.6856108903884888,1.5209143161773682,-1.7762783765792847,0.8757379651069641,1.3355900049209595,-0.18241433799266815,2.779468059539795,0.38789796829223633,-0.030174728482961655,-0.6557473540306091,-0.9937406778335571,0.7302956581115723,0.8577969670295715,-2.0657923221588135,-1.4382275342941284,-2.179058790206909,-3.4357688426971436,2.0112059116363525,0.053534332662820816,-0.8674353361129761,0.42154043912887573,-1.7611865997314453,-1.9339876174926758,0.2062234729528427,1.506951093673706,-2.599094867706299,-0.9697147011756897,3.227893590927124,-0.7827695608139038,0.1547626107931137,0.06021818146109581,-1.292264699935913,-1.294223666191101,1.3954685926437378,-0.928651750087738,0.7119611501693726,-1.0369936227798462,-0.6223214268684387,2.208545684814453,1.608651041984558,0.4588591158390045,-1.1827046871185303,2.4681198596954346,-0.757209300994873,2.320084810256958,1.8024674654006958,1.1092169284820557,-0.9117329716682434,-0.43867483735084534,0.3408435583114624,3.8330769538879395,-0.010649359785020351,0.32598862051963806,1.351824402809143,-1.2784056663513184,0.32261475920677185,0.7747887969017029,2.5899295806884766,0.13143742084503174,-0.2625286281108856,-0.6890564560890198,-0.3647308349609375,0.40889647603034973,1.578141689300537,0.23362481594085693,-0.6603122353553772,-0.7499229311943054,0.8661482930183411,-1.8536369800567627,1.1423509120941162,-1.3485876321792603,-0.7549009919166565,-0.5938596129417419,0.13909608125686646,-0.938866913318634,0.026553558185696602,-0.48601701855659485,3.255876064300537,-2.6136269569396973,1.2039999961853027,0.8180983066558838,0.3892729580402374,-0.8258213400840759,0.7237997055053711,0.5569078326225281,0.4566454291343689,0.8536734580993652,0.954108476638794,-0.8644942045211792,0.14118291437625885,-0.2310551553964615,1.4786134958267212,-1.6105095148086548,-0.15826672315597534,-1.1296231746673584,-2.116551160812378,0.002854597056284547,2.224883794784546,-0.20070092380046844,-0.6422600746154785,-0.011867359280586243,2.0657615661621094,1.777873158454895,-3.091749906539917,0.1726316660642624,-0.42328304052352905,2.9253056049346924,-2.5303876399993896,0.36983391642570496,1.8886585235595703,-1.215994119644165,0.3642018437385559,-0.016346821561455727,-4.415567874908447,0.1555870920419693,-0.13704533874988556,-1.6264290809631348,0.3075118660926819,0.7535109519958496,-0.9118406772613525,1.864318609237671,0.06561436504125595,0.0337759330868721,1.3830963373184204,-1.7568223476409912,-0.5051996111869812,0.21779337525367737,-2.9536077976226807,0.5239867568016052,0.20331504940986633,-2.029933214187622,0.5408730506896973,-0.033639147877693176,-0.17071384191513062,1.5407644510269165,2.425002098083496,-1.4843538999557495,-1.6615670919418335,3.388375759124756,-0.3530029356479645,-1.8595010042190552,2.037870407104492,2.215374708175659,-0.7172894477844238,1.2071826457977295,0.9301959276199341,2.2126777172088623,-0.12280607223510742,0.44341352581977844,-1.8448762893676758,2.2013909816741943,2.117257595062256,-1.2448049783706665,-2.3986968994140625,-2.3272604942321777,-1.7421050071716309,-1.1740381717681885,0.6767639517784119,1.5522363185882568,-0.11669254302978516,-0.2309311330318451,0.2540873885154724,0.5700457692146301,0.9603654742240906,1.3230420351028442,0.1313241422176361,-0.3708551824092865,1.1071596145629883,-1.7670642137527466,-0.48676568269729614,-1.2979227304458618,1.2483738660812378,-0.6467973589897156,1.3097981214523315,-0.5251789689064026,0.08332286030054092,0.6494234800338745,1.6278127431869507,2.4715819358825684,1.7165330648422241,3.458414077758789,1.36385977268219,1.3745728731155396,1.390509009361267,1.5723012685775757,1.4325741529464722,-1.2137254476547241,0.3921665847301483,-1.2941492795944214,-1.7056560516357422,1.4231642484664917,2.065107822418213,-1.9366984367370605,-0.04788763448596001,-1.241611361503601,-2.152276039123535,-0.16217106580734253,-1.6593393087387085,-2.2633566856384277,-0.5215590000152588,-0.7852412462234497,-0.6218562126159668,-1.772766351699829,1.3841421604156494,-1.6722123622894287,-0.7500712275505066,0.009225510060787201,2.3107478618621826,0.7237176895141602,-1.8092280626296997,1.6663583517074585,-0.1287785768508911,-1.8969714641571045,0.8749659657478333,1.1597801446914673,-2.232539415359497,-0.8433590531349182,0.526729166507721,0.11740321666002274,-1.1891223192214966,2.1556270122528076,-1.6886919736862183,-1.1662659645080566,-1.1317082643508911,-0.9634299278259277,0.25207147002220154,-0.678371787071228,-0.4845828711986542,0.2929111421108246,-0.662003219127655,1.1644190549850464,-0.4499453008174896,-0.6419287919998169,-0.19950169324874878,0.6333138346672058,-1.949486494064331,-1.8972781896591187,1.4325209856033325,-1.9810528755187988,-0.6095835566520691,-0.21301692724227905,0.6333014965057373,-1.2623623609542847,0.7793989181518555,-0.6958861947059631,1.4612940549850464,-0.46765315532684326,0.8856741786003113,-1.2868717908859253,0.5965582132339478,0.1450052410364151,-0.5573689937591553,-0.8988756537437439,-1.869010090827942,2.438920259475708,2.182593822479248,-0.5395677089691162,-0.0831524208188057,1.2076181173324585,1.7633353471755981,3.27717661857605,-0.2025740146636963,1.2783600091934204,-0.3560335636138916,-0.527844250202179,-0.8477259874343872,2.069549083709717,-2.499006748199463,-1.209351897239685,0.5361980199813843,4.817638397216797,0.9380043148994446,-1.5115647315979004,-0.20504805445671082,0.6238852143287659,-2.0823566913604736,0.8540931344032288,0.16430579125881195,0.6511784195899963,-0.38953399658203125,0.26120418310165405,-1.7171056270599365,0.39119288325309753,0.1570599377155304,-0.4783184230327606,-0.33193519711494446,-0.8173657655715942,-0.6569303274154663,0.8728064298629761,0.06727339327335358,0.026060238480567932,-1.2539993524551392,0.8629401922225952,-1.537837028503418,1.3701928853988647,-0.8139368891716003,0.6334651708602905,3.516465187072754,-2.3045449256896973,-0.4016532599925995,0.9365625977516174,-2.311469078063965,-0.8819361329078674,0.5068516135215759,-0.11024220287799835,0.788650393486023,0.0942562147974968,0.46729353070259094,3.623927593231201,1.1406707763671875,1.4096379280090332,0.3775900900363922,0.8221571445465088,0.37499845027923584,0.3229374885559082,-1.4478192329406738,0.08061788231134415,1.7525428533554077,1.1421054601669312,-0.0689234808087349,0.8962700963020325,0.03432102128863335,-1.1903398036956787,1.2196898460388184,0.912333071231842,0.7428266406059265,-1.637697458267212,1.0551481246948242,-0.28410860896110535,2.0768630504608154,-0.40385860204696655,1.6186549663543701,1.1670502424240112,-1.760359525680542,-1.3758236169815063,0.9652717113494873,3.83280348777771,-3.1273930072784424,0.1473170816898346,-0.5377528071403503,-0.5452657341957092,0.22418947517871857,-0.03603728488087654,0.11309930682182312,-0.7949643731117249,-0.20273780822753906,3.074312448501587,-0.38341015577316284,-0.4614555537700653,0.4522716999053955,-1.6545331478118896,0.21366463601589203,1.166623830795288,-0.8467640280723572,-0.6684754490852356,-1.281346082687378,0.7009345293045044,0.491529643535614,-1.3486465215682983,-0.5996744632720947,-0.2991870641708374,-1.0382875204086304,-0.8279070854187012,2.697075366973877,-0.6066033244132996,-4.312889575958252,0.6178716421127319,-0.8906752467155457,3.2991485595703125,2.327273368835449,2.5667099952697754,1.3666648864746094,-0.7132790088653564,1.7744958400726318,-0.843961238861084,0.7968353629112244,-1.563262701034546,-1.0329229831695557,1.4078116416931152,0.5399321913719177,0.06109746918082237,-1.1396039724349976,0.5692702531814575,1.2175668478012085,1.6983325481414795,-0.8132916688919067,-0.12124524265527725,-0.013120666146278381,-1.1936593055725098,-0.9472006559371948,-0.9244915246963501,-0.06467004865407944,2.3518624305725098,-1.7387198209762573,-2.2668371200561523,-0.8162074089050293,-0.8338809609413147,1.2182667255401611,-1.7479394674301147,1.8186432123184204,0.024616867303848267,0.25361666083335876,-0.5846707820892334,0.0696491152048111,2.192580461502075,1.5945311784744263,-1.0276515483856201,-0.9262996912002563,-2.3878936767578125,-0.6432012319564819,4.498251438140869,1.274454116821289,-1.822344422340393,1.4642584323883057,-0.28324490785598755,-0.3736612796783447,-1.815773606300354,1.2611684799194336,-0.022022876888513565,-0.21594522893428802,-0.43217360973358154,2.0356719493865967,2.7998130321502686,-1.6378217935562134,-2.1132781505584717,2.5114119052886963,0.2893159091472626,0.7654527425765991,0.626213014125824,-0.7906445860862732,1.4466735124588013,-0.1792212575674057]},"inputHidden":{"rows":20,"columns":20,"weights":[0.31371426582336426,-0.23457424342632294,1.259616732597351,-0.46549731492996216,0.14843042194843292,-1.0876227617263794,1.941853404045105,0.21079398691654205,0.03153431415557861,-1.7874380350112915,1.3114831447601318,-0.23303592205047607,-0.7915247082710266,0.5376235842704773,-1.9531965255737305,1.7830694913864136,0.5696851015090942,-0.26785922050476074,1.634688138961792,1.1853529214859009,0.2941924035549164,-6.738893508911133,-6.7641682624816895,1.9982619285583496,-3.7704765796661377,-7.211324691772461,4.509737968444824,-0.23442324995994568,-3.1095564365386963,1.6961780786514282,1.3866819143295288,-9.345754623413086,-4.697806358337402,7.632247447967529,2.5012433528900146,-2.62300181388855,1.0088379383087158,5.191436290740967,3.070051908493042,7.729236125946045,2.1688575744628906,-1.1585830450057983,-2.5138466358184814,2.0312376022338867,-3.0764572620391846,-3.336519241333008,0.03377796709537506,4.489643573760986,3.759615421295166,-1.5908135175704956,2.9541406631469727,-1.5997810363769531,0.10954917222261429,3.7917072772979736,-1.087135910987854,0.7131061553955078,4.1009416580200195,-3.0031356811523438,-0.11795895546674728,4.341538429260254,-0.43514731526374817,3.0276119709014893,-1.4726126194000244,-2.2640540599823,0.49617403745651245,-0.052547749131917953,2.112809419631958,-1.0835400819778442,0.6778502464294434,-0.6289312839508057,2.098114490509033,1.4861390590667725,-0.3389531970024109,-0.596951425075531,1.9035110473632812,0.8950828313827515,0.7592436075210571,0.017352977767586708,-2.025559425354004,0.07845309376716614,-0.27917027473449707,-0.00868533831089735,-3.7749454975128174,0.7591436505317688,0.917733371257782,-1.799344539642334,0.8259396553039551,2.061347007751465,2.8396823406219482,-0.027165791019797325,-0.24342267215251923,-0.05800000578165054,2.519484281539917,-0.6030565500259399,0.7808507084846497,-2.912646532058716,-2.0396535396575928,2.2141542434692383,-0.6827841401100159,2.4140748977661133,-1.025165319442749,3.351382255554199,0.17720438539981842,2.9602982997894287,-3.4081532955169678,-1.7869871854782104,3.0847585201263428,2.1838040351867676,1.0963070392608643,-1.3228200674057007,1.3635611534118652,1.929518222808838,0.9393486380577087,-2.165926218032837,2.3528833389282227,-3.8265435695648193,-4.459458827972412,3.8462603092193604,-1.2420002222061157,-1.2145228385925293,0.4560811519622803,-2.6515884399414062,-0.7460362315177917,1.9720666408538818,0.9294055700302124,0.5820960402488708,0.8017924427986145,4.342288017272949,4.112453460693359,-4.412780284881592,3.476651906967163,5.836310863494873,-1.6276392936706543,3.3886215686798096,-4.216020584106445,-0.4502476751804352,5.32783317565918,3.7491486072540283,0.4391931891441345,5.53395414352417,-0.7190490365028381,-4.365701198577881,-1.808091163635254,0.5409048199653625,2.617621421813965,3.677170991897583,-0.5468980073928833,3.412391424179077,-3.299903392791748,-2.8511180877685547,5.122845649719238,-0.2850251793861389,2.7829372882843018,-2.2245185375213623,-0.7069194316864014,-2.224578380584717,3.6065495014190674,-1.9821968078613281,3.563232183456421,-2.7301454544067383,1.8995258808135986,2.626960039138794,0.39360734820365906,-1.8552054166793823,0.35039928555488586,0.16106198728084564,3.017409086227417,0.7593586444854736,1.0164148807525635,1.3895807266235352,-1.3074051141738892,1.65358304977417,2.0690672397613525,1.4934431314468384,1.1163885593414307,1.415859580039978,-1.0622307062149048,2.916386842727661,-1.5802453756332397,1.129960060119629,2.174342632293701,-0.24256913363933563,0.5389224290847778,-0.2728538513183594,-0.24908412992954254,-0.7480884790420532,-1.3349016904830933,2.1075100898742676,0.37620797753334045,-0.24885474145412445,-0.2624375820159912,1.6689554452896118,1.5031160116195679,0.8879921436309814,1.3122837543487549,0.42218106985092163,-0.5661746859550476,1.3617911338806152,0.7304101586341858,1.7949379682540894,-0.9303833246231079,2.275783061981201,-2.355224370956421,-0.13119107484817505,1.271972417831421,1.294935703277588,-1.043757438659668,-0.3187708556652069,-0.44735217094421387,3.492992639541626,0.38377857208251953,-5.712635517120361,3.318852663040161,1.951183795928955,-0.3645875155925751,1.6857649087905884,-7.665029048919678,-4.609703063964844,-3.305206060409546,-1.5800987482070923,-1.951712965965271,1.051272988319397,-2.0229289531707764,4.6590423583984375,-0.8472338318824768,2.511251926422119,5.518433570861816,-3.260063648223877,10.429098129272461,1.5144569873809814,8.249991416931152,8.12635612487793,4.4894118309021,-3.7768774032592773,2.443251848220825,0.005044091492891312,-2.1517856121063232,7.422544956207275,-5.577726364135742,-0.9653248190879822,1.1055257320404053,3.1158013343811035,-2.9605631828308105,-0.3357398808002472,-2.654103994369507,2.5583131313323975,0.7152504324913025,0.41670873761177063,-1.2142802476882935,-2.076781749725342,-4.562415599822998,-0.14759351313114166,-0.4881724715232849,0.8609223961830139,-1.3744271993637085,-3.286137342453003,0.5849766135215759,0.32786256074905396,0.3711540102958679,-1.423736572265625,-2.225212812423706,2.969618797302246,2.048299789428711,-0.7026870846748352,3.216137409210205,-0.18189996480941772,-3.1821210384368896,1.1108218431472778,-1.00376296043396,3.430957555770874,-3.675386905670166,-1.4135445356369019,2.819366455078125,-3.955078125,0.45085883140563965,3.4090888500213623,0.7322462201118469,-1.580832600593567,-2.2412469387054443,0.7615156769752502,0.37708568572998047,1.644984483718872,1.7994680404663086,-0.041115980595350266,-0.40357980132102966,-0.489230215549469,-1.8051929473876953,0.5626591444015503,0.31155842542648315,-1.2075400352478027,2.2576816082000732,0.6179506778717041,1.3769057989120483,2.752200126647949,-2.0804901123046875,-0.8721533417701721,2.3205361366271973,1.9844281673431396,0.3559759557247162,-1.446472406387329,0.3778184652328491,-0.7493835091590881,-0.06338027864694595,1.4176197052001953,0.34728941321372986,0.7078269124031067,0.5080463290214539,0.6555527448654175,0.7073476910591125,0.4764348268508911,1.3738294839859009,-0.9224316477775574,1.144452452659607,1.415367603302002,-0.4463445246219635,-0.42413219809532166,-0.8387525677680969,0.008944375440478325,0.08027990162372589,2.0105247497558594,0.31188708543777466,-4.906192302703857,-1.5958665609359741,0.0005561889265663922,2.6762566566467285,0.18984802067279816,-4.516005039215088,-2.607008457183838,3.150315761566162,0.961804986000061,1.870967984199524,4.017147541046143,1.0008962154388428,-0.838292121887207,-3.7661051750183105,3.5495030879974365,3.0782015323638916,-0.7189239859580994,-0.89073646068573,1.1692595481872559,9.095803260803223,3.345050096511841,-2.1155121326446533,1.1278303861618042,3.9275543689727783,-3.3932197093963623,10.487325668334961,3.708489418029785,1.229032278060913,0.26993662118911743,0.9638707041740417,-7.018143177032471,-2.7656400203704834,3.2242391109466553,2.2402515411376953,-0.46370741724967957,-2.9093284606933594,-0.6059024333953857,2.2232635021209717,1.9993525743484497,-2.552659511566162,2.8976428508758545,-3.8243303298950195,-1.8459049463272095,-3.4667158126831055,-0.20516148209571838,0.4855217933654785,-1.5827466249465942,-1.883123755455017,1.8060566186904907,-0.8244560360908508,-0.0998385101556778,0.33527132868766785,0.01926177367568016,1.028234601020813,2.625823497772217,1.1139228343963623,-1.1067060232162476,0.043739840388298035,0.8237248659133911,-0.07182122766971588,-1.4926214218139648,-0.6329541802406311,0.7650145888328552,2.4967281818389893,-1.3678154945373535,1.2594937086105347,0.4474257230758667,3.035576105117798,-2.8288345336914062,4.178708076477051,-5.068817615509033,1.8956339359283447,2.8528261184692383,-0.15288688242435455,-1.0370601415634155,0.8690729737281799,-1.9072033166885376,-3.001107931137085,2.7493069171905518]},"inputBias":{"rows":20,"columns":1,"weights":[-0.29014429450035095,-0.8189762234687805,-0.5649356245994568,-1.7267327308654785,-2.027357578277588,1.097382664680481,-0.3678478002548218,-0.5301252007484436,-1.0327708721160889,-1.745771884918213,-0.43310534954071045,-0.6638705730438232,-0.2601386606693268,-0.18188610672950745,-2.186814785003662,1.0308034420013428,-1.0028936862945557,-0.41847679018974304,-1.995893120765686,-0.7824133038520813]},"forgetMatrix":{"rows":20,"columns":54,"weights":[-1.9276812076568604,-0.7846882939338684,1.4436290264129639,-0.3262883424758911,-0.114818274974823,-2.079937696456909,0.23146559298038483,-2.1766741275787354,-0.3324807584285736,0.9028917551040649,0.985956609249115,-0.23635265231132507,-0.8783186078071594,-0.9446498155593872,0.11760339140892029,-1.093510389328003,0.2821755111217499,0.009912190958857536,-3.014218807220459,0.07753176987171173,-1.9052506685256958,0.945065975189209,-2.8650529384613037,0.42332151532173157,-2.0601227283477783,-1.9184638261795044,-1.6108394861221313,-1.7036722898483276,0.5836449861526489,1.06535005569458,0.33334413170814514,1.605867862701416,3.9909169673919678,1.1637073755264282,-1.4055159091949463,1.2606078386306763,-0.6869136691093445,-2.3811111450195312,0.9089019894599915,0.9111545085906982,0.6177835464477539,-0.19600936770439148,-0.6673734188079834,2.260618209838867,-0.48990577459335327,1.2993497848510742,-1.480163812637329,0.07686473429203033,0.881388783454895,-0.3630855083465576,1.4263309240341187,-0.1438865065574646,0.020263442769646645,0.5839712023735046,-1.2409062385559082,0.015353047288954258,2.106083393096924,-0.8580741286277771,1.6149605512619019,-3.2473974227905273,1.1271131038665771,-4.486311912536621,0.6217634677886963,-0.10477060824632645,-0.3217342495918274,-0.7448721528053284,-0.6835288405418396,1.8487257957458496,1.9936118125915527,1.7771401405334473,-0.5007461309432983,2.0024359226226807,-1.113194465637207,-3.1173486709594727,-2.6494498252868652,0.2506025731563568,1.4165502786636353,1.2368724346160889,0.05188987776637077,-0.8946484327316284,1.258109211921692,0.26148179173469543,-0.21352829039096832,2.2290079593658447,0.8988138437271118,1.4486678838729858,2.0177483558654785,0.7631385922431946,0.5594340562820435,-0.5172537565231323,0.1543695330619812,-2.1175451278686523,-0.6209157109260559,-0.4147343039512634,-0.1889469027519226,0.11568321287631989,0.5462930798530579,4.205051422119141,-0.6188721060752869,-2.95715594291687,1.3000129461288452,1.4410756826400757,-0.22035622596740723,-1.7452151775360107,0.6616420745849609,0.15175238251686096,1.842404842376709,-0.47298523783683777,-0.39146241545677185,0.4479004144668579,1.4171702861785889,-0.0793435201048851,1.9172085523605347,0.06664859503507614,0.2374294251203537,-1.5979831218719482,1.8829830884933472,-0.3517068028450012,-0.7090747356414795,0.02302725240588188,-0.8111979365348816,0.37729018926620483,0.001043583732098341,1.4587925672531128,2.0433554649353027,0.3193276822566986,-2.062305212020874,0.2140841782093048,-0.3626800775527954,1.283212661743164,0.2811153829097748,0.6830617785453796,-0.5290914177894592,-0.7821548581123352,0.8697826266288757,-0.3411198556423187,-0.48637381196022034,0.5807094573974609,-0.10387542098760605,-0.35828855633735657,0.824382483959198,-1.1947734355926514,0.34857621788978577,-0.09100658446550369,1.0209754705429077,-0.277483731508255,-0.6839277744293213,-0.09175911545753479,-1.653043508529663,2.6691110134124756,-1.3642584085464478,1.3058009147644043,-1.8924939632415771,-0.4161359369754791,-0.527653157711029,-2.390204429626465,0.7132837772369385,0.2797963321208954,-0.19846723973751068,0.5350502729415894,-2.3519515991210938,0.311004102230072,0.02252338081598282,-0.22307023406028748,2.4292378425598145,-1.054277777671814,0.21975521743297577,4.2450666427612305,-0.5982462763786316,-0.6162891983985901,-0.3651168942451477,-0.13075517117977142,-1.5491368770599365,0.2038063406944275,-0.34262821078300476,-0.45905986428260803,1.2415086030960083,2.483488082885742,3.44701886177063,-1.1670674085617065,0.6057032942771912,0.33782801032066345,1.7203125953674316,0.033913858234882355,0.6741886734962463,0.6242724657058716,-1.1728765964508057,1.2822463512420654,-0.40383777022361755,-4.22089958190918,0.14337143301963806,1.899132490158081,-1.7706202268600464,0.323918879032135,3.16792368888855,-3.0884883403778076,-1.1368799209594727,-1.0443496704101562,-1.753051519393921,-0.41504770517349243,-2.6234638690948486,0.054098743945360184,-2.731238842010498,1.901453971862793,-2.0701098442077637,-2.145559072494507,-1.4664030075073242,0.27011552453041077,0.47200360894203186,-1.0136438608169556,3.1101014614105225,1.556511402130127,-1.546196460723877,-0.1711944192647934,1.6609766483306885,-0.25112923979759216,-1.902029275894165,1.6744372844696045,-1.5298819541931152,-2.46570086479187,0.018518082797527313,-1.688097596168518,2.208733558654785,-2.3325204849243164,-2.2670373916625977,-1.0979262590408325,-0.24975737929344177,-1.3452608585357666,-2.217611789703369,2.2794981002807617,-0.2874737083911896,-0.8385597467422485,0.365972101688385,0.9862257242202759,2.0639147758483887,0.6997164487838745,-0.16263024508953094,-0.9355892539024353,2.777014970779419,-0.3882923424243927,2.611039400100708,-1.416025996208191,-0.4300871789455414,-1.610663890838623,0.017273273319005966,0.7308850288391113,1.0128943920135498,-1.988740086555481,1.9883698225021362,-0.3976929485797882,0.3726974427700043,0.38658222556114197,-0.010411132127046585,-0.089542455971241,-0.8453903198242188,1.9311236143112183,0.7949638366699219,1.7080012559890747,1.4984471797943115,2.869624137878418,-0.7760841846466064,1.374253273010254,2.5721006393432617,0.39405524730682373,1.802883505821228,0.4316321015357971,1.6159619092941284,3.040980339050293,2.2018306255340576,0.2874695658683777,-0.4440663158893585,-0.4011017680168152,-0.9454461336135864,1.0616686344146729,1.282694935798645,2.2888646125793457,-0.2894517779350281,3.449660539627075,1.3223997354507446,-4.00084924697876,-0.5922583341598511,3.0052449703216553,3.598686456680298,-1.5827990770339966,-0.9974343776702881,1.257183313369751,-0.19269272685050964,0.5103606581687927,-0.9895082116127014,0.8530674576759338,-0.9169243574142456,0.09502790123224258,1.3258237838745117,0.6299071907997131,0.7651324272155762,-1.0560790300369263,-0.6426470279693604,0.9730921983718872,0.9967673420906067,2.117938756942749,-2.1103367805480957,-1.4423965215682983,0.8445727825164795,-1.4600483179092407,-2.225752353668213,0.09724625200033188,-1.1060806512832642,-0.04054894670844078,-0.5146911144256592,0.01814277097582817,0.6519731283187866,0.08405561745166779,-0.4178246259689331,-1.5036009550094604,0.922837495803833,3.4711852073669434,1.396841287612915,0.4084728956222534,1.696176290512085,0.6501108407974243,-0.7793897390365601,1.2606528997421265,-0.6344524621963501,0.49266308546066284,-0.5181117653846741,2.0982353687286377,-3.443601608276367,-1.5147597789764404,-1.3473955392837524,-0.0516650415956974,1.950195550918579,-1.0670281648635864,0.08249431848526001,-1.669456124305725,0.6902201771736145,-0.2284112572669983,-0.3281439542770386,-0.6782406568527222,2.0108208656311035,0.02083580754697323,-2.093672275543213,0.2737892270088196,