{"type":"LSTM","options":{"inputSize":32,"inputRange":32,"hiddenLayers":[20,20],"outputSize":32,"decayRate":0.999,"smoothEps":1e-8,"regc":0.000001,"clipval":5,"maxPredictionLength":100,"dataFormatter":{"indexTable":{"h":0,"e":1,"l":2,"o":3,"H":4,"y":5,",":6," ":7,"w":8,"a":9,"r":10,"u":11,"d":12,"i":13,"n":14,"g":15,"?":16,"I":17,"m":18,"T":19,"t":20,"s":21,"k":22,"b":23,"!":24,"f":25,"c":26,".":27,"j":28,"stop-input":29,"start-output":30,"unrecognized":31},"characterTable":{"0":"h","1":"e","2":"l","3":"o","4":"H","5":"y","6":",","7":" ","8":"w","9":"a","10":"r","11":"u","12":"d","13":"i","14":"n","15":"g","16":"?","17":"I","18":"m","19":"T","20":"t","21":"s","22":"k","23":"b","24":"!","25":"f","26":"c","27":".","28":"j","29":null,"30":null,"31":null},"values":[{"input":"hello","output":"Hey, how are you doing?"},{"input":"I am doing good","output":"Thats good to hear"},{"input":"I am doing alright","output":"Thats good"},{"input":"I am doing ok","output":"Thats good"},{"input":"hi","output":"Hey, how are you doing?"},{"input":"goodbye","output":"see ya later!"},{"input":"what are you","output":"I am an artificial intelligence system using neural networks."},{"input":"whats new","output":"nothing much, just been chilling"}],"characters":["h","e","l","o","H","y",","," ","w","a","r","u","d","i","n","g","?","I","m","T","t","s","k","b","!","f","c",".","j","stop-input","start-output","unrecognized"],"specialIndexes":[29,30,31]}},"trainOpts":{"iterations":600,"errorThresh":0.005,"logPeriod":10,"learningRate":0.01,"callbackPeriod":10,"timeout":"Infinity"},"input":{"rows":33,"columns":32,"weights":[-0.437016099691391,-0.1578807532787323,0.49463951587677,-0.3795475363731384,1.0701955556869507,-1.2063579559326172,-0.004634900484234095,0.048120446503162384,-1.3299524784088135,-0.227757066488266,-0.03964045271277428,-0.9339367151260376,-2.1443445682525635,0.6225376725196838,0.09220411628484726,-0.02135479263961315,0.35291561484336853,0.23129384219646454,-0.6705352067947388,-0.846848726272583,0.4894982874393463,-0.3138355612754822,0.13654761016368866,0.03789018467068672,-0.8016761541366577,0.1265430897474289,-0.514034628868103,0.6377156376838684,1.137357234954834,-1.006782054901123,-0.11969070136547089,-1.6200436353683472,-1.0067744255065918,0.429810106754303,0.3113356828689575,-0.35851648449897766,-0.7710705995559692,0.2736746370792389,0.2378312647342682,0.8004652857780457,1.1634622812271118,0.19346392154693604,0.7325350046157837,-0.45867401361465454,0.8238256573677063,-0.02334129810333252,-0.6297205686569214,0.014876337721943855,0.812412679195404,-0.2648769021034241,0.6034479141235352,0.2081477791070938,0.9366257786750793,-1.1908674240112305,-0.31315043568611145,0.4453766345977783,0.5648796558380127,1.7102237939834595,-0.5019921660423279,-0.4256606996059418,-0.8431416749954224,0.5437405109405518,1.0409421920776367,-1.1786220073699951,-0.2972702085971832,0.6955833435058594,-0.6321630477905273,1.6225136518478394,0.2357579469680786,-0.21661905944347382,0.5426371097564697,0.6047449111938477,-0.8939136266708374,0.8364543318748474,0.5746233463287354,0.7087670564651489,0.6126837730407715,-2.0913798809051514,0.22922876477241516,-1.5059092044830322,0.5718668699264526,3.1598124504089355,0.06042352318763733,-0.34260818362236023,0.16414855420589447,-0.43015533685684204,-0.37744227051734924,0.20115023851394653,-0.1791735589504242,0.38814714550971985,0.3437338173389435,0.40468335151672363,-0.7989915609359741,0.059093695133924484,1.7897948026657104,0.40136340260505676,-0.4178250730037689,-0.2946711480617523,0.03655119612812996,-0.8563901782035828,-2.0913376808166504,1.2840646505355835,0.4208161532878876,0.22816748917102814,-4.228257656097412,-2.0118956565856934,1.0078881978988647,0.6868966817855835,-1.400425672531128,-0.7629884481430054,-0.44613441824913025,-1.0555118322372437,0.4087008237838745,0.5247306823730469,0.5611294507980347,-0.7080038189888,1.7703988552093506,-0.6231345534324646,0.11392053961753845,2.4523842334747314,-1.5365904569625854,1.873414158821106,-2.975835084915161,2.1871743202209473,-0.23322981595993042,1.7551977634429932,1.2830264568328857,-0.3662274479866028,0.4769902527332306,-0.3493150770664215,-0.8358034491539001,1.6062206029891968,-0.7809923887252808,0.30942821502685547,-0.09762737154960632,0.9626043438911438,0.30551406741142273,-0.03677976131439209,-0.774769127368927,1.8770341873168945,1.2259799242019653,-0.8881810903549194,-0.358810156583786,-2.0968246459960938,-0.07754737138748169,0.11073480546474457,-0.6232303977012634,-1.6514047384262085,-0.11468811333179474,0.24997906386852264,0.5725786685943604,0.16680659353733063,-1.4719219207763672,-0.49789461493492126,0.6729373931884766,1.1338188648223877,-1.6740071773529053,0.7988817095756531,1.3947354555130005,0.9231213927268982,0.5435571670532227,-0.8513095378875732,-1.8867801427841187,-1.876827597618103,0.8898022770881653,-1.3253326416015625,-1.5356688499450684,-1.883517861366272,1.4759807586669922,1.3453171253204346,-0.4507294297218323,4.1529221534729,0.8034104704856873,0.4692525267601013,2.5911991596221924,2.007434368133545,-1.5818467140197754,-0.8859416246414185,-2.2542874813079834,1.968493938446045,-0.32008883357048035,0.7334705591201782,1.2845869064331055,-0.8855363726615906,0.7883188724517822,0.8051367402076721,0.3337791860103607,-1.575174331665039,2.010388135910034,-0.10992138087749481,-0.5464282035827637,2.1912994384765625,1.1274522542953491,-2.1947665214538574,-1.6314046382904053,-0.5694490075111389,-0.5076829195022583,-0.1741228848695755,-0.6278476119041443,-3.5554003715515137,0.0696646198630333,0.5082002282142639,-3.168619394302368,1.2307262420654297,-1.667288064956665,1.7713323831558228,1.8954129219055176,-0.5034099817276001,-1.8145471811294556,-0.6309758424758911,-1.1305873394012451,-0.0841182991862297,0.42622819542884827,2.3328166007995605,1.0878487825393677,-2.0030972957611084,-1.4424989223480225,-3.200185537338257,-0.34993189573287964,0.3759639263153076,3.0762596130371094,-1.6065925359725952,-0.6174407601356506,2.2707812786102295,0.5158454179763794,0.24734066426753998,-0.9922928214073181,-1.034769892692566,-0.3000584840774536,-0.8289449214935303,-0.3640437722206116,-0.21390515565872192,2.7591676712036133,2.09854793548584,-2.253345251083374,-0.2697076201438904,-1.5503394603729248,0.6256418228149414,0.6243017315864563,0.3972991704940796,-0.19482669234275818,1.2197798490524292,-1.6111963987350464,0.57282555103302,-1.6366127729415894,0.5712323188781738,-0.05116422101855278,-1.1755540370941162,-0.8904069662094116,-3.2087771892547607,1.6640560626983643,-0.6012166738510132,0.7987580895423889,-0.7178143262863159,0.22126959264278412,-0.1251375377178192,-0.676193356513977,0.8022741079330444,1.0224714279174805,0.3312758803367615,-0.4549608528614044,0.3880271315574646,0.9644221067428589,0.4098432660102844,-0.6961917281150818,-0.6051177978515625,0.5155534744262695,-1.6291810274124146,0.13447913527488708,-1.041144609451294,-0.38798779249191284,-0.35995832085609436,0.3625466823577881,-0.19936148822307587,0.732536792755127,-0.12602972984313965,0.8852960467338562,-0.5469679832458496,-0.6365824341773987,0.22222788631916046,-0.5229948163032532,0.7273561358451843,0.37495696544647217,0.5587072968482971,-0.08329891413450241,0.01709134131669998,0.7245779037475586,-0.9970583319664001,-0.35577520728111267,1.0250601768493652,-0.5069724917411804,0.8225959539413452,3.2851946353912354,-1.284350872039795,0.7030314207077026,0.7145398259162903,-1.1568288803100586,1.6388379335403442,-3.1792285442352295,-2.270512104034424,-2.1105778217315674,-0.7556905746459961,0.8297094106674194,-0.8142374157905579,-1.1147410869598389,0.27168768644332886,-2.478532314300537,-1.0818707942962646,-0.41498273611068726,1.3139499425888062,-0.48960381746292114,-1.8039324283599854,-1.5641494989395142,-2.4357662200927734,1.5663478374481201,3.2224066257476807,0.5786901116371155,-1.2199877500534058,1.1758381128311157,-1.7389180660247803,-1.9023988246917725,1.8680263757705688,0.9725555181503296,-0.6749330163002014,0.1674119085073471,-0.4275241494178772,1.4729833602905273,2.4430947303771973,1.3293670415878296,-0.7757744789123535,2.334102153778076,-0.455937922000885,0.8517796397209167,-0.4842005968093872,-2.3396835327148438,1.0897330045700073,1.2764297723770142,-0.48373943567276,0.8216683864593506,0.9879944324493408,0.467133492231369,-1.2422091960906982,-2.1104724407196045,0.7340323328971863,2.0065765380859375,2.581569194793701,-0.7239707708358765,-1.2211872339248657,-2.568894624710083,0.45809489488601685,0.19341665506362915,-0.013410056009888649,0.09493798762559891,-0.35750705003738403,0.8242453932762146,-1.689360499382019,-0.3587605953216553,1.3409051895141602,0.37620580196380615,-1.092606544494629,0.63699871301651,-0.050365742295980453,-0.42330095171928406,-1.108819603919983,-0.40945592522621155,0.37612876296043396,0.7348621487617493,0.2163579761981964,0.06041591241955757,0.3298858404159546,-0.14534662663936615,0.2005404680967331,0.8095775842666626,0.8473758101463318,-0.2586500942707062,-0.024275921285152435,-0.4331321716308594,0.29940271377563477,-2.7822959423065186,0.3474923074245453,0.9793104529380798,-0.010575337335467339,0.05898222699761391,0.023608755320310593,2.271016836166382,-0.10539092123508453,-1.5708961486816406,-0.4808560013771057,1.3897799253463745,-1.3326514959335327,-1.2605831623077393,-0.5461521744728088,1.2553472518920898,1.7991783618927002,-2.673731803894043,-1.319481611251831,-0.5468431711196899,-0.05088016763329506,1.548301100730896,-0.39457961916923523,-1.5050313472747803,-0.15189231932163239,-1.9436672925949097,-0.38602346181869507,-1.3228015899658203,1.6966012716293335,-0.48896411061286926,-2.979942560195923,-0.45599085092544556,-1.6999958753585815,2.0490822792053223,0.6702242493629456,1.4464517831802368,-1.2506955862045288,0.0002944129810202867,0.6449967622756958,0.11949998885393143,1.2447670698165894,1.113314151763916,-1.0127395391464233,0.35698720812797546,1.5135657787322998,1.2048770189285278,1.1593003273010254,-0.16475315392017365,0.24460208415985107,0.14931000769138336,-2.689037561416626,-0.6963146328926086,1.6527119874954224,-0.3090575039386749,1.16323721408844,-0.5561028718948364,-0.41755300760269165,1.099072813987732,0.7762176394462585,0.0027382930275052786,0.013054288923740387,-1.8341460227966309,-0.3525000512599945,0.21470364928245544,0.9349283576011658,-1.0159740447998047,-0.4654887616634369,-0.7872357368469238,-1.354678750038147,1.4212181568145752,-2.2145652770996094,0.17297467589378357,-0.4736780822277069,-0.6573428511619568,0.5019129514694214,0.11106251925230026,0.36688050627708435,0.16957944631576538,-0.5048855543136597,0.1867677867412567,-0.051636502146720886,-0.7622869610786438,0.6104755997657776,0.1390184611082077,-2.28823184967041,0.2609368860721588,-0.6276529431343079,-0.09453096985816956,0.03224371746182442,-0.44480475783348083,-0.7178611159324646,-0.6692718267440796,0.7050487399101257,0.3869248330593109,-0.0956728458404541,-0.8298571109771729,-0.9169267416000366,0.2456681728363037,0.1392877846956253,0.15593823790550232,0.2882433533668518,0.2539680302143097,0.708884060382843,1.1495448350906372,-0.42516106367111206,-1.2103734016418457,0.08620811998844147,0.398120641708374,-0.14974871277809143,-1.3678312301635742,-1.3177238702774048,1.2574436664581299,0.976466715335846,-0.7481116056442261,-0.10955936461687088,0.2484229952096939,1.3546087741851807,0.7824302315711975,1.1039369106292725,-1.7447081804275513,1.178654670715332,-1.0726559162139893,0.8267755508422852,0.007252881769090891,-0.1679248958826065,0.22385376691818237,-0.6185603141784668,0.10564438998699188,-1.259973406791687,0.34409523010253906,-0.05182156339287758,0.7515478134155273,-1.7260196208953857,-1.4770359992980957,-0.1365167498588562,0.4915202856063843,-0.583182156085968,0.5369943976402283,-1.1170283555984497,-0.16452519595623016,0.20376788079738617,0.20267987251281738,-0.9813551902770996,1.5980877876281738,0.2568063735961914,-0.8849954605102539,0.8402003645896912,-0.6533236503601074,0.756996214389801,-0.08069295436143875,0.06678559631109238,-0.955974817276001,-1.1742310523986816,0.630074679851532,0.1738032102584839,-1.138587474822998,0.8441543579101562,-0.12374912947416306,-0.5543371438980103,-0.4539327621459961,-0.7065775990486145,0.5693859457969666,-0.19147305190563202,0.027171021327376366,-0.6582639217376709,-0.9945225119590759,0.27566465735435486,-0.16566216945648193,-1.409065842628479,-2.3104312419891357,-4.214814186096191,1.7496551275253296,-0.089410699903965,-0.003024919191375375,-1.4235910177230835,3.4519824981689453,1.3787736892700195,-1.0427356958389282,0.12935501337051392,0.2237827181816101,1.6570924520492554,1.8892076015472412,0.7909086346626282,-0.909440815448761,-3.688075304031372,-2.101008176803589,0.6170657277107239,-1.3001790046691895,1.827782154083252,1.4763723611831665,-1.4729118347167969,-0.06529218703508377,-1.0232574939727783,-1.1314611434936523,-0.5942868590354919,-0.47062262892723083,-0.11447740346193314,-1.5318888425827026,2.282125949859619,-0.9000152349472046,-0.12446818500757217,-0.14481401443481445,-1.5224127769470215,0.1266666054725647,0.4531666040420532,1.1519399881362915,0.8275673985481262,0.20165739953517914,-0.41402512788772583,1.1358875036239624,0.22442184388637543,2.355618953704834,0.4548541009426117,-1.148352861404419,2.1973800659179688,-0.3788456618785858,-0.08248014748096466,1.1100883483886719,1.9862416982650757,2.1719961166381836,0.19385074079036713,-0.28274521231651306,0.8991758823394775,3.127723217010498,2.3569271564483643,-0.8363680839538574,-3.1692111492156982,-1.3415409326553345,-0.22517909109592438,-1.2627652883529663,0.7883641719818115,1.7547080516815186,-1.7464752197265625,-1.792580008506775,-0.411849707365036,0.09478924423456192,0.3473563492298126,-1.7287778854370117,-2.4667415618896484,-0.3858722448348999,2.322723388671875,-0.9023120403289795,0.5089012980461121,0.939665675163269,1.7481669187545776,3.273510694503784,1.7305686473846436,-0.7273460626602173,-0.6621437072753906,-3.3403728008270264,1.5061278343200684,-2.6623153686523438,3.8215231895446777,3.3058722019195557,-1.5906345844268799,1.2983832359313965,-0.11996357887983322,0.8671975135803223,-1.7115155458450317,2.218019485473633,-0.39546090364456177,1.3992005586624146,1.7377952337265015,-1.1214041709899902,-0.9152278304100037,-1.888210654258728,0.8270569443702698,1.5699875354766846,-1.3327380418777466,0.015778012573719025,-0.7717874050140381,-1.2708861827850342,-0.5694587230682373,0.015283375047147274,0.27594828605651855,-2.8548872470855713,-0.022632824257016182,0.04810582101345062,0.2544984519481659,0.23195752501487732,0.7425433397293091,-1.7208251953125,0.42317384481430054,-1.540089726448059,-0.32858189940452576,1.52227783203125,1.1587002277374268,-0.8298118114471436,-1.4772311449050903,1.2182716131210327,-0.7013741135597229,1.2663220167160034,0.8685349225997925,-0.7789818048477173,1.5617409944534302,-0.17602059245109558,1.5562061071395874,0.7733785510063171,-0.05686740204691887,1.7397042512893677,-0.16289643943309784,0.24878010153770447,1.4839211702346802,-0.8628044724464417,0.7414618134498596,0.4010286033153534,-0.3508291244506836,-0.6451009511947632,1.447013020515442,-0.27177706360816956,0.037095990031957626,-0.11799957603216171,-0.46028029918670654,1.6673860549926758,0.1443304717540741,-0.2928900718688965,-1.0542004108428955,-1.0468302965164185,-0.566528856754303,0.18309926986694336,-0.051542963832616806,0.5454375147819519,0.6400259733200073,-0.9538262486457825,-1.8632252216339111,0.6735407710075378,-2.339189291000366,1.0832067728042603,-0.24177949130535126,-0.29513442516326904,-0.22909015417099,-0.45526519417762756,-0.1076289713382721,-0.34957125782966614,-0.3620000183582306,0.4931842088699341,-0.27382537722587585,0.2848784327507019,0.6050024628639221,0.03867103159427643,0.6634998321533203,0.6079591512680054,0.2743966281414032,-0.02609741874039173,-0.06009816750884056,-0.2154717743396759,0.4899766743183136,0.20077922940254211,0.10121030360460281,0.21703246235847473,0.06749682873487473,0.2712841331958771,-0.10115204006433487,-0.8727849721908569,-0.4721015393733978,0.5596370100975037,-0.7262844443321228,-0.7745053172111511,0.7534772753715515,-4.127016544342041,2.491331100463867,2.5458555221557617,2.349106788635254,-1.860245943069458,3.383112907409668,2.2521235942840576,0.8980437517166138,-0.7720322608947754,-5.200655937194824,3.2753171920776367,-0.22425198554992676,2.824801206588745,0.3749981224536896,-3.452514171600342,-0.3120957911014557,5.057928085327148,-1.9391382932662964,2.5977489948272705,-0.8685541749000549,1.705419659614563,-5.020203590393066,-1.9164655208587646,3.999370813369751,0.836035430431366,1.470982313156128,-2.1467714309692383,-1.4402408599853516,-2.1635661125183105,3.712118625640869,-1.2165535688400269,-1.257491111755371,1.9327895641326904,-0.9638908505439758,1.928623914718628,-3.7171154022216797,-2.3410353660583496,0.15485668182373047,0.3190031051635742,-1.5604838132858276,-1.1831353902816772,-2.3046772480010986,1.1900418996810913,-1.106452226638794,-1.0222725868225098,1.9898637533187866,-0.6329732537269592,2.4505202770233154,1.6831661462783813,0.4634701609611511,0.4416778087615967,1.5059465169906616,1.7324739694595337,-0.468261182308197,0.5748242139816284,1.624989628791809,0.08596315234899521,1.4812568426132202,-3.2217659950256348,-1.5848426818847656,1.4064891338348389,1.0173776149749756,-3.0474421977996826,1.8815796375274658,-0.8493164777755737,0.04117947444319725,0.9871712923049927,-2.517335891723633,1.6749151945114136,-0.28926700353622437,1.3283888101577759,0.6748709082603455,0.998095691204071,0.36052533984184265,-2.944728374481201,-6.301882743835449,-0.014927102252840996,-0.8143450021743774,2.413928508758545,-0.5801102519035339,1.623942255973816,-3.636101245880127,-9.28259563446045,-1.7919583320617676,-0.6442140340805054,5.653322696685791,-0.45404481887817383,-3.6635916233062744,-1.2769381999969482,-2.4364278316497803,-1.5902730226516724,-0.50407475233078,1.1998592615127563,2.945019245147705,3.906212091445923,-0.2660827934741974,3.1073086261749268,-1.8649989366531372,-1.1789448261260986,-3.0785062313079834,0.2535206079483032,0.8805640935897827,-1.081445336341858,-1.635253667831421,1.641374945640564,1.6401245594024658,-1.1317787170410156,3.4794132709503174,1.6313871145248413,0.02232295088469982,1.160277009010315,2.8756415843963623,-0.7051185369491577,-0.8638163208961487,-0.8170992136001587,2.0210390090942383,-4.781809329986572,1.8658156394958496,1.4888054132461548,-0.18737158179283142,2.0509462356567383,-1.3130297660827637,0.19605661928653717,-2.022239923477173,0.5243865251541138,1.1649502515792847,1.2956255674362183,4.330491065979004,0.6432400941848755,-0.2966255247592926,-1.5338804721832275,-0.3680708408355713,1.9302401542663574,-1.676287293434143,-0.7757382988929749,-0.46498796343803406,1.157792329788208,2.61952543258667,-2.0065677165985107,-0.005834144540131092,-0.45584815740585327,0.21933914721012115,1.7263754606246948,-0.644098699092865,-1.2302626371383667,-0.14142882823944092,-3.224792957305908,-0.41489291191101074,-2.1860766410827637,1.7025930881500244,1.0782229900360107,-2.005443811416626,-0.3600064218044281,-1.6681936979293823,2.0770366191864014,0.8781330585479736,1.0099823474884033,-1.2806435823440552,0.9641552567481995,-0.0360005758702755,1.3254534006118774,-1.974236249923706,-2.4111111164093018,-2.8127284049987793,1.911791205406189,-0.00875451322644949,-1.1741526126861572,-2.4033987522125244,5.890401363372803,1.1316875219345093,-1.302727222442627,4.452232360839844,2.06075382232666,1.753189206123352,1.2484028339385986,2.3866541385650635,-1.7470465898513794,-2.3676955699920654,-1.1959397792816162,2.2516088485717773,-2.097806930541992,0.9536612033843994,2.3033902645111084,0.7641136646270752,2.5165622234344482,-1.5889967679977417,0.7863442301750183,-2.407491445541382,0.5886275768280029,1.6667914390563965,-2.9350056648254395,2.9019978046417236,5.890763282775879,-1.1803984642028809,-1.8455461263656616,-2.226214647293091,-2.693425416946411,-1.7242237329483032,-1.5792670249938965,-1.5487852096557617,-1.6001198291778564,-1.2508361339569092,1.5175939798355103,3.6745901107788086,4.005792140960693,6.205955982208252,2.4400794506073,2.6666674613952637,-3.103499174118042,-3.081674098968506,-1.876326084136963,3.258199453353882,2.816725254058838,1.9815354347229004,0.7325548529624939,-2.260460138320923,0.6118074655532837,0.28354573249816895,-1.1687920093536377,-3.2363362312316895,2.5807995796203613,-2.155195713043213,-2.7066380977630615,4.519689083099365,-1.1329501867294312,0.828303873538971,-0.6227734684944153,0.40930527448654175,-0.7077194452285767,1.4675971269607544,1.2174956798553467,1.4574625492095947,-0.5178016424179077,-1.6668301820755005,-0.0018372043268755078,0.9380714297294617,-0.802601158618927,-1.3977910280227661,-1.4858331680297852,-0.6006336212158203,0.06334856152534485,0.3506011664867401,0.10439055413007736,-0.4874154329299927,-0.673158586025238,-0.7816359400749207,-1.1384994983673096,2.912614345550537,-0.4238291382789612,-0.4598774015903473,-3.4276835918426514,0.6758626103401184,-1.4680290222167969,1.545483112335205,0.43495118618011475,-0.01834557205438614,-0.3097877502441406,0.27824661135673523,0.8992202281951904,0.9435694217681885,0.02488837204873562,-0.5141094923019409,-0.028052430599927902,0.6568303108215332,-0.1892339140176773,0.09907601028680801,0.33868280053138733,-1.1460899114608765,-0.2675744593143463,-0.19686771929264069,-0.3114128112792969,-0.17807412147521973,0.9107290506362915,0.8120007514953613,0.6168889999389648,-0.7803950309753418,0.9045451879501343,0.07854124158620834,-0.20097537338733673,-0.8001390695571899,-0.1703384965658188,1.1956071853637695,0.8446584343910217,0.5431153178215027,-0.5751379728317261,0.11158136278390884,1.9394534826278687,-0.6812971234321594,-0.04617994651198387,-0.04136500507593155,0.02402685023844242,0.04610069841146469,-0.026808420196175575,0.019361773505806923,0.010408138856291771,0.01779480092227459,-0.07258985191583633,-0.016496606171131134,-0.028835395351052284,-0.049815356731414795,-0.013114693574607372,0.07349026948213577,0.026566462591290474,-0.05217772722244263,-0.04377945512533188,0.02844466082751751,0.06559941172599792,-0.01125778816640377,0.03311816602945328,0.016412992030382156,0.07694295793771744,-0.07296189665794373,0.004003081936389208,-0.07381834834814072,0.042555078864097595,-0.011917352676391602,-0.014376835897564888,0.0709996223449707,0.04127858951687813,-0.010980303399264812]},"hiddenLayers":[{"inputMatrix":{"rows":20,"columns":32,"weights":[-0.3655799329280853,-0.6436762809753418,-0.242289200425148,-0.0942624881863594,0.7130407691001892,-0.6492742300033569,-0.49118804931640625,-0.07111001014709473,0.5996233224868774,-0.3061195909976959,-0.6680446267127991,0.6710944771766663,-0.7521151304244995,-0.09222503751516342,-0.3737601041793823,0.2405201643705368,0.4467169940471649,0.27941903471946716,-0.399055540561676,-0.04332420602440834,-0.16100411117076874,-0.4408295750617981,0.5632415413856506,0.20333607494831085,0.1299905925989151,-0.9879881739616394,-0.04819287359714508,-0.3512137830257416,0.6292679309844971,-0.03991377726197243,-0.9362710118293762,0.157896488904953,-0.7412002682685852,-0.02213883213698864,0.010738070122897625,-0.12827754020690918,0.11575546860694885,-0.761363685131073,-0.04152655601501465,0.020361650735139847,0.4971522092819214,0.3816777169704437,0.25442519783973694,0.49568578600883484,-0.8728454113006592,0.3826879858970642,-0.20413222908973694,0.0325513519346714,0.20721487700939178,1.0434484481811523,0.255760133266449,0.44394320249557495,0.27761736512184143,-0.726448655128479,-0.06268294900655746,0.5452969074249268,-0.04028129205107689,0.20517688989639282,-0.08696451038122177,-0.349038302898407,0.014696095138788223,-0.27775198221206665,-0.975174605846405,-0.18980920314788818,-0.6997290849685669,0.519038200378418,0.034230299293994904,-0.003022213466465473,0.4553070366382599,0.41162562370300293,0.4443497061729431,0.9080691933631897,-0.23641683161258698,0.09629648178815842,-0.055218834429979324,0.8315988183021545,-0.1295010894536972,-0.2559753954410553,-0.5008304715156555,-0.48074737191200256,0.38233286142349243,0.04445774480700493,0.17367878556251526,-0.38194015622138977,-0.5861695408821106,-0.17766259610652924,-0.8599362373352051,0.3938444256782532,-0.1035081222653389,0.3327356278896332,-0.9674872159957886,0.13681499660015106,-0.895853579044342,0.17558464407920837,0.06697039306163788,-0.014921112917363644,0.959598958492279,-0.3672391474246979,-0.468841552734375,-0.06480682641267776,0.8297299742698669,-0.7988820672035217,-0.7293592691421509,-0.4152289032936096,-0.17908816039562225,1.4647064208984375,-1.2276086807250977,0.8533868789672852,-1.0529325008392334,0.33399367332458496,0.708514928817749,-0.3744317591190338,-0.6936973929405212,0.4075285792350769,-0.6017098426818848,-0.2592123746871948,-0.19094403088092804,0.9929429888725281,0.714379608631134,-1.2708172798156738,-0.6211715340614319,-1.0977872610092163,-0.02295263297855854,0.662641167640686,0.681605339050293,-0.4527115523815155,0.11914613842964172,0.3954944908618927,-0.8119799494743347,0.3415980339050293,0.9256234169006348,-1.132920742034912,0.32383084297180176,1.127352237701416,1.0892939567565918,0.11122332513332367,0.16231131553649902,-0.5262641906738281,0.5045506954193115,-1.5255616903305054,-0.6591343879699707,0.4500540494918823,-0.3844672739505768,0.38089826703071594,0.8518348932266235,-0.12773330509662628,0.4006127417087555,0.5593387484550476,1.1153075695037842,-0.4917813241481781,-0.21778987348079681,0.4521671235561371,0.26004087924957275,1.3610440492630005,-1.4521369934082031,0.5161522030830383,0.3265819549560547,1.0287883281707764,0.9491985440254211,-1.018766164779663,0.615074098110199,-0.1406858116388321,-2.101195812225342,0.7176638841629028,-0.4152781069278717,-0.8947510719299316,-0.9889522194862366,0.26241064071655273,-1.1121913194656372,0.1789500117301941,0.23514577746391296,1.1802862882614136,0.6105928421020508,-1.3226698637008667,0.9061625599861145,-0.3592235743999481,-0.25754696130752563,1.6121840476989746,-1.575631022453308,-0.054193779826164246,0.8201221227645874,0.13493891060352325,0.5613144040107727,0.4210956394672394,-0.819796085357666,-0.03600747138261795,0.23421379923820496,-0.05390593782067299,0.4591834843158722,-0.06588692963123322,-0.08331973105669022,1.0680011510849,0.24448376893997192,-0.4833081066608429,-0.5633798837661743,-0.3062729239463806,-0.22400762140750885,0.15270978212356567,-0.29256072640419006,-0.5302724242210388,0.20410418510437012,0.3904717266559601,-0.2857981026172638,0.34996530413627625,0.13749916851520538,-0.48538851737976074,0.17540155351161957,0.007063147611916065,0.1733289211988449,1.0065383911132812,-0.3757494390010834,0.1306159645318985,-0.031117184087634087,0.5885560512542725,0.6302030086517334,0.20448429882526398,0.008205668069422245,0.7822176814079285,-0.6651443243026733,-0.2279997020959854,0.3670816421508789,0.4235774576663971,-0.03763549402356148,0.6507477164268494,1.676613211631775,-1.4956321716308594,-0.993927538394928,-0.007900301367044449,-0.5562285780906677,0.18268097937107086,-0.9638530611991882,-1.3547074794769287,0.7495934963226318,0.20563800632953644,-1.620714545249939,1.234372615814209,-1.3634756803512573,0.4295123219490051,0.6408392786979675,-0.2333417534828186,-1.0391712188720703,0.09983660280704498,-0.8957999348640442,-0.1697455644607544,-0.8113187551498413,1.9732304811477661,1.033821702003479,-1.168992042541504,-0.7774667739868164,-2.160611391067505,-0.0914602279663086,0.22208277881145477,0.8746103644371033,-0.18192091584205627,-0.5706590414047241,1.623693823814392,0.9825305938720703,-0.342852920293808,0.6075935959815979,-1.3566887378692627,-0.013135747984051704,-0.5141057372093201,-0.738723874092102,-0.9708068370819092,0.8827653527259827,0.4983510971069336,-0.6451867818832397,0.3050230145454407,-1.0473861694335938,1.248289942741394,0.4107806980609894,0.42753785848617554,-0.209757000207901,0.1327214390039444,0.41222307085990906,0.5364097952842712,-0.10249680280685425,-0.08561701327562332,-0.39788490533828735,-0.27988675236701965,0.6165763735771179,-0.45361101627349854,0.1142442375421524,-0.36683389544487,1.1665706634521484,-0.6942001581192017,-1.5100393295288086,-0.20378999412059784,0.5858415961265564,0.7252631187438965,0.8656464219093323,-0.5135914087295532,-2.241454839706421,1.5519630908966064,1.038898229598999,0.9306341409683228,-0.04048899933695793,-1.5299968719482422,0.42305564880371094,-0.637351393699646,0.027113113552331924,-0.7318134903907776,-1.1982711553573608,-0.07961435616016388,0.7850386500358582,-0.3945132791996002,0.8016403913497925,-0.12205717712640762,1.7788453102111816,-0.3859269320964813,-0.5713753700256348,0.9191046953201294,-0.5343130230903625,0.9343878626823425,-1.5423998832702637,0.5214155316352844,-0.8831770420074463,1.2653709650039673,0.7510994672775269,-0.2583858072757721,0.15689072012901306,0.06429872661828995,0.391915887594223,-0.2540707290172577,-1.4417779445648193,0.6670126914978027,0.2489631175994873,0.386760950088501,-0.346160888671875,-1.7507069110870361,1.657785177230835,0.23613736033439636,0.0033725365065038204,-0.11104525625705719,-0.8114783763885498,0.14188408851623535,1.0488815307617188,-0.36435291171073914,0.6171908974647522,0.058774348348379135,0.9742106795310974,-0.021095650270581245,-0.21476194262504578,0.9683935046195984,0.2234000712633133,1.6200248003005981,-1.4627362489700317,-0.35311779379844666,-0.37056952714920044,1.169046401977539,0.12306369096040726,0.4961705505847931,1.5650711059570312,-0.4073147475719452,-0.4676772356033325,0.4018065333366394,-0.2382008582353592,0.9527877569198608,-0.16279126703739166,-0.3911314010620117,0.026555366814136505,0.6430627703666687,-0.24235402047634125,0.16884304583072662,-0.6929762959480286,0.15334466099739075,0.11453837901353836,-0.17027390003204346,-0.9309829473495483,0.037237346172332764,0.06386912614107132,-0.38272491097450256,-1.3127996921539307,1.3263696432113647,0.2186872661113739,-1.0177650451660156,-0.478084921836853,-0.9498873353004456,-0.37046748399734497,0.138265922665596,-0.27105098962783813,-1.2664682865142822,0.6027008891105652,-0.07195726782083511,0.022930582985281944,0.4010767638683319,-0.1259850561618805,0.0672420933842659,-0.9074005484580994,0.34145280718803406,0.44126489758491516,0.42842674255371094,-0.30959177017211914,-0.38334962725639343,1.2680925130844116,0.386758953332901,1.2056061029434204,-0.5965139269828796,0.14151930809020996,-0.15857136249542236,0.3316291570663452,0.02297615073621273,0.11613007634878159,0.3711428642272949,0.45651674270629883,-0.5599941611289978,-0.19502007961273193,0.7001790404319763,0.6069924235343933,0.5852131843566895,-0.5056656002998352,-0.1339227259159088,-1.0069785118103027,0.8213282823562622,0.3787285089492798,0.9665623903274536,-0.6802970170974731,0.9387677907943726,0.06719902902841568,0.7205488681793213,0.07525774836540222,0.19246412813663483,0.11305496841669083,1.4024509191513062,-0.8827540874481201,0.0923055112361908,-0.1610385626554489,-0.681911289691925,0.10884655267000198,0.014883864670991898,0.2598201632499695,-1.153160810470581,0.040622103959321976,0.21219642460346222,-0.1886061131954193,-0.8519291877746582,0.7168343663215637,-0.5117577314376831,-0.645558774471283,0.06951811909675598,-0.4963442385196686,0.05140010267496109,-0.41996943950653076,1.6091800928115845,-0.7232180833816528,-0.3902096152305603,1.1978788375854492,-1.4233393669128418,-1.052311658859253,0.5614092946052551,-0.34542223811149597,1.546548843383789,-0.058725692331790924,0.4279971122741699,0.9585754871368408,1.718226671218872,-1.9144492149353027,-0.3769277036190033,0.45420321822166443,0.522156298160553,0.8214762210845947,-2.1484224796295166,-1.4707199335098267,-0.8597869873046875,0.33111101388931274,0.27939143776893616,0.2976504862308502,-1.1410638093948364,0.21317261457443237,-0.26943841576576233,-0.011486026458442211,0.44690099358558655,0.23241876065731049,0.6536759734153748,0.23868505656719208,-0.024304136633872986,-2.0105984210968018,0.983447790145874,0.3882277011871338,1.1542882919311523,0.6478306651115417,0.4819147288799286,0.5318312644958496,-1.0435234308242798,0.4554966986179352,0.9584357738494873,0.22928935289382935,0.681250274181366,1.1204078197479248,0.1617928296327591,0.5358947515487671,0.35793226957321167,0.7063185572624207,0.5862478017807007,-0.6421672701835632,0.8291226029396057,-0.7427534461021423,-1.694240927696228,0.6739909648895264,0.8602169752120972,-0.6703410744667053,0.13240446150302887,-0.8289473652839661,-0.08962156623601913,0.9019795060157776,-0.1792159229516983,-1.1930975914001465,-0.36779049038887024,-0.9608802199363708,-0.016283759847283363,-0.6211219429969788,0.06749923527240753,-0.7758164405822754,0.8949267268180847,1.5041725635528564,-0.3285275101661682,-1.250546932220459,1.2650065422058105,1.0722308158874512,0.23584702610969543,-0.7974063754081726,-0.8173924088478088,1.0915453433990479,-1.3866331577301025,-1.0592714548110962,-0.31109750270843506,-0.5929478406906128,-0.15497608482837677,1.1767135858535767,0.39987635612487793,1.3746792078018188,0.01411399431526661,1.6422255039215088,-0.49119555950164795,-0.9493107795715332,0.7432072758674622,-0.43298980593681335,1.5100268125534058,-1.5593111515045166,0.45958948135375977,-0.1514720767736435,0.9387054443359375,0.802083432674408,-0.9711011052131653,0.22347457706928253,0.7037758231163025,-0.053216602653265,-0.807399570941925,0.11291291564702988,-0.10494119673967361,-0.3123720586299896,0.2591951787471771,1.1823818683624268,0.09283772110939026,0.4031136929988861,-1.204553246498108,1.4806517362594604,0.837040901184082,0.4272046983242035,1.2027379274368286,0.36432766914367676,0.16437436640262604,-0.931487500667572,1.1456328630447388,0.33618998527526855,-0.33671727776527405,-0.536766529083252,0.008214886300265789,0.8772222995758057,0.2900145649909973,-0.6490764021873474,-0.9410336017608643,0.4415414035320282,0.2395874261856079,-0.21704575419425964,-0.6326647400856018,1.0201177597045898,-0.6608113050460815,-0.20750366151332855,0.2078113555908203,0.3387022912502289,0.08977556228637695,-0.8973948955535889,-0.6201338171958923,0.3212257921695709,1.3701647520065308,-0.170962855219841,0.4637228548526764,-0.2423013150691986,0.4150261878967285,0.19336800277233124,0.42668402194976807,-0.804301917552948,0.5172356367111206,0.9478097558021545,0.5706691145896912,-1.3830264806747437,0.34823042154312134,0.513612687587738,-0.4721803665161133,0.32501259446144104,-0.4751724600791931,0.900556743144989,-0.5056595206260681,0.39701732993125916,-1.1004878282546997,-0.5483123660087585,0.6621493697166443,0.43723946809768677,-0.4547465145587921,-0.011410443112254143,-0.5151087045669556,-0.4285394549369812,0.1171237900853157,0.20451821386814117,-0.7662761807441711,0.8512198328971863,-0.8823769092559814,-0.6141389608383179,1.1604115962982178,-0.7389859557151794,-0.20992973446846008,-1.0169068574905396,-0.20079663395881653,-0.48091647028923035,-0.2750418782234192,1.3654588460922241,0.1274053305387497,0.3198819160461426,-0.3028391897678375,-0.4841216206550598,0.744049072265625,-0.5125865340232849,-0.7120770215988159,-0.6478472352027893,-0.42884010076522827,0.24970324337482452,0.8918619155883789,-1.9435795545578003,0.8103276491165161]},"inputHidden":{"rows":20,"columns":20,"weights":[-1.901492714881897,-2.7704861164093018,0.18309380114078522,2.4550328254699707,3.7528231143951416,-0.9003440737724304,3.586298942565918,-1.6485596895217896,1.6506662368774414,-2.416355848312378,-2.737539291381836,-2.121877908706665,0.4525783360004425,-1.7647521495819092,-0.21111959218978882,2.1316978931427,-3.49820613861084,2.486365556716919,2.2263920307159424,2.348055124282837,0.69167560338974,1.009080410003662,-0.913346529006958,-2.156975507736206,-0.058627545833587646,0.6616777777671814,-0.47151824831962585,1.8150254487991333,-2.834447145462036,-0.8226323127746582,-1.485663652420044,0.9379393458366394,2.0019145011901855,-2.3877363204956055,-2.059238910675049,-2.8020663261413574,-0.20483024418354034,-2.6969544887542725,-2.0594537258148193,-2.0170936584472656,-1.9387186765670776,-1.3660342693328857,-0.5103890895843506,2.2649290561676025,2.073227882385254,2.5869641304016113,0.4846355617046356,-1.5736262798309326,1.2132911682128906,-2.549067974090576,-1.0885729789733887,-2.374652624130249,-0.17291322350502014,-0.13833792507648468,-0.2246936410665512,-0.9050011038780212,-1.7109179496765137,2.670689105987549,2.8107645511627197,-0.27196258306503296,1.3097597360610962,0.6675269603729248,-1.0138609409332275,-0.6412072777748108,-1.3727502822875977,1.655774474143982,-0.47208520770072937,0.5817359685897827,-1.1135600805282593,0.047630876302719116,-0.1639636904001236,1.5053075551986694,0.9190508723258972,-1.42141854763031,-1.2218921184539795,-0.9414743185043335,0.6602311730384827,-1.0665489435195923,-1.1279644966125488,-1.593666434288025,0.12966136634349823,-1.3568781614303589,-0.5273007750511169,0.7295426726341248,1.045055627822876,0.22654949128627777,0.8592755198478699,-0.5815768241882324,-1.1199698448181152,-0.517459511756897,-0.7945707440376282,-1.8035222291946411,0.2228420376777649,-0.5348921418190002,0.26231127977371216,2.4581141471862793,-0.826645016670227,1.070906162261963,-0.22080998122692108,1.146445870399475,0.044891342520713806,1.0843899250030518,0.029635192826390266,-1.2516967058181763,-0.5276814103126526,1.6245537996292114,-1.1052954196929932,1.8854827880859375,-0.4238814115524292,0.027149010449647903,-0.16377072036266327,1.4675029516220093,0.7455263733863831,0.03460871800780296,0.1715347319841385,0.6032986044883728,-0.267814576625824,-1.2532240152359009,-1.9911270141601562,-0.07180557399988174,-1.695499062538147,-0.5297293066978455,-2.431826114654541,1.262565016746521,0.3218635320663452,-2.595435380935669,-0.5277515053749084,-1.3689403533935547,1.072599172592163,-0.4360021948814392,0.7772596478462219,-0.34340277314186096,0.9907062649726868,-1.0206750631332397,-1.1261622905731201,1.086543321609497,-0.40680333971977234,2.0845823287963867,1.868515133857727,0.6361096501350403,0.37000730633735657,0.6459576487541199,-1.5894652605056763,0.289516419172287,0.09198452532291412,0.22350488603115082,-1.5688430070877075,0.17714430391788483,1.1583914756774902,-0.23235449194908142,0.38902565836906433,0.43375006318092346,0.27279284596443176,0.8304249048233032,-2.0968616008758545,0.2832183241844177,0.2817615568637848,0.20119473338127136,0.08930500596761703,-0.7578185796737671,1.9414633512496948,1.6708792448043823,-1.2411231994628906,-0.8899345993995667,-1.769350528717041,-1.4601320028305054,-0.2521548271179199,1.3408567905426025,-1.0454193353652954,0.6345093250274658,0.4169180393218994,2.8690435886383057,0.45344048738479614,-0.6442782878875732,-0.8413213491439819,0.256794273853302,1.2333855628967285,-0.7678655385971069,-0.967871904373169,-1.0680294036865234,0.018599359318614006,0.8629063367843628,1.1212445497512817,-0.7115510106086731,0.8430923223495483,0.21269287168979645,1.1439546346664429,2.0103213787078857,-1.8576794862747192,0.2801488935947418,-1.6510356664657593,-0.2396111786365509,-2.048048257827759,2.5053024291992188,2.9758694171905518,0.7052868008613586,-1.0543798208236694,-0.8553356528282166,-0.9105551838874817,0.00015322037506848574,-2.5363121032714844,-1.3360686302185059,1.1082900762557983,-0.2851451337337494,2.6519358158111572,-0.70212322473526,1.9163483381271362,0.267922043800354,-0.7120984792709351,0.4612058401107788,-1.3300902843475342,-1.2513182163238525,0.6031282544136047,-0.688190758228302,1.6998780965805054,0.254289835691452,-2.3060717582702637,1.9017938375473022,-0.019767941907048225,1.5042204856872559,1.2046159505844116,3.0231640338897705,-0.7093377709388733,-1.5686489343643188,-1.3075059652328491,-0.8318743109703064,-1.95613431930542,2.2483325004577637,-1.36935555934906,2.805701494216919,-0.6255070567131042,3.1615333557128906,-1.0962542295455933,1.8384419679641724,-1.1759183406829834,-1.404242753982544,0.7514065504074097,-0.7399144768714905,-0.11953884363174438,-2.433328866958618,-0.38967788219451904,-0.5361731052398682,-2.7152483463287354,0.3004041612148285,0.14470674097537994,3.223534345626831,-0.26283034682273865,1.2720003128051758,-3.0331978797912598,1.010540246963501,-0.22254256904125214,-2.121584415435791,4.087614059448242,-2.037029266357422,-2.47074556350708,2.021164894104004,0.27276426553726196,0.30245453119277954,-0.19083420932292938,1.1366686820983887,0.7744148969650269,1.4150792360305786,1.8418872356414795,0.8752679824829102,0.6066977977752686,0.4340435862541199,0.6016774773597717,-1.2851113080978394,1.157673716545105,-0.23618033528327942,-0.28780579566955566,-0.31061485409736633,-1.9342329502105713,2.35247802734375,0.8560116291046143,-0.6779478192329407,0.1328902393579483,1.6337218284606934,1.1326481103897095,1.2721484899520874,-1.652021050453186,-1.2135648727416992,0.8097690343856812,1.1573034524917603,0.8105035424232483,-0.5183885097503662,0.0507681667804718,-0.2189023345708847,0.07044374942779541,-0.38117435574531555,0.2431846410036087,-1.1538139581680298,-1.1371434926986694,-0.3624316155910492,1.2416101694107056,1.2495253086090088,-0.6790573000907898,1.6831440925598145,1.9266020059585571,1.2549861669540405,0.4517152011394501,0.6800050735473633,-1.5420892238616943,-1.454471230506897,-1.1031203269958496,-1.2749993801116943,-1.1484886407852173,2.0609264373779297,-1.2327277660369873,1.295655369758606,1.2294921875,2.4619178771972656,-1.5305153131484985,1.330085039138794,-0.24352069199085236,0.9989031553268433,1.4169877767562866,-0.501483142375946,-1.5735818147659302,0.20628570020198822,0.7298296093940735,-0.7280368208885193,-0.1834535002708435,0.8682767152786255,0.08824878185987473,0.20322206616401672,-0.13595212996006012,-0.8444077968597412,0.5433831214904785,-0.8314192295074463,-0.4769054055213928,-0.7590781450271606,0.1961454451084137,0.021977297961711884,-0.6217148900032043,1.3851374387741089,-0.26652705669403076,1.4577033519744873,1.4051942825317383,-0.5725964903831482,2.582798480987549,0.21109648048877716,-0.8555644154548645,-2.1002728939056396,-0.25999391078948975,-0.24196173250675201,-0.41877877712249756,1.2095611095428467,-2.2610952854156494,1.8857862949371338,0.01060897670686245,0.5798694491386414,0.3915543854236603,-1.4295419454574585,-1.4828118085861206,0.2513599097728729,0.1797773838043213,-2.710446834564209,-1.8940342664718628,-0.4826810657978058,2.1447932720184326,1.016102910041809,0.7019551992416382,-1.652728796005249,-0.15889471769332886,1.0787510871887207,-1.5408711433410645,2.1566452980041504,-0.5479131937026978,2.8217194080352783,0.6081035137176514,1.8300023078918457,0.10057371109724045,0.4480167329311371,-1.2841662168502808,-0.2780809998512268,-0.09807901084423065,-3.0441362857818604,-1.660203456878662,-1.9815553426742554,-0.8943409323692322,-0.35538893938064575,0.6587514877319336,1.2512551546096802,3.232475757598877,0.4679628610610962,1.5087403059005737,-0.9185994863510132,0.8741536140441895,-1.8364036083221436,-1.4243013858795166,-3.251340389251709,-1.0982640981674194,-0.6553285717964172,0.9423826336860657,2.2624123096466064,-3.35095477104187,0.8207213282585144,0.31800827383995056,2.2568106651306152]},"inputBias":{"rows":20,"columns":1,"weights":[0.9897682070732117,-0.29496392607688904,0.5602990388870239,0.17479071021080017,0.650753378868103,0.6242761015892029,0.06969715654850006,-0.45519816875457764,-0.5443398952484131,0.5265066623687744,-0.5791864991188049,-0.9082826972007751,-1.3119254112243652,0.050327084958553314,-0.20330984890460968,-1.1099746227264404,0.0053921956568956375,-0.42726224660873413,-0.5830532312393188,0.07519717514514923]},"forgetMatrix":{"rows":20,"columns":32,"weights":[-0.7001955509185791,-0.08504264801740646,0.4341433048248291,1.2308180332183838,-0.15587720274925232,-1.6992754936218262,0.059762392193078995,-0.42707058787345886,-2.332341194152832,0.1482439786195755,1.3015137910842896,-1.132907509803772,-0.8399561047554016,-1.0549358129501343,-0.004660819657146931,-0.5488957762718201,0.46744152903556824,1.5408923625946045,0.0035722958855330944,-0.19617363810539246,1.0246338844299316,-0.2873362898826599,0.258526474237442,0.014333848841488361,0.07182573527097702,1.3548864126205444,1.1695281267166138,-0.03250433877110481,0.5999141335487366,-0.19140733778476715,-0.059629082679748535,-0.2328995168209076,1.4512276649475098,-1.1719541549682617,-1.0676997900009155,-0.49639996886253357,0.5438528060913086,-0.2343546748161316,-0.9050595760345459,-1.1490644216537476,-0.4283948838710785,1.3652921915054321,-1.3223793506622314,1.6214385032653809,0.2626471519470215,-0.03244539350271225,1.2545374631881714,-0.21618320047855377,-1.1334068775177002,0.3547433316707611,-1.3453443050384521,0.2822723090648651,0.0861227959394455,1.2771313190460205,0.7282323241233826,-0.5790501832962036,-0.3314926326274872,0.13609163463115692,-0.1747746765613556,0.6069057583808899,-0.04526238143444061,-0.2493763267993927,-0.5108746290206909,2.038830280303955,1.0855929851531982,-1.8780697584152222,0.05366472527384758,0.3618392050266266,-0.9547895789146423,-0.5470402240753174,-1.4397690296173096,-2.558034658432007,-0.7898069024085999,-0.14131073653697968,0.643332302570343,0.14522162079811096,-0.6011292934417725,0.7338724732398987,1.3638925552368164,-0.26090335845947266,0.0596001073718071,-0.18413464725017548,-0.09682775288820267,-0.3211532533168793,0.7822561860084534,0.6838884949684143,1.8983129262924194,-0.1713860183954239,-0.030189361423254013,-0.12205108255147934,-1.6088627576828003,0.10043828189373016,2.476083517074585,0.5801191329956055,-1.0895322561264038,0.6720757484436035,0.30657586455345154,-0.8415104150772095,-0.8849170207977295,0.18357589840888977,0.1452023684978485,-0.4677656292915344,-0.32838281989097595,-0.7077431082725525,-0.6865819096565247,0.5116181969642639,-1.040746808052063,-0.8444390296936035,0.10594773292541504,-0.581018328666687,0.5431947112083435,-0.029407920315861702,0.13711605966091156,-0.04931095987558365,-1.040062665939331,-0.768906831741333,-0.9902418255805969,0.9384242296218872,0.61493980884552,-0.5887624621391296,-1.1493830680847168,-1.010231614112854,0.9617660641670227,-0.3646775186061859,0.3641105890274048,-1.052048921585083,0.5558525919914246,0.31409767270088196,0.5625513195991516,-0.20551757514476776,-0.5017591714859009,1.1231387853622437,-0.47821906208992004,0.2624443769454956,-0.10337366163730621,0.3700000047683716,-1.4126297235488892,0.2879990339279175,-0.22425039112567902,0.3995952606201172,0.003588530933484435,-1.237298846244812,0.23801638185977936,-1.7419313192367554,-0.29625239968299866,-0.3532395660877228,-0.4587783217430115,-1.5981370210647583,-1.7533090114593506,0.6447833180427551,0.2937125563621521,-0.5068441033363342,-1.335880160331726,-1.2262874841690063,0.3622172176837921,1.058833360671997,-0.5471032857894897,-0.10064136981964111,1.6932209730148315,0.21262246370315552,-1.3696765899658203,1.5095112323760986,1.5288691520690918,-0.4258296489715576,-1.1710056066513062,-0.35616540908813477,1.1209334135055542,2.044461488723755,-1.1737585067749023,-1.520374059677124,1.8254200220108032,-0.25636205077171326,2.4826154708862305,0.4333455264568329,-1.0136406421661377,0.6549602150917053,0.38861900568008423,-1.020758032798767,1.0645447969436646,1.1186065673828125,1.2036387920379639,-0.5492146015167236,-1.4712495803833008,0.27064913511276245,1.702087640762329,2.1984002590179443,0.38411858677864075,-0.7590388655662537,-2.5997867584228516,1.012194037437439,-0.49066171050071716,-0.5015217065811157,0.37879467010498047,0.2675723135471344,0.4104485511779785,-0.1318398267030716,-0.20086583495140076,-0.14207953214645386,0.1903117448091507,-0.390285462141037,-1.4810168743133545,-0.44789132475852966,1.0374016761779785,-0.20810037851333618,-0.521526038646698,0.8578652143478394,0.08722242712974548,0.26221662759780884,-0.6208120584487915,-1.4933240413665771,0.7147698998451233,0.07096768170595169,-0.6252370476722717,0.22305956482887268,-0.4886804521083832,-0.7920618653297424,0.4341064393520355,-0.03868339583277702,-0.08244755864143372,0.5350598692893982,-0.02963508479297161,-0.7934522032737732,-0.15890148282051086,0.1732679158449173,0.20838035643100739,0.17003580927848816,0.23863938450813293,-0.32954850792884827,0.7193744778633118,-0.938931941986084,0.42914941906929016,0.06890036910772324,-0.8243604898452759,0.3624841570854187,-0.23555724322795868,-0.317020982503891,-0.8531221151351929,-0.1681627780199051,-0.18066440522670746,-0.14150746166706085,0.12298843264579773,-0.6427556276321411,0.4438377320766449,-0.3481716215610504,0.15506397187709808,0.4215448498725891,-0.5998724102973938,-0.4558621048927307,-0.724094808101654,-0.07819633185863495,0.03690771758556366,0.028880171477794647,-0.11845406889915466,-1.645361065864563,-0.36035969853401184,0.1381523162126541,0.5809688568115234,-1.265623927116394,-0.4214668273925781,0.4229072034358978,-0.3810049593448639,-1.327761173248291,-1.173186182975769,-0.6195438504219055,-1.9525904655456543,-0.5645620822906494,0.5331487655639648,1.0887855291366577,-0.9264022707939148,-0.3481869101524353,0.43013796210289,-0.6877016425132751,0.4886108934879303,1.850715160369873,-0.5897102952003479,-0.34328046441078186,0.6769388318061829,0.21863654255867004,1.3825784921646118,0.16412918269634247,-0.27185454964637756,0.8798118233680725,-0.6741051077842712,1.0645442008972168,0.7324488759040833,0.020401977002620697,-0.33342140913009644,1.328082799911499,-1.049275517463684,1.6588075160980225,1.0838909149169922,0.2112823873758316,-1.4523931741714478,-0.33569931983947754,1.007594347000122,1.7490901947021484,-1.1825250387191772,-0.5833712220191956,2.244567632675171,0.668452262878418,1.0774345397949219,-0.939498245716095,-1.3183518648147583,-0.3576034903526306,1.33491849899292,0.792555570602417,1.322735071182251,-0.08185876160860062,0.030972382053732872,-2.439281702041626,-1.6664071083068848,2.3709957599639893,0.6554561853408813,1.9615583419799805,0.1511877179145813,0.12599407136440277,-1.3523399829864502,-0.5232335329055786,0.39082375168800354,-0.41203272342681885,-0.5136725306510925,-0.11871667206287384,-0.5714386105537415,0.387729287147522,-1.5487122535705566,-0.6686863899230957,0.3113005459308624,1.1397737264633179,-1.3800052404403687,-1.3043256998062134,1.9040699005126953,1.5611118078231812,1.2153812646865845,-0.6282356977462769,-1.0234671831130981,-0.435859352350235,0.46104884147644043,-0.6158117651939392,0.42122843861579895,0.005955301225185394,0.8544772267341614,-2.4025466442108154,0.13255178928375244,3.4472880363464355,0.4449142515659332,1.168012022972107,0.20415817201137543,-0.2420778125524521,-1.1062099933624268,-0.03813432529568672,-1.0190987586975098,1.101077675819397,-1.259508728981018,0.4485146999359131,0.015342297032475471,-0.11439447104930878,0.6054116487503052,-0.38046592473983765,1.0041064023971558,0.640197217464447,-1.1648997068405151,0.16815197467803955,-0.15674452483654022,-0.8181402087211609,-0.5835705995559692,-1.7778534889221191,-0.6875162124633789,-0.32973071932792664,0.9032309055328369,0.2560942769050598,-0.32583537697792053,-0.3683558404445648,0.21291583776474,-0.3957614302635193,-0.23809945583343506,0.14508984982967377,-0.6353991031646729,0.6220874786376953,1.1212891340255737,0.3530444800853729,-0.466661274433136,0.7312781810760498,0.9087669253349304,0.0025107418186962605,0.619504988193512,-0.19048666954040527,1.3322492837905884,-2.994288682937622,0.2918086051940918,0.9215959310531616,0.12804053723812103,-0.5385738015174866,0.9946185350418091,-0.3512016534805298,1.0877457857131958,-0.9098812341690063,1.0829930305480957,2.129127025604248,0.050537534058094025,2.21234393119812,-0.39216920733451843,-2.7787187099456787,0.6060115098953247,2.8296306133270264,-0.41010817885398865,-0.3143343925476074,0.16005344688892365,-0.3370611369609833,1.8549537658691406,-0.12479095906019211,-0.7075119614601135,-1.119852066040039,0.6006625890731812,0.009461202658712864,-0.682125449180603,-0.6322677731513977,-0.07849579304456711,0.461300253868103,0.7094178795814514,0.7827619910240173,-1.8885432481765747,1.510475516319275,0.3204766511917114,-0.2861894369125366,0.5203394293785095,-0.4785071313381195,1.4562402963638306,0.12811429798603058,-0.8227697610855103,-0.8493993878364563,-0.6172282099723816,-0.8074563145637512,0.6961864233016968,0.6592830419540405,1.2076199054718018,-0.25068777799606323,0.30307552218437195,-1.2710846662521362,-0.12748193740844727,0.9204949140548706,-0.5205592513084412,1.034240484237671,0.32856348156929016,1.620570182800293,0.12779369950294495,0.5665045976638794,-0.15353085100650787,-0.5883243680000305,0.4716469943523407,0.1491950899362564,0.8395681381225586,-1.2696315050125122,-0.6518763303756714,1.359579086303711,0.286909282207489,-0.275094211101532,1.0665843486785889,-0.306937575340271,-0.4808835983276367,-0.31479373574256897,0.9993640184402466,1.5020427703857422,0.19823099672794342,0.8910436630249023,0.3496982753276825,-2.462261199951172,0.43427544832229614,0.534548819065094,0.7796398401260376,0.24252276122570038,-0.5518758893013,-0.6871696710586548,1.2284584045410156,-0.21698792278766632,-2.183670997619629,-1.8078489303588867,0.182480588555336,0.6218263506889343,-0.13260678946971893,0.11149967461824417,1.5810133218765259,-0.9662973880767822,-0.8815857172012329,-0.709965169429779,-0.648607611656189,-0.2570474445819855,-1.0480059385299683,-0.5402908325195312,-0.1795409470796585,0.4129883050918579,-0.5492137670516968,1.2640215158462524,-0.015837930142879486,1.3708641529083252,1.067458152770996,-0.6525120735168457,-0.6825594305992126,-0.39530855417251587,-0.6908121109008789,-0.5797950625419617,1.225056529045105,0.8542531132698059,1.2704168558120728,-0.6751241683959961,-0.6025463938713074,-0.07268117368221283,-0.876084566116333,1.0559704303741455,0.6005607843399048,-0.5539878010749817,-0.10499682277441025,0.47156643867492676,-0.31646931171417236,-0.0659499317407608,-0.9354969263076782,0.8940363526344299,0.14853344857692719,0.5279440879821777,0.21786418557167053,-0.24350948631763458,-2.1249756813049316,-0.2379409670829773,-0.056969866156578064,0.4240918755531311,-0.2939716577529907,-0.8582441806793213,0.2644135057926178,-1.0180302858352661,-0.06563516706228256,-0.14604192972183228,-0.7297574877738953,-0.8984407186508179,-0.6816781163215637,0.17578855156898499,0.45415833592414856,1.3764163255691528,-0.5316296219825745,-0.3905510902404785,-0.6794702410697937,0.20364007353782654,0.27070048451423645,0.7208403944969177,-0.2553921937942505,0.6553329229354858,0.2963879108428955,-0.6388487815856934,-0.1794842630624771,0.14738647639751434,0.7340786457061768,-0.48403117060661316,-0.044413354247808456,-0.9885783791542053,-1.2883310317993164,0.4571046233177185,-1.335623025894165,-0.8359354734420776,-0.7539832592010498,-0.16096897423267365,0.639358639717102,-0.6891725063323975,0.07464092969894409,0.4702518582344055,-0.3984559178352356,-0.6842827796936035,-1.0581080913543701,1.109866976737976,0.3758319020271301,-0.9752013087272644,-1.553739070892334,-1.3760311603546143,1.3921712636947632,0.7028234004974365,0.9943622946739197,-1.486493706703186,0.19208292663097382,-0.004012121353298426,0.8205291628837585,-1.2500652074813843,-2.406456232070923,-0.06625831127166748,2.0277280807495117,-1.4708038568496704,-0.44245201349258423,-1.0060011148452759,-0.6140750050544739,1.7766841650009155,-1.9613921642303467,0.42315903306007385,-1.4209554195404053,-0.3175447881221771,2.0844004154205322,-0.24135053157806396,-0.2059406340122223,0.8983588814735413,-1.811142921447754,-0.2182755470275879,-0.008854664862155914,2.0711820125579834,1.2316820621490479,-2.0887389183044434,-1.3077939748764038,-0.48320308327674866,-0.7515608668327332,1.3852760791778564,0.9001985192298889,0.17565008997917175,0.3755035996437073,1.4953386783599854,-0.8862149119377136,1.084431767463684,-0.17314976453781128,0.3886965215206146,0.6600918769836426,0.5122500658035278,0.9461070895195007,0.7158721089363098,-0.7718567252159119,0.05099821090698242,-0.6423290371894836,-0.8694027066230774,0.47129321098327637,-1.4924755096435547,-0.3293309211730957,-0.43508395552635193,-0.1097361147403717,0.1416492909193039,-0.21555715799331665,-0.6701825261116028,0.2183913141489029,0.6904236078262329,-1.1477320194244385,-0.12681737542152405,0.3404585123062134,0.2670416533946991,-0.2728218734264374,0.24572156369686127,-0.7419687509536743,0.47647324204444885,0.6382668018341064,-0.14766445755958557]},"forgetHidden":{"rows":20,"columns":20,"weights":[1.1873695850372314,-1.413270354270935,1.7364758253097534,0.22284482419490814,-1.63472580909729,1.0245362520217896,-1.147546648979187,-0.1715061068534851,0.5214990377426147,1.0681779384613037,0.8404361605644226,-1.784909725189209,-0.23352600634098053,1.3605693578720093,0.22910261154174805,-1.5885319709777832,1.276357650756836,0.46337464451789856,0.38269197940826416,-0.2221934050321579,0.2294173687696457,1.9151692390441895,0.47257500886917114,-0.9523401856422424,-1.0402028560638428,0.10148454457521439,-0.7879799604415894,1.1495596170425415,-1.380628228187561,1.3408021926879883,0.24778977036476135,0.9953098297119141,-0.629430890083313,0.3691948354244232,0.5166119337081909,-0.4437789022922516,0.42422544956207275,-1.2071102857589722,-1.9189773797988892,1.0906370878219604,1.508124589920044,0.7113440632820129,-0.02749679423868656,-0.15898500382900238,0.5528572201728821,0.3005293607711792,0.31119659543037415,0.17370447516441345,0.14307501912117004,-0.38289108872413635,0.24075299501419067,0.3245384693145752,-0.22979485988616943,0.9869754910469055,-0.8595407009124756,-0.6418853402137756,-0.5170256495475769,-0.5748182535171509,-0.5298951268196106,0.2748234272003174,1.2997087240219116,2.8224005699157715,-0.17802630364894867,-1.1265034675598145,0.8084157705307007,-1.7667436599731445,0.5888162851333618,1.5480057001113892,-0.8126438856124878,1.3076204061508179,0.8650674223899841,2.0512444972991943,-1.4830727577209473,0.40412989258766174,-1.1189919710159302,-2.189811944961548,-0.6985571384429932,-2.3317675590515137,-1.977241039276123,-0.9739692807197571,-0.9068338871002197,0.9070274233818054,0.7083598971366882,0.8377749919891357,-0.4789482355117798,0.9976606965065002,1.2005647420883179,-0.6906094551086426,0.22238700091838837,1.3695694208145142,0.7070401906967163,-0.48812004923820496,-1.2889950275421143,1.7592928409576416,1.7306890487670898,-0.9917730689048767,0.3817819654941559,-0.31867915391921997,-0.7361087799072266,0.5163662433624268,-1.610191822052002,-0.08765853196382523,-0.04838577285408974,0.24831342697143555,-0.8838155269622803,-0.2663951516151428,0.9073644876480103,-0.34842056035995483,0.8314196467399597,-1.3502322435379028,-0.910001814365387,0.5680208206176758,2.1922049522399902,-0.781092643737793,0.6237841844558716,0.7478516101837158,0.27222755551338196,0.9100342392921448,0.8962929844856262,2.4606199264526367,-0.2457999289035797,0.4886566996574402,1.5205512046813965,0.30767616629600525,1.7095060348510742,-3.1694841384887695,1.7033616304397583,-0.6339774131774902,-2.099630117416382,-1.368206262588501,-0.9268965125083923,-1.5970423221588135,-1.4796428680419922,0.7795928120613098,2.0008022785186768,0.10483076423406601,-1.9500335454940796,-0.8631786108016968,0.8561378717422485,0.6104596257209778,3.1997933387756348,0.9760793447494507,0.27759504318237305,-1.1834768056869507,-0.7307204008102417,-1.4486156702041626,-1.8389252424240112,1.2874650955200195,-0.5026819109916687,2.2803244590759277,0.8059611916542053,1.3786176443099976,-1.5353567600250244,-1.3406013250350952,-1.4270646572113037,-0.8501060605049133,0.784542977809906,-1.0273712873458862,-2.2492425441741943,-1.6630162000656128,1.7023897171020508,0.2416127771139145,-0.8661446571350098,-0.5046146512031555,-1.2103487253189087,2.1910810470581055,-0.6133913397789001,1.2234476804733276,-0.6814700365066528,-0.6553711891174316,-0.23299500346183777,0.58585125207901,0.4031062126159668,1.1481537818908691,-0.9036700129508972,0.5856530070304871,1.6887286901474,-1.0162413120269775,-0.738345205783844,-0.8026546835899353,0.8803717494010925,2.3209187984466553,-0.5744009613990784,-0.4297995865345001,-1.3218388557434082,-2.3201591968536377,-0.8585967421531677,-0.2431916892528534,0.4826701879501343,-0.3876391649246216,1.091192603111267,1.4368106126785278,-1.911008596420288,0.8613563179969788,0.30119428038597107,-0.40068382024765015,0.8479675054550171,0.8367409706115723,1.2110668420791626,-1.3420286178588867,2.48740553855896,2.431116819381714,-0.6484154462814331,-0.19640710949897766,-1.2786551713943481,-1.4098296165466309,0.20985999703407288,-1.5379835367202759,-0.8108863830566406,0.7312941551208496,0.2529296278953552,1.4328019618988037,-2.142796039581299,1.7481200695037842,0.7866854667663574,-0.8386437296867371,1.0092637538909912,-0.3150641918182373,0.30403003096580505,-0.6067585945129395,-0.6357144117355347,1.0186569690704346,-1.7241395711898804,-1.1385751962661743,-1.3603085279464722,-1.0656741857528687,-0.21982286870479584,1.7123392820358276,-2.6976335048675537,2.755666732788086,1.240713357925415,1.4241394996643066,1.232317566871643,-1.223752737045288,0.20899133384227753,0.1874721646308899,1.5218746662139893,-1.5490583181381226,-2.006235361099243,0.31177791953086853,-0.053665243089199066,1.0532866716384888,-1.3398330211639404,0.3418073356151581,0.08366858214139938,-1.0466026067733765,0.37837228178977966,0.6146449446678162,-0.815645158290863,-1.1139761209487915,1.0061687231063843,1.1892740726470947,-0.40675148367881775,-0.28111550211906433,-0.6271571516990662,1.2669059038162231,0.18559223413467407,0.5563048720359802,0.2544167935848236,-0.33114710450172424,-1.3720297813415527,0.5289281606674194,-0.055558327585458755,-1.1061736345291138,2.272372007369995,1.1124781370162964,2.799628973007202,0.3497661352157593,-1.1443761587142944,-2.108855962753296,-2.0865273475646973,0.02353394217789173,0.3281903862953186,-0.6068165898323059,0.1877380609512329,-0.21746377646923065,-2.271956443786621,-0.4694443643093109,0.4469888508319855,1.8975400924682617,1.913611650466919,0.3810150921344757,-1.2763152122497559,-0.9908425807952881,-0.09108640998601913,1.7868521213531494,-0.6918452978134155,-0.11398588865995407,-0.5063381791114807,0.5436125993728638,0.35805878043174744,1.2310187816619873,1.6488150358200073,-1.0559790134429932,-1.4547306299209595,0.1606997400522232,0.6513603925704956,-0.3142000436782837,0.3236497640609741,-1.6712735891342163,-0.7528378963470459,0.4339577257633209,-2.5163872241973877,-0.2249050736427307,0.5316435694694519,-1.4344162940979004,1.3492122888565063,0.39723148941993713,-0.22561891376972198,-0.8078125715255737,0.0771695226430893,0.37264785170555115,-0.09470880776643753,-2.2615864276885986,-2.0373308658599854,-0.23943392932415009,-1.0004875659942627,-0.7361770272254944,-0.5530260801315308,0.9933938384056091,0.21783924102783203,2.0048162937164307,-0.8625662326812744,1.4667845964431763,-0.9506182074546814,1.4202520847320557,-0.3684532642364502,-0.791581928730011,1.694077491760254,1.5820176601409912,1.4493411779403687,-2.456591844558716,-0.16383175551891327,0.14663778245449066,0.15535396337509155,1.1100910902023315,0.7242698073387146,0.36629775166511536,-1.9277498722076416,-1.3649247884750366,1.3299956321716309,1.1746337413787842,-0.07068627327680588,-1.4037033319473267,-0.4668245017528534,-0.28077319264411926,-0.928200900554657,1.2176969051361084,-0.9567258954048157,1.513416051864624,1.4725823402404785,0.9120981097221375,-0.02393571473658085,0.2231486439704895,-1.0087958574295044,-0.6468824744224548,0.8761712908744812,-1.4346922636032104,-1.6858806610107422,-1.307812213897705,1.7467842102050781,-0.08158251643180847,0.40302249789237976,-0.41775259375572205,-1.3573274612426758,-0.007757019251585007,0.10524052381515503,0.15269869565963745,0.08521407097578049,0.2908993661403656,0.4855663478374481,-0.18324308097362518,0.5715723633766174,-0.15687133371829987,-0.7836231589317322,-0.3320302367210388,0.667025089263916,-0.20332908630371094,-0.3283909857273102,0.06949449330568314,-1.045698881149292,1.0088881254196167,3.315938711166382,-2.022047758102417,-0.7773222923278809,0.672089159488678,-0.4575878083705902,1.3078982830047607,-2.2010269165039062,0.7204091548919678,-1.0957684516906738,0.2848156690597534,-2.2253897190093994,2.4719018936157227,2.6532845497131348,-1.7188307046890259,0.7060354351997375,-0.9361335039138794,-0.06401272118091583,-0.14915400743484497]},"forgetBias":{"rows":20,"columns":1,"weights":[0,0,0,0,0,0,0,0,0,0,0,0,0,0,0,0,0,0,0,0]},"outputMatrix":{"rows":20,"columns":32,"weights":[0.31018784642219543,0.027420690283179283,0.6036407947540283,0.0958576574921608,-0.6108726263046265,0.03777481988072395,0.2533372640609741,0.41285207867622375,0.26971083879470825,-0.3428342640399933,0.22903043031692505,-0.24568405747413635,-1.0933150053024292,0.23375771939754486,-0.8050405979156494,-0.26593565940856934,0.009302578866481781,0.4469452202320099,0.8034589886665344,-0.09944476932287216,-0.46295610070228577,-1.2555559873580933,-0.2911842465400696,0.8894549608230591,-0.7312836050987244,-0.5616782903671265,-0.16840001940727234,0.05113142728805542,-0.35387226939201355,-0.6068145632743835,-0.26360854506492615,-0.6059349775314331,0.2056988775730133,-0.37210819125175476,-0.2710362672805786,0.10243925452232361,0.6628556847572327,-0.11837079375982285,-0.20048557221889496,-0.8577836155891418,0.5949028730392456,0.8797130584716797,-1.0262823104858398,0.7357132434844971,-0.40548285841941833,-0.6184673309326172,0.40928924083709717,-0.08818214386701584,-1.0943421125411987,0.47410765290260315,0.17242418229579926,-0.0053896051831543446,-1.1271345615386963,0.4662339389324188,0.2511196732521057,-0.6286070346832275,-0.07572203874588013,-0.8849500417709351,1.3327975273132324,-0.05715383216738701,0.6939957141876221,-0.5608541965484619,-0.8806031942367554,0.22837762534618378,-0.3876131772994995,1.5787492990493774,0.31494829058647156,-0.29593801498413086,-0.4654890298843384,1.0148231983184814,0.432346373796463,1.3834168910980225,1.8194189071655273,-0.5058470964431763,0.5413492918014526,0.001274020061828196,1.3117082118988037,0.5994756817817688,-0.7613987326622009,0.45293182134628296,-0.621115505695343,-1.255291223526001,1.419264316558838,1.1622530221939087,-0.6141077280044556,-1.164191484451294,-1.6030406951904297,0.42643502354621887,1.2614854574203491,0.008359572850167751,-0.014699963852763176,-0.8603920936584473,-0.8400231003761292,-0.26611047983169556,-0.46540385484695435,-1.588570237159729,-0.2694363296031952,-0.3836987316608429,-0.012185737490653992,-1.243208885192871,-1.2100998163223267,-0.13861389458179474,0.31585803627967834,-0.6075981855392456,0.6501671075820923,-0.6031004786491394,-0.1646386682987213,-0.12616552412509918,0.39511629939079285,1.041131615638733,0.08454319089651108,0.3360391855239868,-0.008566077798604965,-1.760275959968567,-0.39291951060295105,0.4091632068157196,0.37715885043144226,0.9992360472679138,0.22336311638355255,-0.1599244922399521,0.09864802658557892,-0.2712727189064026,-0.6709241271018982,-0.5546789765357971,0.7121502757072449,0.1391444355249405,0.30577269196510315,0.7180579900741577,-0.06869619339704514,0.14235125482082367,0.013552512973546982,-1.9287623167037964,0.2906046211719513,-0.13565373420715332,0.16116197407245636,0.4407297670841217,-0.06258263438940048,-0.9013896584510803,0.9247300028800964,-0.2756952941417694,-1.1330968141555786,2.093065023422241,-0.29722726345062256,1.3545867204666138,0.22468464076519012,-1.4660307168960571,-0.24038976430892944,0.7601779103279114,0.4353305995464325,-0.198051318526268,0.05777859687805176,0.3756454586982727,0.9395982027053833,1.2142109870910645,-2.2248992919921875,-0.44146084785461426,-0.16395388543605804,0.2884313762187958,0.7454647421836853,-0.8282792568206787,1.565443992614746,-0.4750237762928009,0.06612889468669891,-0.726972758769989,-0.6746820211410522,0.3871167302131653,-0.37903258204460144,-0.5628363490104675,0.932245135307312,0.801167905330658,-0.07176153361797333,0.5938694477081299,-0.3293873071670532,-0.7330484390258789,-0.3551609516143799,0.5292895436286926,-0.6482049226760864,0.5593813061714172,0.5415501594543457,0.0872764065861702,-0.27279406785964966,0.991849422454834,-0.016641296446323395,-0.972310483455658,-0.5159560441970825,0.15190298855304718,0.010747425258159637,-0.582143247127533,-0.11695458739995956,-1.130312204360962,-0.5778594017028809,0.9978618025779724,0.9031630158424377,-0.34980911016464233,0.16263741254806519,-0.8553137183189392,-0.9714924693107605,-0.04092356935143471,-0.39167341589927673,-0.7598055005073547,-0.4497085213661194,0.017677994444966316,1.002319574356079,-0.25853073596954346,-0.2162828892469406,0.8925930261611938,0.1504150629043579,1.2734726667404175,-0.8802410960197449,0.004243689589202404,0.13731589913368225,1.1294755935668945,1.508487582206726,0.36378151178359985,0.014809802174568176,-0.30281317234039307,0.14664532244205475,2.1489179134368896,-1.241727352142334,-0.3057841658592224,0.814038872718811,-1.0089730024337769,-0.8418043851852417,0.34698668122291565,0.09393054991960526,-1.1439740657806396,-1.127117395401001,-0.016232626512646675,0.8760822415351868,-0.5859477519989014,-0.03148815035820007,-0.8809584379196167,0.403848797082901,0.20029312372207642,-0.8253200054168701,0.8874980211257935,-0.48234468698501587,-0.36022043228149414,-0.31839796900749207,0.18030838668346405,-0.610674262046814,-0.5995273590087891,-0.39020830392837524,0.1421712040901184,-1.9390790462493896,0.8166517019271851,1.1386374235153198,0.10715091228485107,-0.49715331196784973,-1.2489198446273804,2.044490337371826,-0.5016253590583801,0.26830363273620605,0.33665016293525696,-0.544951856136322,1.3665715456008911,1.3817923069000244,-1.835795283317566,-0.20999903976917267,-0.7485655546188354,0.5000512599945068,-0.6642837524414062,-1.120561957359314,-1.993761658668518,0.45922407507896423,0.5933411121368408,-1.134024739265442,1.30034601688385,-1.733839511871338,0.8846619129180908,1.06675386428833,0.38102948665618896,-0.7402130365371704,0.4715307056903839,-0.7178379893302917,0.33033472299575806,-0.35652148723602295,1.1419222354888916,1.2028907537460327,-1.0633749961853027,0.24587106704711914,-1.268522024154663,-0.3200584948062897,-0.422584593296051,1.750227928161621,-0.15701685845851898,-1.6637752056121826,0.9051046967506409,-0.14998909831047058,0.8837124109268188,0.8411164879798889,-0.1087358221411705,-0.8012146353721619,1.1993660926818848,0.7813941836357117,0.7358992695808411,-0.6372316479682922,-0.8297170996665955,0.7787063121795654,-1.198462963104248,-0.07405920326709747,-0.7698498964309692,-0.6504728198051453,-0.2286449819803238,0.36175140738487244,-0.22357647120952606,1.080306887626648,-0.29278331995010376,0.8348437547683716,-0.6172823309898376,-0.9845344424247742,0.6838406324386597,-0.37477925419807434,0.7428106069564819,-1.5117450952529907,0.5772750973701477,-0.3931577801704407,0.4860714077949524,0.704606294631958,-0.3713917136192322,0.7323991060256958,0.2213321179151535,0.1671973615884781,-0.48532962799072266,-0.5228980183601379,0.08944202214479446,0.2030457705259323,0.4435518980026245,-0.9076879024505615,-0.6723312735557556,0.6644663214683533,0.4199943542480469,-1.1812301874160767,0.16306830942630768,-0.5707793831825256,-0.18935789167881012,-0.17163601517677307,-1.4023743867874146,0.2544463872909546,-0.1826784312725067,-0.8761948347091675,-0.01139860413968563,-0.34694409370422363,0.3482072949409485,-0.10432979464530945,0.1300482302904129,-1.141204833984375,0.49265578389167786,-0.2929949164390564,-0.00968203879892826,-0.23159241676330566,0.27571389079093933,0.34206095337867737,0.37894293665885925,-0.18491700291633606,-0.33197587728500366,-0.3869515657424927,0.5141540169715881,0.28208792209625244,0.28859826922416687,0.7859012484550476,0.43426215648651123,-0.5176340937614441,-0.10730535537004471,-0.1810985803604126,-0.33289626240730286,-0.10823032259941101,0.24338145554065704,-0.6153395175933838,0.21883265674114227,-0.22254620492458344,0.29455143213272095,-0.7908092141151428,0.06586257368326187,-0.20667000114917755,0.040835991501808167,-0.10127370804548264,-0.6241124272346497,0.3163033723831177,0.07520254701375961,-0.36480000615119934,-0.526393473148346,0.6111706495285034,-0.2451532930135727,-0.1666899472475052,1.834708333015442,0.1252497285604477,0.00268924655392766,-1.6142804622650146,1.735890507698059,0.819900631904602,2.0396904945373535,1.3598359823226929,0.09117283672094345,0.3785383105278015,-0.8534103631973267,1.7747583389282227,-0.17619280517101288,0.031673867255449295,-1.0669444799423218,0.9689344167709351,-0.10715345293283463,0.5252434611320496,-0.45985695719718933,0.6418941020965576,-0.90099036693573,-1.860910415649414,0.5474377274513245,-0.644012451171875,0.43997156620025635,-1.1499732732772827,1.1484348773956299,-1.806470513343811,0.6135868430137634,2.279855966567993,-1.2757291793823242,0.4501703977584839,1.3534404039382935,0.3568996489048004,0.8479945659637451,-0.8697073459625244,0.8231530785560608,0.4239867031574249,1.6667076349258423,-0.6111205816268921,0.29868555068969727,1.0946403741836548,0.689856767654419,0.6599156856536865,-0.8416890501976013,-0.7666401267051697,-1.0243951082229614,-0.3179178535938263,0.600583016872406,1.3764888048171997,-0.478780061006546,-0.43200087547302246,-0.5762768983840942,-1.5356943607330322,0.4990067481994629,-0.22654151916503906,1.841977596282959,-1.0517066717147827,0.47393399477005005,-1.8940309286117554,-1.0546211004257202,0.8555036187171936,0.09658338874578476,-0.6991184949874878,-0.5604683756828308,-0.15247945487499237,0.5006089806556702,-0.6981703042984009,-0.0635194256901741,-0.029776418581604958,-0.48399433493614197,0.33847540616989136,-0.340878427028656,0.1085779070854187,0.2909165918827057,0.5658533573150635,-0.8993493318557739,-0.07843673229217529,0.09917721152305603,1.013929843902588,0.4317011535167694,-0.2851894199848175,-0.27400991320610046,-0.15722793340682983,0.12697215378284454,0.7432402968406677,0.37526410818099976,0.44467946887016296,0.5041784048080444,0.7058070302009583,-1.0359816551208496,-0.028428489342331886,1.3381505012512207,-0.2258034646511078,1.0283377170562744,-0.047717027366161346,0.4065040946006775,1.0411155223846436,-0.8672674894332886,-0.8455544710159302,0.98028564453125,0.44428178668022156,0.30833670496940613,0.4806637465953827,-1.0821287631988525,0.22392204403877258,-0.7655179500579834,0.23206599056720734,0.6968873143196106,-0.020320875570178032,0.14231394231319427,-0.23830781877040863,-0.9881979823112488,0.6311339735984802,0.18641093373298645,1.1926038265228271,0.27428093552589417,-1.1041313409805298,-0.14921937882900238,-0.2171364277601242,0.28819212317466736,-1.8767155408859253,0.05964764207601547,-0.3385937213897705,-0.3403452932834625,-0.060331981629133224,-0.8669783473014832,-0.5344886183738708,0.4074595272541046,1.179458498954773,-1.343919277191162,0.06312008947134018,0.22093026340007782,0.08230149745941162,0.10644683986902237,-0.11022386699914932,0.03953738883137703,0.32454442977905273,-0.7425159215927124,-0.12690795958042145,1.0905189514160156,-0.06528518348932266,1.044451117515564,0.12388831377029419,-0.5953929424285889,0.6592875123023987,0.8305927515029907,0.6043699979782104,-0.4019738733768463,-0.5882875919342041,-0.035466939210891724,0.8771065473556519,1.353427767753601,-1.2643191814422607,-0.3259828984737396,0.1705702394247055,1.0767295360565186,0.019253486767411232,-0.9876638650894165,0.41311410069465637,-0.19894595444202423,-0.26871830224990845,-0.8313261270523071,0.06914177536964417,-0.5917761325836182,-0.388378769159317,-0.4394891560077667,0.16910377144813538,0.25298407673835754,0.06129413843154907,0.10010158270597458,0.14340375363826752,1.0653501749038696,0.18756061792373657,0.6131680011749268,0.08886319398880005,0.0077054728753864765,-0.5418201684951782,0.6479108929634094,0.47703203558921814,0.22627456486225128,0.21903108060359955,-0.021883025765419006,0.3801104724407196,0.017870938405394554,-0.7554896473884583,-0.400755375623703,0.42000752687454224,0.0781506896018982,-0.0534658208489418,0.7234589457511902,0.68466717004776,-0.255459725856781,-0.4541521966457367,0.13190558552742004,-0.46894097328186035,1.0482711791992188,-0.003565853461623192,0.025320960208773613,-0.3050976097583771,0.572871744632721,-0.3793765902519226,0.06470128148794174,0.20488716661930084,-0.1460682898759842,0.3012026846408844,-0.2527346611022949,0.057633548974990845,0.379216730594635,-0.5630428791046143,-0.1306384950876236,-1.091122031211853,0.6215590834617615,0.5793208479881287,-0.016451876610517502,-0.3406236171722412,-0.1182720959186554,0.044069044291973114,-0.16080179810523987,-0.1848173439502716,-0.44205841422080994,0.9161669015884399,0.1725650578737259,-0.11287429183721542,-1.109472393989563,0.1589631587266922,-0.23217269778251648,-0.9331717491149902,1.1829763650894165,-0.0867498517036438,-0.9522760510444641,0.5161330103874207,-0.7886688709259033,-0.7520076036453247,0.860933780670166,-0.7503761649131775,-0.8432400822639465,-0.08696724474430084,-0.5378459692001343,0.7728329300880432,-0.2952917814254761,-0.1464569866657257,-0.6155375242233276,-0.9336389899253845,0.3492467403411865,1.261908769607544,1.099597454071045,-0.4210157096385956,-0.522769570350647,-0.09623263031244278,0.1011953353881836,-0.03621279075741768,3.3355274200439453,0.6848765015602112,0.42323583364486694]},"outputHidden":{"rows":20,"columns":20,"weights":[-0.1985129415988922,-0.5325888395309448,-1.6063387393951416,1.8086683750152588,3.055084228515625,2.1460511684417725,2.2497003078460693,0.291626513004303,0.45952102541923523,-2.8441600799560547,-2.353726625442505,-0.6345838904380798,0.638683557510376,-1.2647932767868042,-0.7537001371383667,1.2214635610580444,-2.833956718444824,2.3501782417297363,1.2578952312469482,0.9553676247596741,1.632030963897705,0.12061183154582977,-0.7337616086006165,-3.354142427444458,-0.659514844417572,0.14816057682037354,-0.3674478530883789,1.1320775747299194,-1.9562675952911377,1.8707584142684937,-0.08153639733791351,-0.07228470593690872,1.5931533575057983,-1.5033122301101685,-1.8737090826034546,-2.252629518508911,0.4094443917274475,-3.6887271404266357,-2.16703724861145,-2.2464349269866943,0.10567228496074677,-1.1361156702041626,-1.2947590351104736,0.4164319634437561,-0.7631700038909912,1.296546459197998,-1.02312171459198,-0.255367249250412,0.4750996232032776,2.4452946186065674,0.7257952690124512,-0.5857092142105103,0.6021586060523987,-0.1306588053703308,-0.11620663851499557,-4.1538190841674805,0.7244724035263062,0.5102859139442444,0.5098313689231873,0.3809773623943329,2.3493268489837646,1.2845138311386108,-0.7213804721832275,-0.9314555525779724,-1.598467230796814,0.4042077958583832,-0.680577278137207,0.4052096903324127,-2.4753711223602295,-0.18613843619823456,0.8048728704452515,1.2733538150787354,1.277187705039978,-1.7899699211120605,-2.907454013824463,-1.604738473892212,0.9790308475494385,-0.35305657982826233,-0.6506076455116272,-3.261561632156372,-1.1046379804611206,-1.0505130290985107,0.47975045442581177,1.3095710277557373,0.7699071168899536,0.2717718780040741,1.4838210344314575,-1.9351491928100586,-0.6743984222412109,-0.7993136048316956,-0.869253933429718,-0.8558173179626465,-0.35637491941452026,0.39310508966445923,1.1922352313995361,-0.006294906605035067,-0.7375845909118652,1.0312650203704834,0.4947720170021057,0.6867242455482483,1.9605114459991455,1.707179069519043,-0.6122757196426392,-1.7320945262908936,0.06841767579317093,-0.19997340440750122,0.2063966691493988,2.25174880027771,-1.4236340522766113,1.3844854831695557,-1.4816513061523438,1.5324238538742065,2.2212114334106445,-0.23386098444461823,-1.156611442565918,0.16994255781173706,-0.15230533480644226,-1.8177584409713745,-3.3154449462890625,-1.876584529876709,-0.6221269965171814,0.1539514809846878,-1.0527682304382324,2.4456987380981445,-0.5173879265785217,-0.3863760828971863,-0.15926581621170044,-2.542409896850586,1.7045198678970337,-0.923331618309021,0.47251275181770325,-0.3896125555038452,1.5036137104034424,-0.7668921947479248,-0.5942932367324829,0.47661730647087097,-0.18965043127536774,2.3811001777648926,0.8907581567764282,-0.5770062804222107,2.2118351459503174,1.2390071153640747,-0.42185279726982117,-1.0075538158416748,-1.4006892442703247,0.5039244890213013,-0.3685111999511719,0.7886899709701538,-0.07535537332296371,0.8952828049659729,2.051285982131958,1.5809510946273804,-0.08713818341493607,0.025551332160830498,-2.142568349838257,-1.7170603275299072,1.2668627500534058,-0.6638023853302002,-1.6780028343200684,-2.3089256286621094,1.1472108364105225,0.023496100679039955,-0.6837055683135986,-1.2780038118362427,-0.471934974193573,-0.10192102193832397,-0.019944729283452034,0.6077473163604736,-0.6936815977096558,0.011881168931722641,0.3475276529788971,0.9559326171875,-0.2694553732872009,-0.7622806429862976,-0.5861445665359497,1.2016148567199707,0.5380198359489441,-0.37276342511177063,-0.8624482154846191,-1.2320976257324219,-0.5887885689735413,1.4389288425445557,1.3502947092056274,0.8160703778266907,-0.1631156951189041,-1.0639190673828125,0.32584837079048157,1.5705699920654297,-1.1443756818771362,-0.7010311484336853,-2.4903106689453125,1.3412554264068604,-2.6682872772216797,2.196659564971924,2.809338092803955,0.30132222175598145,-0.47492265701293945,1.6492949724197388,-0.030265770852565765,-0.5643211603164673,-0.14146681129932404,-0.6677361726760864,1.5285917520523071,1.3886423110961914,-1.059541940689087,-2.659343719482422,-0.006543491967022419,-0.5753998756408691,0.6851668357849121,1.7773001194000244,0.06094222143292427,1.2319632768630981,-2.9014852046966553,6.221301555633545,1.659477710723877,-0.029397588223218918,0.9800130724906921,1.8594191074371338,0.5214110016822815,2.186856269836426,1.0031964778900146,3.3387985229492188,0.2697290778160095,-0.7276710867881775,-1.5138729810714722,-2.6039576530456543,-1.9496736526489258,2.006298542022705,-1.3841451406478882,2.284497022628784,2.3177430629730225,2.509855031967163,-1.0471147298812866,1.379122257232666,0.6631316542625427,-2.4692776203155518,1.8377944231033325,-1.4542073011398315,-0.9756061434745789,-1.5448178052902222,-0.08129347115755081,0.6553757190704346,-1.6777877807617188,0.8559982776641846,2.311617374420166,0.29371169209480286,1.6323238611221313,-0.558158278465271,0.14800815284252167,-1.761933445930481,-1.5974688529968262,-1.2535816431045532,1.3668371438980103,-0.8783721327781677,-1.5919357538223267,-0.2782213091850281,-1.6882097721099854,0.3603671193122864,-0.3890661299228668,-1.4460688829421997,-0.9799427390098572,-0.1238240897655487,0.03786082938313484,-1.399296522140503,2.332221746444702,0.4658600091934204,0.9147602915763855,-1.4048538208007812,-0.5536212921142578,-0.868209958076477,-2.332599639892578,-1.1572178602218628,1.6422061920166016,-0.7775337100028992,-0.26269176602363586,-0.35280510783195496,-2.744154930114746,0.36835938692092896,-0.339143842458725,1.2809425592422485,-0.911307156085968,-1.8334071636199951,0.3670247495174408,2.083221197128296,2.8362369537353516,0.5036246180534363,3.248473882675171,-1.6517785787582397,1.6877599954605103,-1.0121582746505737,-2.4096336364746094,-2.2747292518615723,-1.4098317623138428,-1.2911909818649292,-0.16543877124786377,1.5127893686294556,-2.371692419052124,1.8454067707061768,1.707418441772461,2.8764848709106445,2.464050769805908,0.2761172950267792,-0.872945249080658,-1.195380449295044,-0.30197227001190186,-2.881458282470703,-1.289971947669983,1.1907628774642944,-0.4499567449092865,0.4144515097141266,1.4600327014923096,1.6648249626159668,-2.3071179389953613,0.9080561399459839,0.02712864615023136,0.1820579469203949,0.2672436535358429,-0.02198028564453125,-0.21522049605846405,-0.04281158745288849,0.3792688846588135,-1.410413384437561,1.3694506883621216,0.9290304780006409,-0.1072554960846901,2.128075361251831,0.2512171268463135,-2.0689539909362793,-0.1510564535856247,0.3953724801540375,0.3648392856121063,-2.9401943683624268,0.36432287096977234,0.3984552025794983,0.2897840440273285,-0.1857418268918991,-0.09670274704694748,1.4079523086547852,1.7922065258026123,0.356538325548172,1.4734688997268677,0.42842456698417664,-1.1393752098083496,-1.933781623840332,-1.1256663799285889,-0.7252590656280518,-1.4833749532699585,1.2287887334823608,-2.005006790161133,1.2148164510726929,-0.2598487138748169,2.1101839542388916,0.32932594418525696,-0.7327232956886292,-1.904463768005371,0.13065019249916077,1.50375497341156,-1.7149348258972168,-1.9212791919708252,-1.2075304985046387,0.8319867849349976,1.2072757482528687,0.4984685778617859,-2.463803291320801,-2.694685935974121,0.12534154951572418,-1.8230416774749756,1.1289535760879517,-1.1639856100082397,2.1147444248199463,1.5566606521606445,0.9478609561920166,0.31131577491760254,0.5250376462936401,-0.8699490427970886,-1.247495174407959,1.7249447107315063,-2.8378312587738037,-2.09334135055542,-1.9415942430496216,-2.4133827686309814,-0.47285914421081543,0.5249454975128174,0.4072801172733307,1.5345025062561035,-0.9324116706848145,1.108012080192566,0.10681416839361191,0.11429915577173233,-1.4315520524978638,-2.1282923221588135,-1.0923715829849243,-2.7786307334899902,0.23921489715576172,1.5627949237823486,0.186676025390625,-2.6793806552886963,1.8735270500183105,2.5745022296905518,2.609520673751831]},"outputBias":{"rows":20,"columns":1,"weights":[0.52402263879776,-0.4675474166870117,-0.22233951091766357,0.8151184320449829,0.9466665387153625,0.5513713359832764,0.07554702460765839,-0.5818870067596436,0.7327850461006165,-0.2459121197462082,0.0022169197909533978,-0.9276553988456726,-0.6278008222579956,-0.3091731369495392,-0.7696697115898132,-0.8924216032028198,-0.007036666385829449,-0.4375719726085663,-0.5204606056213379,-0.03073829971253872]},"cellActivationMatrix":{"rows":20,"columns":32,"weights":[0.130019873380661,-0.7936004400253296,0.47307729721069336,-1.4320313930511475,0.09845177084207535,0.08890413492918015,-0.32702258229255676,-0.6001340746879578,1.1482656002044678,0.3694218695163727,0.5127817392349243,0.1512395292520523,1.6827964782714844,0.8991218209266663,0.24345648288726807,0.6722477078437805,-0.5809968113899231,-1.665969729423523,0.24934014678001404,0.8377434611320496,0.23991888761520386,0.043206144124269485,0.35647454857826233,0.18592478334903717,1.495250940322876,0.1992672234773636,-0.06715105473995209,-0.9269116520881653,0.34046101570129395,0.12281671911478043,-0.8875186443328857,0.4259914755821228,-0.12725479900836945,-0.2511170208454132,0.12238679081201553,0.864508867263794,-0.3408759832382202,0.6428977251052856,0.1496368795633316,-0.6300889253616333,-0.23275358974933624,1.1236387491226196,-1.8952674865722656,-0.5415486097335815,-0.8270928859710693,-0.7135822772979736,0.12167174369096756,-1.0174787044525146,-0.5491843223571777,1.2942694425582886,-0.26367077231407166,-0.6280103325843811,-1.0155212879180908,0.48956385254859924,-0.008558172732591629,-0.8973758220672607,-2.0628466606140137,-1.2897392511367798,2.3834164142608643,1.0321239233016968,-0.032048799097537994,-0.7111921310424805,0.47059667110443115,-0.5024117827415466,-0.3624187409877777,-0.19830158352851868,-0.670798659324646,1.3269473314285278,-0.4749324321746826,0.1990317702293396,-0.045923180878162384,-0.1876688003540039,-1.4578819274902344,0.26980191469192505,-0.634558379650116,0.37335559725761414,-1.9484952688217163,-1.6346832513809204,0.30497077107429504,-1.4126592874526978,0.3118951916694641,2.792719841003418,-0.9734725952148438,-1.1773720979690552,0.24582092463970184,0.11455714702606201,0.4090881943702698,0.5801196694374084,-1.9967867136001587,0.16052570939064026,-0.21591176092624664,2.0293242931365967,0.4769156575202942,0.6169967651367188,0.9735974073410034,0.4539831578731537,-0.6858128309249878,0.682102382183075,-0.07596642524003983,0.899724006652832,0.5413815379142761,0.4480001628398895,0.37536415457725525,0.6570727229118347,-0.9236209988594055,0.5624870657920837,1.7433247566223145,-0.21275202929973602,0.449660986661911,-0.40601110458374023,-0.10279588401317596,0.3132566809654236,-0.7227271795272827,1.0542691946029663,-0.17130456864833832,0.3442751169204712,0.2203035205602646,-1.0401543378829956,-0.5325987339019775,0.36741015315055847,0.7896474003791809,0.7713350057601929,-0.032182756811380386,-0.40874338150024414,-0.13570134341716766,-0.6004460453987122,-0.5185244083404541,-1.2001104354858398,-0.6988833546638489,1.1676464080810547,0.11563702672719955,0.8174829483032227,0.001628511119633913,0.06890998780727386,0.647803544998169,1.00187349319458,-0.6568335890769958,-0.08034767955541611,0.6041930913925171,-0.6681370139122009,-0.3917387127876282,-0.27576786279678345,-0.6247891187667847,-0.8459749221801758,1.0686813592910767,0.35307857394218445,0.4013631343841553,-0.7756302952766418,-1.1524736881256104,-1.2554875612258911,-0.5825807452201843,0.32489049434661865,-0.6989420056343079,-0.10998975485563278,0.7992989420890808,0.8793275356292725,-0.7979668378829956,0.33374959230422974,1.0777696371078491,-1.8422977924346924,0.9714363217353821,0.273945689201355,-0.3094252943992615,-1.104449987411499,-0.10242277383804321,-0.14421647787094116,-0.31010350584983826,0.5870851278305054,1.929600477218628,0.9152266979217529,0.284002423286438,0.3432723879814148,0.9005401134490967,0.480559766292572,-0.330785870552063,0.686894416809082,-0.7060959339141846,-0.382820188999176,0.4272896647453308,1.0559964179992676,-0.9738408327102661,-0.5704530477523804,-0.19786003232002258,0.024873482063412666,1.2247060537338257,0.24314585328102112,0.5953100323677063,-1.2555124759674072,-0.4861406683921814,-0.78508061170578,-0.369984894990921,-0.44897016882896423,-0.5248796343803406,0.9348148107528687,0.29053109884262085,1.5843744277954102,0.04933986812829971,-0.21080303192138672,0.440470814704895,1.0098896026611328,-0.4998396933078766,-0.3008667826652527,0.44729045033454895,0.18209420144557953,-0.03723570331931114,-0.5141655802726746,-0.750137448310852,-1.1310476064682007,0.46074727177619934,0.19845950603485107,0.46656614542007446,-1.1039074659347534,-0.17144013941287994,-1.0397632122039795,-0.5898568630218506,0.3911801874637604,-0.5172233581542969,-0.06498848646879196,0.16992667317390442,0.9379280805587769,-0.8214244246482849,0.2530950903892517,0.5178877711296082,-0.8100610375404358,-0.1432662457227707,-0.24184827506542206,0.13250210881233215,-0.3267390727996826,0.48162028193473816,-0.6472724080085754,0.14547663927078247,-0.2800516188144684,0.2330750674009323,0.5739023089408875,-0.8470050096511841,-0.6148086786270142,-1.5207172632217407,-0.014874333515763283,-0.030506128445267677,0.4172344505786896,0.06466883420944214,0.010945752263069153,0.010030606761574745,0.25694891810417175,-0.9084320664405823,0.12694492936134338,0.4724496901035309,0.3042410910129547,0.0943276435136795,-0.7158883213996887,0.8565217852592468,-0.3170931041240692,0.3402949869632721,-0.36977726221084595,-0.15856458246707916,0.08487053960561752,-0.247576043009758,-0.029644595459103584,0.1035006046295166,-0.8215694427490234,-0.3505052924156189,0.14388568699359894,0.09680958837270737,-0.0019121805671602488,-0.04959989711642265,-0.4379114508628845,0.7866939306259155,0.2737075686454773,1.5416232347488403,0.03940700367093086,0.2043168842792511,0.650486171245575,0.5858188271522522,-1.6564539670944214,-0.0780559554696083,0.753244936466217,-0.24012775719165802,0.09765846282243729,0.3769523501396179,0.3394653797149658,1.316780924797058,1.2282755374908447,-0.25846442580223083,-1.3678089380264282,0.07754659652709961,0.9777618050575256,0.695801854133606,0.032822586596012115,0.762182891368866,-0.2415471225976944,-1.7417831420898438,0.5903711915016174,0.5357120633125305,0.0005598594434559345,-0.7836275100708008,-0.39668750762939453,0.3726693093776703,1.5466694831848145,-1.705368995666504,0.2591155469417572,-0.83726966381073,-0.7206388711929321,0.939022958278656,-0.6108112931251526,-0.15653397142887115,0.8279633522033691,-1.8257337808609009,-0.6057851910591125,-0.8394689559936523,1.1479178667068481,1.0240919589996338,-1.168945074081421,-0.5344231724739075,-1.6263748407363892,0.5029799938201904,0.5677983164787292,0.04131018742918968,0.40824902057647705,0.8418746590614319,0.7404770255088806,0.7873703837394714,-0.44267669320106506,-0.04972436651587486,-1.1020325422286987,0.5484106540679932,-0.36055412888526917,0.19683611392974854,-0.930483341217041,-0.32811397314071655,-0.08720410615205765,-0.6116971373558044,-0.6541280746459961,-0.4381602108478546,0.36210188269615173,0.915902316570282,1.2791447639465332,-0.4792648255825043,-0.46039101481437683,-0.48892742395401,0.7906680107116699,-1.3512182235717773,0.8367380499839783,0.0645085871219635,-0.6064113974571228,0.22250062227249146,-0.39547964930534363,0.15611520409584045,-1.1224730014801025,1.3726125955581665,-1.0891212224960327,-0.4949854016304016,0.08094756305217743,-0.6418553590774536,-0.32062196731567383,0.32512548565864563,-0.4355873763561249,-0.059495702385902405,-0.4061408042907715,0.23593725264072418,-0.03475501388311386,0.41456547379493713,0.3322816491127014,-1.4243738651275635,0.2941983938217163,-1.467029094696045,-1.6191247701644897,-0.21143929660320282,-2.6348226070404053,0.8346086144447327,-0.5213465094566345,0.11195351183414459,-2.3562331199645996,-0.9654178023338318,0.40790659189224243,0.2943557798862457,0.2500438690185547,-1.7454935312271118,-0.996512234210968,0.916699230670929,0.15772788226604462,0.026472115889191628,0.6669599413871765,-0.04436309635639191,0.1838430017232895,-0.037486933171749115,0.336483359336853,1.0317432880401611,-1.7601025104522705,0.13178308308124542,0.21623378992080688,0.11222893744707108,-0.228885680437088,1.7038984298706055,-0.6125033497810364,0.6251243352890015,-0.462015837430954,2.236021041870117,2.037623167037964,-0.15318632125854492,1.414629578590393,0.05361924320459366,-2.862492799758911,0.8333796858787537,1.7313852310180664,0.6950982213020325,-0.27581968903541565,-0.42102140188217163,0.3438709080219269,1.89236581325531,0.24325592815876007,-1.21257483959198,-1.900208592414856,0.30384722352027893,0.1433878242969513,-0.8138926029205322,-0.7004386782646179,0.8395275473594666,-0.7167859077453613,0.353541761636734,0.9903599619865417,-0.5102542638778687,-0.00823595467954874,-1.0643196105957031,-0.7056132555007935,-1.2145445346832275,1.5761512517929077,-0.8106649518013,-1.2417018413543701,-0.41354605555534363,-1.059402346611023,1.2428568601608276,-1.0238351821899414,0.2848202586174011,2.4167048931121826,-0.15306773781776428,-1.1459057331085205,0.536122739315033,0.6293529272079468,0.693979799747467,-0.24303461611270905,-1.2286913394927979,0.9968735575675964,0.3992217183113098,1.6248246431350708,0.4335726201534271,0.22359980642795563,0.4853114187717438,0.1772409975528717,-0.38392508029937744,-0.026909224689006805,-0.4979497492313385,0.13951914012432098,0.18232552707195282,0.2509458661079407,0.2772400379180908,-0.3450581431388855,-1.1784173250198364,0.22239646315574646,-0.7475894689559937,0.2871699333190918,-1.2430518865585327,-1.1815460920333862,0.32400745153427124,-0.937078595161438,0.07130630314350128,1.1563084125518799,-0.7267543077468872,-0.16241969168186188,-0.38729536533355713,0.06687471270561218,-0.11613985151052475,0.37362879514694214,-2.539088249206543,-0.9856278300285339,-0.7718188166618347,1.3416820764541626,0.5784386396408081,-0.09436502307653427,-0.2836850881576538,0.37480661273002625,0.3768562078475952,-0.015070629306137562,0.06777191162109375,-2.2496817111968994,0.8284752368927002,-0.16835251450538635,-0.21464326977729797,-0.052869103848934174,1.16490638256073,0.45199453830718994,-0.208120658993721,-0.502122700214386,0.2344214916229248,1.5499743223190308,0.377957284450531,1.1311638355255127,-0.46898722648620605,-1.0442713499069214,-0.003924196120351553,1.3578379154205322,-0.19733098149299622,0.5173012614250183,-0.0598284974694252,-0.6458895206451416,0.6610526442527771,-0.04705658182501793,-0.16109932959079742,-0.5279901623725891,0.2505128085613251,-0.7733625173568726,0.06545448303222656,-0.23391245305538177,0.3470962941646576,-1.1177301406860352,0.016569580882787704,-1.351054310798645,-0.001529421773739159,-0.2417719066143036,-0.42845651507377625,-1.0773175954818726,0.29805678129196167,0.23376500606536865,-0.468172162771225,0.32026606798171997,-0.016130350530147552,1.068709135055542,0.5112220644950867,1.184449315071106,-0.615428626537323,-0.29387199878692627,-0.36892789602279663,1.384883165359497,0.013244396075606346,0.8412665128707886,0.23341785371303558,-0.3255694508552551,0.9856184720993042,-0.2989340126514435,-0.7436373233795166,-0.9302133917808533,0.920174777507782,-0.40209415555000305,-1.4304851293563843,1.3458505868911743,-0.0413404144346714,0.6078407168388367,1.2876672744750977,0.07103844732046127,-0.9657921195030212,-0.7134324312210083,-0.2562275230884552,0.9727951884269714,-0.7818918228149414,-1.4849852323532104,2.210284471511841,-0.20606711506843567,0.32317447662353516,0.8570818901062012,-0.9931982159614563,0.7229828238487244,0.41437506675720215,-0.6397950053215027,1.0951122045516968,0.8374378085136414,0.3045194447040558,-1.0335050821304321,-0.680732011795044,0.40296417474746704,1.325075387954712,0.6732243895530701,0.08845341950654984,-1.0279093980789185,-0.10532893985509872,-0.18209987878799438,-0.8367432355880737,-0.671826183795929,0.20314836502075195,0.9350509643554688,0.48858824372291565,0.05716324225068092,-0.7869037985801697,0.11357536911964417,-0.2441682368516922,1.190561294555664,0.21261461079120636,-1.2746869325637817,2.4306323528289795,0.0527813695371151,1.1488770246505737,0.4703167974948883,-1.0000133514404297,0.722965657711029,-0.1361018568277359,-0.41447746753692627,1.3902649879455566,0.6820153594017029,0.5187947154045105,-1.2740206718444824,-0.5773712396621704,0.83786541223526,1.6146373748779297,0.8778830766677856,-0.2037656009197235,-1.1490111351013184,-0.3059232831001282,-0.7028415203094482,-0.5038748979568481,-0.6793467402458191,-0.27585896849632263,0.09725762158632278,-0.2730902433395386,1.8589226007461548,-0.24975629150867462,-0.25680679082870483,0.18084831535816193,0.29874148964881897,-1.8223137855529785,-0.15043184161186218,1.0213347673416138,0.619917094707489,-0.3837709128856659,-2.610910415649414,-0.5063306093215942,0.14647968113422394,0.2178794890642166,1.4246752262115479,-0.3476101756095886,-0.5648327469825745,-0.608388364315033,0.08712562918663025,-0.03043597750365734,0.3755219876766205,-0.3450854420661926,1.0324007272720337,0.7312893271446228,0.5501136779785156,-0.4774811267852783,0.6348175406455994,0.20843903720378876,1.3462097644805908]},"cellActivationHidden":{"rows":20,"columns":20,"weights":[-0.8058260083198547,-0.13372282683849335,-0.026959260925650597,0.24108736217021942,-0.23737581074237823,-0.19323031604290009,0.9917871952056885,-0.8615673780441284,0.08871271461248398,-0.1998893916606903,-0.5542566180229187,-2.002429723739624,-1.3074668645858765,0.6052104234695435,1.240753412246704,-0.09207552671432495,0.08247949928045273,-1.3942749500274658,0.11091993004083633,1.611477255821228,0.6757569313049316,0.6097846031188965,-1.1543444395065308,-0.1494741588830948,0.2681800127029419,0.4593104422092438,-0.16163501143455505,0.3173586130142212,0.19828134775161743,0.06738866865634918,-0.30956998467445374,-0.050302691757678986,-0.47676199674606323,0.30675172805786133,-0.7202447056770325,0.042033154517412186,-0.3496861159801483,-0.48844704031944275,-0.30548301339149475,-0.4529043138027191,-0.0690673440694809,-0.1332748830318451,-0.9526350498199463,-0.9880034327507019,0.3817017376422882,-0.34960120916366577,0.32405054569244385,0.5238974690437317,-0.07060834020376205,0.32929304242134094,0.18618862330913544,0.4145977199077606,0.054332636296749115,-0.06695403158664703,-0.06386435031890869,0.9902545809745789,0.10161861777305603,-0.695952832698822,-0.3804446756839752,0.3193649649620056,0.19273220002651215,1.0986261367797852,0.9745102524757385,-0.03488929197192192,-1.0507116317749023,0.18219035863876343,-0.184088334441185,0.6211671233177185,0.8729615211486816,0.938232421875,0.4712626039981842,0.718115508556366,-1.0594738721847534,2.2064406871795654,1.9227789640426636,-0.5112865567207336,0.8815762996673584,-0.13298073410987854,-0.25408700108528137,-0.16395266354084015,0.48587778210639954,0.9319786429405212,0.4813888967037201,0.41946539282798767,-0.1337275207042694,0.3672110438346863,-0.03529414162039757,-0.3596423268318176,-0.15260951220989227,-0.2899504005908966,0.02866899035871029,0.45475950837135315,-0.3322632610797882,0.8375725150108337,-0.7760563492774963,-0.6807339191436768,0.020994920283555984,-0.3337777554988861,0.22735686600208282,-0.7393777370452881,-0.5911438465118408,0.37056711316108704,0.2370576560497284,-1.2926586866378784,0.8264383673667908,-1.0251402854919434,0.7979816794395447,0.11755069345235825,-0.7661188244819641,-0.16002686321735382,-0.6822547316551208,0.21383018791675568,-1.0215235948562622,0.3325602114200592,0.5692729353904724,0.057250164449214935,-0.6954373717308044,